tree
version=v4
num_class=1
num_tree_per_iteration=1
label_index=0
max_feature_idx=26
objective=regression
feature_names=AQI PM2.5 PM10 NO2 SO2 CO O3 Temperature Humidity Precipitation month log_PM2.5 log_CO AQI_lag_1 AQI_lag_2 AQI_roll_mean_3 AQI_roll_std_3 AQI_diff season_Spring season_Summer season_Winter weekday_1 weekday_2 weekday_3 weekday_4 weekday_5 weekday_6
feature_infos=[15.5:214.625] [0.65000000000000002:119.771] [0.92100000000000004:131.58600000000001] [0:54.566500000000005] [0.22900000000000001:41.534999999999997] [59.917000000000002:2022.9580000000001] [30.375:130.16800000000001] [14.842000000000001:33.292000000000002] [25.188499999999998:90.25] none [1:12] [0.50077528791248926:4.7938961904550403] [4.1095122819030312:7.6128102792039094] [15.5:214.625] [15.5:214.625] [41.81966666666667:204.625] [0.041501004211373697:67.555155586626682] [-98.417000000000002:88.540999999999997] [0:1] [0:1] [0:1] [0:1] [0:1] [0:1] [0:1] [0:1] [0:1]
tree_sizes=1080 1124 1269 1292 1204 1362 1281 1443 1371 1517 1523 1366 1691 1694 1774 1446 1608 1693 1694 1779 1777 1852 1772 1613 1862 1780 1954 1694 2109 1785 1865 1697 1876 2129 1781 1955 1949 1795 2038 2033 2043 2192 2367 2271 2039 2272 2289 2373 2373 2386 2461 2627 2473

Tree=0
num_leaves=12
num_cat=0
split_feature=1 1 1 1 6 4 1 1 3 15 6
split_gain=487095 65196.8 49774.7 13580.8 2491.74 2394.89 2170.98 1661.59 800.716 278.236 10.2666
threshold=37.152000000000008 21.687500000000004 48.63750000000001 29.552000000000003 67.979500000000016 21.089500000000005 19.847500000000004 27.392000000000007 26.498000000000001 104.13883333333335 68.166500000000013
decision_type=2 2 2 2 2 2 2 2 2 2 2
left_child=1 6 9 5 -5 7 -1 -3 -6 -2 -9
right_child=2 3 -4 4 8 -7 -8 10 -10 -11 -12
leaf_value=90.410044327989411 93.501840754843073 91.521624454640161 96.218766674629151 92.25454002615966 92.664487416117908 92.391565262014666 91.172469086081804 91.993560157353642 93.250928523342807 94.254289409458238 92.193966261239751
leaf_weight=187 49 116 93 28 28 20 55 19 22 36 21
leaf_count=187 49 116 93 28 28 20 55 19 22 36 21
internal_value=92.3443 91.3012 95.1966 92.0373 92.7308 91.7284 90.5531 91.6457 92.9831 93.9144 92.0646
internal_weight=674 496 178 254 78 176 242 156 50 85 40
internal_count=674 496 178 254 78 176 242 156 50 85 40
is_linear=0
shrinkage=1


Tree=1
num_leaves=12
num_cat=0
split_feature=1 1 1 1 1 5 6 7 3 8 17
split_gain=405194 58022.6 40919.3 7038.06 6543.64 1877.6 1034.57 894.836 585.877 349.513 53.4001
threshold=37.152000000000008 23.802000000000003 45.63750000000001 30.214500000000005 19.847500000000004 578.75000000000011 67.979500000000016 26.652000000000005 26.173000000000005 67.083500000000015 -6.4579999999999975
decision_type=2 2 2 2 2 2 2 2 2 2 2
left_child=1 4 -2 5 -1 9 -5 -6 -8 -3 -11
right_child=2 3 -4 6 7 -7 8 -9 -10 10 -12
leaf_value=-1.7866556762630934 1.2229843898376169 -0.25262723294294454 3.4192518861417791 0.0043829203417879671 -0.53737012798798145 0.12099392702002576 0.22892331890953449 -1.1646250933872047 0.72695660836451137 -0.34775530914882857 -0.65471976691697431
leaf_weight=181 65 33 106 22 27 23 25 87 26 27 49
leaf_count=181 65 33 106 22 27 23 25 87 26 27 49
internal_value=-0.0210797 -0.952506 2.64782 -0.110481 -1.52506 -0.387016 0.381721 -1.04729 0.528392 -0.494866 -0.576162
internal_weight=671 500 171 205 295 132 73 114 51 109 76
internal_count=671 500 171 205 295 132 73 114 51 109 76
is_linear=0
shrinkage=0.0646824


Tree=2
num_leaves=14
num_cat=0
split_feature=1 1 1 1 4 1 1 1 6 1 6 7 6
split_gain=377616 49054.7 39459.3 10405 2333.08 2044.57 1763.46 953.367 929.761 322.713 227.919 138.267 101.899
threshold=37.152000000000008 21.687500000000004 52.687500000000007 29.925000000000001 22.698000000000004 19.847500000000004 25.800000000000001 41.452000000000005 71.104000000000013 33.625000000000007 65.729000000000013 27.452000000000002 84.021000000000015
decision_type=2 2 2 2 2 2 2 2 2 2 2 2 2
left_child=1 5 7 4 6 -1 12 -2 -5 -10 -7 -8 -3
right_child=2 3 -4 8 -6 10 11 -9 9 -11 -12 -13 -14
leaf_value=-1.6983829157471462 0.9664088642371953 -0.86418664539782164 3.5630380683312191 0.032683679139557498 0.12202054187286537 -1.1926340043638664 -0.145348809736986 1.7485175444768619 0.2642254074315496 0.68443832583939401 -0.58283724006335846 -0.38567292883229076 -0.46021263309170796
leaf_weight=177 38 68 83 26 19 34 25 57 26 23 23 43 26
leaf_count=177 38 68 83 26 19 34 25 57 26 23 23 43 26
internal_value=0.0349565 -0.893577 2.54176 -0.264907 -0.525933 -1.55972 -0.603422 1.50492 0.358007 0.510124 -1.01875 -0.31462 -0.78372
internal_weight=668 490 178 256 181 234 162 95 75 49 57 68 94
internal_count=668 490 178 256 181 234 162 95 75 49 57 68 94
is_linear=0
shrinkage=0.0646824


Tree=3
num_leaves=14
num_cat=0
split_feature=1 1 1 1 1 7 24 14 14 15 0 5 17
split_gain=331785 45828.6 28274 7325.48 4897.47 1222.65 1049.69 947.962 853.805 577.935 545.233 170.663 127.187
threshold=37.152000000000008 24.610500000000005 44.735500000000009 19.133500000000005 29.552000000000003 27.190000000000001 1.0000000180025095e-35 107.43750000000001 87.395500000000013 88.173666666666676 80.208500000000015 384.1665000000001 -1.5630000000000022
decision_type=2 2 2 2 2 2 2 2 2 2 2 2 2
left_child=1 3 9 -1 6 11 10 8 -6 -2 -3 -5 -12
right_child=2 4 -4 5 7 -7 -8 -9 -10 -11 12 -13 -14
leaf_value=-1.6684801971409122 0.59424970805398758 -0.13423041511413536 3.0030572692635968 -0.68687061206477484 0.18269174812656439 -1.0874987271136265 0.062597144757892687 -0.0034212184888943839 0.70694121636204144 1.336697355400827 -0.25999037314349005 -0.28576300695097234 -0.60348470630991147
leaf_weight=148 20 24 111 26 35 114 20 32 22 46 19 20 46
leaf_count=148 20 24 111 26 35 114 20 32 22 46 19 20 46
internal_value=0.00825594 -0.83657 2.37637 -1.32325 -0.0643842 -0.959575 -0.347384 0.282257 0.428971 1.17406 -0.437815 -0.561112 -0.530895
internal_weight=683 506 177 308 198 160 109 89 57 66 89 46 65
internal_count=683 506 177 308 198 160 109 89 57 66 89 46 65
is_linear=0
shrinkage=0.0646824


Tree=4
num_leaves=13
num_cat=0
split_feature=1 1 1 4 1 6 1 1 14 0 6 6
split_gain=295231 41576.6 30462.5 9284.24 4431.76 2818.58 1220.51 1020.52 949.045 821.482 120.186 52.0815
threshold=37.152000000000008 21.542000000000005 48.63750000000001 23.150500000000005 29.925000000000001 84.729000000000013 17.068500000000004 24.700000000000006 100.52100000000002 96.375000000000014 81.104000000000013 82.979000000000013
decision_type=2 2 2 2 2 2 2 2 2 2 2 2
left_child=1 5 -2 4 7 6 -1 11 -5 -6 -9 -3
right_child=2 3 -4 8 9 -7 -8 10 -10 -11 -12 -13
leaf_value=-1.7314547673230292 1.111562078391283 -0.83357856126296515 2.9336948751388698 0.86710342186870593 0.33502535310232756 -0.51882878130229682 -1.203076212505636 -0.45163631585823699 0.21248821780324326 -0.12930732546567283 -0.22486416761145112 -0.41409984310495074
leaf_weight=101 76 53 101 20 25 22 129 69 22 29 33 20
leaf_count=101 76 53 101 20 25 22 129 69 22 29 33 20
internal_value=-0.0359551 -0.810198 2.20775 -0.245538 -0.408477 -1.39942 -1.46973 -0.562558 0.58786 0.0966429 -0.39336 -0.75532
internal_weight=700 523 177 271 229 252 230 175 42 54 102 73
internal_count=700 523 177 271 229 252 230 175 42 54 102 73
is_linear=0
shrinkage=0.0646824


Tree=5
num_leaves=15
num_cat=0
split_feature=1 1 1 1 6 4 1 4 1 0 7 5 1 16
split_gain=265021 31748.3 27556.1 7059.77 1877.34 1653.9 1624.41 1529.56 1353.38 913.579 641.252 442.198 434.404 117.157
threshold=36.760500000000008 21.542000000000005 52.687500000000007 28.425000000000004 71.104000000000013 25.581500000000002 17.981000000000005 21.319000000000006 33.895500000000006 93.458500000000015 26.862500000000004 530.25000000000011 24.700000000000006 15.618215416160391
decision_type=2 2 2 2 2 2 2 2 2 2 2 2 2 2
left_child=1 6 5 7 9 -2 -1 12 11 -5 -8 -6 -3 -14
right_child=2 3 -4 4 8 -7 10 -9 -10 -11 -12 -13 13 -15
leaf_value=-1.5025958826513555 0.88135021292490801 -0.72162908972234263 2.890085848015318 0.088938596323293151 -0.097256378543389255 1.6095010038154529 -0.45695961368004212 0.021613499371447145 0.74566568737345906 -0.44138962729991749 -1.0812055943085908 0.28228410802246146 -0.4779253892654961 -0.20342152973457725
leaf_weight=123 63 73 87 26 19 42 20 19 19 20 89 24 57 21
leaf_count=123 63 73 87 26 19 42 20 19 19 20 89 24 57 21
internal_value=0.030433 -0.741674 2.04529 -0.266617 0.138605 1.2375 -1.29179 -0.520369 0.358179 -0.163921 -0.993815 0.122487 -0.586946 -0.422091
internal_weight=702 510 192 278 108 105 232 170 62 46 109 43 151 78
internal_count=702 510 192 278 108 105 232 170 62 46 109 43 151 78
is_linear=0
shrinkage=0.0646824


Tree=6
num_leaves=14
num_cat=0
split_feature=1 1 1 1 1 1 6 14 13 16 5 1 2
split_gain=229605 27689.2 24546.6 4139.49 2893.98 1713.63 984.515 985.043 702.092 661.741 390.57 292.45 94.5024
threshold=35.998000000000012 24.610500000000005 52.687500000000007 18.802000000000003 29.552000000000003 41.452000000000005 67.979500000000016 85.312500000000014 76.854500000000016 6.3086267713116273 390.4790000000001 27.427000000000003 67.052500000000009
decision_type=2 2 2 2 2 2 2 2 2 2 2 2 2
left_child=1 3 5 -1 8 12 -6 -8 -3 -5 -11 -10 -2
right_child=2 4 -4 9 6 -7 7 -9 11 10 -12 -13 -14
leaf_value=-1.3781449427421237 0.86768905630469417 -0.037335762016418049 2.7481959316623139 -0.96762899077057296 -0.11471492277220137 1.4439919731736992 0.011615903903217248 0.57993339158706425 -0.52394180742669616 -0.67828487025014961 -0.23331226989032 -0.21268347768788379 0.40423539648853052
leaf_weight=145 33 31 79 97 24 56 21 28 41 49 19 34 19
leaf_count=145 33 31 79 97 24 56 21 28 41 49 19 34 19
internal_value=-0.00415932 -0.741906 1.89149 -1.10662 -0.0962754 1.16314 0.208082 0.361854 -0.305806 -0.831661 -0.580431 -0.40675 0.752641
internal_weight=676 489 187 310 179 108 73 49 106 165 68 75 52
internal_count=676 489 187 310 179 108 73 49 106 165 68 75 52
is_linear=0
shrinkage=0.0646824


Tree=7
num_leaves=16
num_cat=0
split_feature=1 1 1 1 4 1 1 5 7 17 1 5 1 15 15
split_gain=191898 28358.6 19471.6 3241.71 2039.35 1544.51 1511.56 809.601 644.977 542.178 529.151 223.494 128.27 94.9821 74.2589
threshold=33.514500000000005 52.687500000000007 23.802000000000003 18.404000000000003 30.702500000000004 29.925000000000001 39.931000000000004 609.47900000000016 26.862500000000004 -11.020499999999997 63.277000000000008 530.25000000000011 27.392000000000007 98.791666666666686 99.722166666666666
decision_type=2 2 2 2 2 2 2 2 2 2 2 2 2 2 2
left_child=2 4 3 -1 6 7 14 9 -5 -4 -3 -7 -11 -8 -2
right_child=1 10 5 8 -6 11 13 -9 -10 12 -12 -13 -14 -15 -16
leaf_value=-1.3164827788851414 0.46327400822577702 1.7016426677805063 -0.085845889682961668 -0.45045815986006121 1.3644847969060205 -0.015554295143833382 0.53797417610123943 0.07446865149879274 -0.89160389180234634 -0.51675451876664047 2.8960287513386693 0.26946213204218067 -0.26613792416594473 1.1498020487690117 0.19523919558504937
leaf_weight=137 34 39 27 37 34 20 19 19 113 52 45 20 36 24 19
leaf_count=137 34 39 27 37 34 20 19 19 113 52 45 20 36 24 19
internal_value=-0.0028211 1.5746 -0.744891 -1.06768 0.914405 -0.196251 0.690415 -0.298869 -0.802349 -0.361128 2.47864 0.142144 -0.43568 0.970186 0.394289
internal_weight=675 214 461 287 130 174 96 134 150 115 84 40 88 43 53
internal_count=675 214 461 287 130 174 96 134 150 115 84 40 88 43 53
is_linear=0
shrinkage=0.0646824


Tree=8
num_leaves=15
num_cat=0
split_feature=11 11 11 4 11 6 4 4 11 11 6 11 8 14
split_gain=168838 22534.6 14775.4 5271.45 2968.65 1882.29 1186.19 1091.82 722.381 524.623 390.833 386.74 298.642 252.453
threshold=3.6312598985094202 3.1266468784603982 3.9831771081144516 23.150500000000005 3.4011131779056147 84.729000000000013 26.021000000000004 14.579000000000002 2.894169768639403 3.2939812899229426 64.229000000000013 3.7118877209690742 69.271000000000015 104.64600000000002
decision_type=2 2 2 2 2 2 2 2 2 2 2 2 2 2
left_child=1 5 6 4 9 8 11 10 -1 13 -6 -2 -11 -3
right_child=2 3 -4 -5 7 -7 -8 -9 -10 12 -12 -13 -14 -15
leaf_value=-1.3465045656285464 0.35440854715084524 -0.59553800556153291 2.3239942827561113 0.48527460010857637 -0.0070954450265566758 -0.43374107120193017 1.3522459628091346 -0.27925263064703287 -0.92734922882184778 -0.034473523589019846 0.36250100887076125 0.86211888017571348 -0.35913085689481278 -0.23574915491287948
leaf_weight=87 22 88 81 36 19 28 38 23 132 20 26 33 29 20
leaf_count=87 22 88 81 36 19 28 38 23 132 20 26 33 29 20
internal_value=-0.0224623 -0.619194 1.6857 -0.193278 -0.310734 -1.0554 1.03211 0.0446836 -1.12245 -0.461016 0.222505 0.709184 -0.243295 -0.543402
internal_weight=682 508 174 261 225 247 93 68 219 157 45 55 49 108
internal_count=682 508 174 261 225 247 93 68 219 157 45 55 49 108
is_linear=0
shrinkage=0.0646824


Tree=9
num_leaves=17
num_cat=0
split_feature=1 1 1 1 1 1 7 0 7 16 0 17 6 1 10 1
split_gain=146924 28517.5 7606.22 5170.91 4120.28 1191.04 998.9 1177.39 827.632 463.784 440.421 393.822 342.877 224.785 222.801 112.762
threshold=41.979000000000006 25.950000000000006 63.277000000000008 19.940000000000001 32.664500000000011 44.735500000000009 27.452000000000002 85.666500000000013 27.054000000000006 15.618215416160391 67.354500000000016 2.5204999999999989 85.458000000000013 16.566500000000005 3.5000000000000004 29.100000000000005
decision_type=2 2 2 2 2 2 2 2 2 2 2 2 2 2 2 2
left_child=1 3 5 13 6 -2 7 -3 14 11 -10 -6 -7 -1 -5 -8
right_child=2 4 -4 8 9 12 15 -9 10 -11 -12 -13 -14 -15 -16 -17
leaf_value=-1.2670110708846678 0.66855741839529181 0.4011469031381622 2.6493814270165501 -0.41180853681742918 0.43882147527628612 0.88052476062801788 -0.36618975040737456 -0.1615734459023746 -0.26759977936322116 0.6724319767258915 -0.7147265314198179 0.11444888542014608 1.7297802721331912 -0.87618357790974677 -0.12124522667211338 -0.13105153356825233
leaf_weight=80 21 20 41 28 35 23 42 35 20 23 95 34 49 98 26 21
leaf_count=80 21 20 41 28 35 23 42 35 20 23 95 34 49 98 26 21
internal_value=-0.0156964 -0.481541 1.86396 -0.837175 0.112398 1.39051 -0.139059 0.0607302 -0.551332 0.424682 -0.652555 0.299018 1.53936 -1.08418 -0.295794 -0.304447
internal_weight=691 557 134 347 210 93 118 55 169 92 115 69 72 178 54 63
internal_count=691 557 134 347 210 93 118 55 169 92 115 69 72 178 54 63
is_linear=0
shrinkage=0.0646824


Tree=10
num_leaves=17
num_cat=0
split_feature=1 1 1 1 1 4 12 7 3 1 0 6 1 6 3 2
split_gain=148677 21859.3 6962.49 3969.61 2733.49 2509.85 1396.3 760.596 362.804 323.558 547.897 254.296 232.305 115.232 96.6371 84.5382
threshold=38.777000000000008 23.629500000000004 48.63750000000001 32.664500000000011 19.847500000000004 24.227000000000004 6.4430704407405628 26.652000000000005 31.754000000000001 28.533000000000005 80.479000000000013 69.146000000000015 16.119000000000003 68.166500000000013 18.229000000000003 64.396000000000001
decision_type=2 2 2 2 2 2 2 2 2 2 2 2 2 2 2 2
left_child=1 4 15 6 12 -4 9 -6 14 10 11 -3 -1 -11 -5 -2
right_child=2 3 5 8 7 -7 -8 -9 -10 13 -12 -13 -14 -15 -16 -17
leaf_value=-1.2307477372877187 0.5580586816618196 -0.26523213376444232 1.0319204937145059 0.2875009070949357 -0.24253434797865819 2.3011016994237354 0.18573861571776812 -0.67878038702821542 0.55178539345590105 -0.20404591664277619 -0.46658130190603825 0.025391027479501217 -0.8554836552605587 0.0020392543241258571 0.067784745981130073 1.1496925079791418
leaf_weight=74 19 25 22 20 31 74 28 83 25 19 60 20 111 21 19 42
leaf_count=74 19 25 22 20 31 74 28 83 25 19 60 20 111 21 19 42
internal_value=0.00303549 -0.511894 1.71931 -0.0450273 -0.87454 2.08114 -0.205564 -0.576592 0.371042 -0.285108 -0.343712 -0.147252 -1.03644 -0.108553 0.201849 1.02616
internal_weight=693 536 157 237 299 96 173 114 64 145 105 45 185 40 39 61
internal_count=693 536 157 237 299 96 173 114 64 145 105 45 185 40 39 61
is_linear=0
shrinkage=0.0646824


Tree=11
num_leaves=15
num_cat=0
split_feature=1 1 1 4 6 1 5 13 0 13 1 1 7 2
split_gain=130012 16496.3 14406.7 2364.22 1822.96 1769.17 1576.92 1058.92 856.354 456.056 369.379 350.814 323.968 229.527
threshold=35.273000000000003 48.63750000000001 21.542000000000005 23.150500000000005 82.979000000000013 27.427000000000003 315.97950000000003 118.14600000000002 96.375000000000014 92.312500000000014 29.552000000000003 17.264500000000002 25.252500000000001 85.371000000000024
decision_type=2 2 2 2 2 2 2 2 2 2 2 2 2 2
left_child=2 7 6 5 -3 12 11 9 10 -2 -7 -1 -4 -14
right_child=1 4 3 -5 -6 8 -8 -9 -10 -11 -12 -13 13 -15
leaf_value=-1.1449775527926107 0.73701324989750394 1.0716366392594783 -0.17904326567333292 0.29357691972442185 2.1982292783697996 -0.078332347436446861 -0.39759912757664151 1.0443051540115713 -0.32936725509966802 0.30557809255922813 0.19657352643587298 -0.78814571263473032 -0.53873694438046937 -0.2144051740392201
leaf_weight=86 23 25 28 32 75 36 34 37 28 39 36 109 75 22
leaf_count=86 23 25 28 32 75 36 34 37 28 39 36 109 75 22
internal_value=0.0396807 1.41016 -0.530875 -0.191765 1.98636 -0.266089 -0.898177 0.755039 -0.0579818 0.51214 0.0632712 -0.972305 -0.423219 -0.48046
internal_weight=685 199 486 257 100 225 229 99 100 62 72 195 125 97
internal_count=685 199 486 257 100 225 229 99 100 62 72 195 125 97
is_linear=0
shrinkage=0.0646824


Tree=12
num_leaves=19
num_cat=0
split_feature=1 1 1 4 1 1 5 14 15 7 17 7 1 6 6 1 13 1
split_gain=110251 15943.3 11749.5 3644.54 2859.53 1294.82 1293.97 1109.94 463.628 462.416 383.888 369.836 335.566 330.095 270.8 245.203 110.376 19.236
threshold=35.998000000000012 44.735500000000009 21.797500000000003 23.852000000000004 68.704000000000022 28.298000000000005 315.97950000000003 107.43750000000001 94.784666666666695 27.244000000000003 -0.81249999999999989 26.298000000000005 17.068500000000004 85.458000000000013 84.479000000000013 31.558500000000006 76.021000000000015 25.720500000000005
decision_type=2 2 2 2 2 2 2 2 2 2 2 2 2 2 2 2 2 2
left_child=2 8 6 5 13 10 12 15 -2 -8 14 -12 -1 -3 16 -7 -4 -13
right_child=1 4 3 -5 -6 7 9 -9 -10 -11 11 17 -14 -15 -16 -17 -18 -19
leaf_value=-1.0427837924339685 0.28954988334541182 0.74971877034410583 -0.13138778100454102 0.49629176748077658 2.3947925446767457 -0.03349562531484384 -0.10926412341789375 -0.41103760359751723 0.69206236791976961 -0.5712923432231265 -0.19181692464598266 -0.6336255374462133 -0.71584938373922735 1.5217727252232467 -0.022783130505128826 0.20867058289673301 -0.39213155430237323 -0.31737050755273233
leaf_weight=86 31 21 19 25 36 32 19 20 51 20 24 37 113 56 21 30 25 21
leaf_count=86 31 21 19 25 36 32 19 20 51 20 24 37 113 56 21 30 25 21
internal_value=0.0273472 1.30791 -0.488939 -0.176856 1.79458 -0.260149 -0.810614 -0.0493475 0.567358 -0.387108 -0.371785 -0.468059 -0.881111 1.37454 -0.223579 0.0910575 -0.306368 -0.556132
internal_weight=687 195 492 254 113 229 238 82 82 39 147 82 199 77 65 62 44 58
internal_count=687 195 492 254 113 229 238 82 82 39 147 82 199 77 65 62 44 58
is_linear=0
shrinkage=0.0646824


Tree=13
num_leaves=19
num_cat=0
split_feature=1 1 1 4 1 4 10 0 16 1 0 3 15 16 1 2 6 6
split_gain=94277.4 17334.3 8991.51 2524.79 1574.4 1158.45 904.924 701.949 608.091 531.321 1060.81 474.501 459.308 371.202 322.683 268.731 286.799 248.619
threshold=33.308500000000002 52.687500000000007 19.847500000000004 23.852000000000004 28.298000000000005 23.150500000000005 10.500000000000002 95.833500000000015 18.169482664128846 35.027000000000008 104.64600000000002 37.669000000000004 96.152833333333362 5.2537122871028767 15.071000000000002 86.050000000000026 88.520500000000013 79.833500000000015
decision_type=2 2 2 2 2 2 2 2 2 2 2 2 2 2 2 2 2 2
left_child=2 5 14 4 8 9 -3 13 15 -2 -11 -7 -12 -6 -1 16 -4 -16
right_child=1 6 3 -5 7 11 -8 -9 -10 10 12 -13 -14 -15 17 -17 -18 -19
leaf_value=-1.1620156019538552 0.096251626690420145 2.1606949058441889 -0.54926883895634393 0.34683382650799105 -0.078286702948552236 1.0407762649343786 1.1747711784070147 -0.30807471513374307 -0.13161537827857972 0.86452335183325457 0.017346595254722021 0.4424867143158977 0.43048077097252502 0.28237194104036989 -0.80382183018639453 -0.21979312670441617 -0.24094583678815079 -0.36662384312433199
leaf_weight=37 20 45 125 20 19 32 33 20 32 19 19 22 24 20 122 29 28 20
leaf_count=37 20 45 125 20 19 32 33 20 32 19 19 22 24 20 122 29 28 20
internal_value=-0.00739063 1.10239 -0.517379 -0.287974 -0.340344 0.620585 1.8473 -0.0398353 -0.420155 0.41939 0.507466 0.859797 0.270369 0.118585 -0.873329 -0.465598 -0.503048 -0.758034
internal_weight=686 214 472 293 273 136 78 59 214 82 62 54 43 39 179 182 153 142
internal_count=686 214 472 293 273 136 78 59 214 82 62 54 43 39 179 182 153 142
is_linear=0
shrinkage=0.0646824


Tree=14
num_leaves=20
num_cat=0
split_feature=1 1 1 4 1 6 2 1 3 17 3 2 2 13 0 2 1 5 15
split_gain=91392 11730.1 8482.03 3015.18 2308.98 1871.09 1376.54 1347.92 993.358 652.529 511.313 560.407 274.505 269.54 171.109 187.513 159.689 141.265 76.9922
threshold=37.152000000000008 24.100000000000005 63.277000000000008 22.902000000000005 16.566500000000005 83.437500000000014 74.527500000000018 29.925000000000001 19.544000000000004 -5.1664999999999983 30.393500000000007 114.58950000000002 78.906500000000008 118.14600000000002 80.208500000000015 56.496000000000002 29.100000000000005 315.97950000000003 94.111166666666676
decision_type=2 2 2 2 2 2 2 2 2 2 2 2 2 2 2 2 2 2 2
left_child=1 4 3 13 -1 10 -5 9 12 -7 11 14 17 18 -3 -16 -17 -6 -2
right_child=2 5 -4 6 8 7 -8 -9 -10 -11 -12 -13 -14 -15 15 16 -18 -19 -20
leaf_value=-0.97369853150049801 0.44342197552605267 -0.1463769958935448 2.0175146076367274 0.7016694346540201 -0.68220206541431594 0.17516468355859927 1.501922271830183 0.46127081901985267 -0.17538591941748308 -0.29957493181081157 0.040772259734917937 0.053957599113551635 -0.26888398511299932 0.71615696175112586 -0.54600578574285374 -0.35094676389543378 -0.090522363789504387 -0.39072384111129949 0.17850768067564246
leaf_weight=89 19 30 43 33 134 19 39 34 32 19 29 19 21 25 20 25 22 36 21
leaf_count=89 19 30 43 33 134 19 39 34 32 19 29 19 21 25 20 25 22 36 21
internal_value=-0.00353415 -0.432808 1.23376 0.920144 -0.683416 -0.0645913 1.21015 0.195654 -0.547147 -0.0699908 -0.196217 -0.254637 -0.602854 0.530295 -0.31474 -0.373482 -0.25107 -0.634498 0.342342
internal_weight=709 529 180 137 312 217 72 72 223 38 145 116 191 65 97 67 47 170 40
internal_count=709 529 180 137 312 217 72 72 223 38 145 116 191 65 97 67 47 170 40
is_linear=0
shrinkage=0.0646824


Tree=15
num_leaves=16
num_cat=0
split_feature=1 1 1 1 4 1 4 7 1 1 10 2 15 2 16
split_gain=75582.3 15052.9 7202.9 1321.43 1220.71 976.265 871.408 735.177 624.564 607.74 473.26 352.969 220.45 208.5 98.5647
threshold=33.308500000000002 52.687500000000007 22.204000000000004 15.071000000000002 23.377000000000006 61.439500000000002 23.150500000000005 26.579000000000004 36.385500000000008 29.925000000000001 8.5000000000000018 86.050000000000026 101.12516666666669 89.516500000000022 7.3577840017330418
decision_type=2 2 2 2 2 2 2 2 2 2 2 2 2 2 2
left_child=2 6 3 -1 9 -3 8 -5 -2 11 -8 12 -4 -10 -13
right_child=1 5 4 7 -6 -7 10 -9 13 -11 -12 14 -14 -15 -16
leaf_value=-1.0986158195992448 0.039351233961805475 1.0891939128982002 -0.39974155433885816 -0.23211983302826991 0.20102612424290917 1.9719019485481293 0.38803166823887214 -0.66739082310312048 0.53224770734961857 0.035381780470362924 0.92599470560462882 -0.19214110457324146 -0.15573373110020131 0.18765433444242011 0.003338461838068219
leaf_weight=38 23 39 96 26 24 42 26 189 38 25 26 19 30 19 19
leaf_count=38 23 39 96 26 24 42 26 189 38 25 26 19 30 19 19
internal_value=-0.0239559 0.970865 -0.484622 -0.715001 -0.199996 1.64213 0.510287 -0.621776 0.337369 -0.255116 0.719202 -0.299113 -0.350489 0.443725 -0.106217
internal_weight=679 213 466 253 213 81 132 215 80 189 52 164 126 57 38
internal_count=679 213 466 253 213 81 132 215 80 189 52 164 126 57 38
is_linear=0
shrinkage=0.0646824


Tree=16
num_leaves=18
num_cat=0
split_feature=1 1 1 4 1 0 1 14 0 8 0 15 14 1 1 0 2
split_gain=71569 10446.6 6329.85 3284.7 1693.4 1153.61 1141.77 1050.69 1004.63 882.05 541.728 489.937 330.787 295.87 262.505 254.374 11.291
threshold=40.462500000000013 21.797500000000003 64.439500000000024 23.150500000000005 29.552000000000003 71.666500000000013 44.243500000000004 112.39550000000001 148.35450000000003 76.229000000000013 104.64600000000002 82.229333333333344 112.39550000000001 25.950000000000006 16.666500000000003 81.354000000000013 79.135000000000005
decision_type=2 2 2 2 2 2 2 2 2 2 2 2 2 2 2 2 2
left_child=1 5 6 4 12 14 -2 10 -8 -5 11 -6 13 16 -1 -15 -3
right_child=2 3 -4 9 7 -7 8 -9 -10 -11 -12 -13 -14 15 -16 -17 -18
leaf_value=-0.81908050502512264 0.45656766019794714 -0.39937933561060246 1.9117276607749303 0.09825989587280376 0.038078442439934558 -0.18442267801927945 1.2439115562343328 -0.30087663613659987 0.56461399939769552 0.66933624147396287 -0.074860605683192985 0.44529546002204284 -0.010486431611931482 0.018797045971182723 -0.56107148422932618 -0.25298831199979555 -0.19797490167803075
leaf_weight=83 32 74 43 23 21 27 50 19 29 22 21 29 19 21 129 36 19
leaf_count=83 32 74 43 23 21 27 50 19 29 22 21 29 19 21 129 36 19
internal_value=0.0364543 -0.314502 1.24245 -0.0602299 -0.150493 -0.629395 0.90602 0.0734484 1.04696 0.419506 0.187895 0.294771 -0.268324 -0.299474 -0.680038 -0.159939 -0.371439
internal_weight=697 543 154 304 259 239 111 90 79 45 71 50 169 150 212 57 93
internal_count=697 543 154 304 259 239 111 90 79 45 71 50 169 150 212 57 93
is_linear=0
shrinkage=0.0646824


Tree=17
num_leaves=19
num_cat=0
split_feature=1 6 1 1 2 4 1 17 10 6 1 0 3 0 2 3 6 7
split_gain=62967.3 9385.47 8063.95 3406.32 1603.52 1550.81 1244.22 1064.21 753.391 667.639 632.32 990.313 458.459 259.613 236.447 206.704 93.1736 46.8567
threshold=37.152000000000008 117.10400000000001 23.802000000000003 57.681000000000004 89.516500000000022 23.150500000000005 15.071000000000002 -1.1454999999999982 9.5000000000000018 98.645500000000013 29.100000000000005 93.458500000000015 43.00650000000001 77.479000000000013 79.58750000000002 36.291500000000006 88.062500000000014 30.287500000000005
decision_type=2 2 2 2 2 2 2 2 2 2 2 2 2 2 2 2 2 2
left_child=2 3 6 4 12 10 -1 -7 9 14 13 -12 15 -4 -8 -2 17 -15
right_child=1 -3 5 -5 -6 7 8 -9 -10 -11 11 -13 -14 16 -16 -17 -18 -19
leaf_value=-0.92839868349013643 0.57559590372089686 2.041370434320056 -0.029493380338108988 1.2340997042156505 0.038048516245087954 0.5648075893246125 -0.60344613284190196 -0.05972283716735001 -0.16969544272214535 -0.15473579745684374 0.29945040538653123 -0.1797394002880057 0.96942542971158496 -0.3603947437219569 -0.25354665139371962 0.22531129553000318 -0.10553420904741616 -0.16588190187716276
leaf_weight=39 48 28 24 45 23 20 192 19 32 22 26 37 19 45 20 20 19 23
leaf_count=39 48 28 24 45 23 20 192 19 32 22 26 37 19 45 20 20 19 23
internal_value=0.00377673 1.01764 -0.361252 0.7698 0.530684 -0.0533233 -0.571597 0.290467 -0.501738 -0.542261 -0.136846 0.0260996 0.651024 -0.226228 -0.577601 0.496878 -0.275574 -0.311755
internal_weight=701 183 518 155 110 213 305 39 266 234 174 63 87 111 212 68 87 68
internal_count=701 183 518 155 110 213 305 39 266 234 174 63 87 111 212 68 87 68
is_linear=0
shrinkage=0.0646824


Tree=18
num_leaves=19
num_cat=0
split_feature=1 1 1 6 6 4 1 2 0 1 6 16 2 1 2 0 7 2
split_gain=53836.4 6464.85 5637.26 2736.68 1419.98 1407.03 785.199 711.373 1006.19 1266.84 568.655 523.912 364.238 287.804 269.551 23.8644 31.7221 0.0839495
threshold=35.998000000000012 48.63750000000001 21.360500000000005 115.91700000000002 84.729000000000013 23.150500000000005 67.623000000000005 118.02500000000002 99.291500000000013 29.258500000000002 107.12500000000001 16.867656534823368 59.350000000000001 27.392000000000007 71.89800000000001 79.187500000000014 28.864500000000003 69.210000000000022
decision_type=2 2 2 2 2 2 2 2 2 2 2 2 2 2 2 2 2 2
left_child=2 10 4 6 14 7 -3 8 9 11 12 13 -2 15 -1 16 -4 -14
right_child=1 3 5 -5 -6 -7 -8 -9 -10 -11 -12 -13 17 -15 -16 -17 -18 -19
leaf_value=-0.65543214108271808 0.28062633089953676 0.59779492584175631 -0.29622819360179969 1.9069379523852625 -0.071217910370587528 0.25866025987335012 1.2712028698861184 0.14279312190263163 -0.5891812886433061 0.18389300098251551 0.1626844193344833 0.0056124337285853778 0.88512979488020871 -0.07586606718150489 -0.26976731515693031 -0.40757794473131692 -0.13231801049741174 0.50073401095182157
leaf_weight=176 22 37 38 28 23 30 23 22 22 33 19 31 22 26 19 44 22 38
leaf_count=176 22 37 38 28 23 30 23 22 22 33 19 31 22 26 19 44 22 38
internal_value=0.0302913 0.941121 -0.330413 1.34079 -0.570796 -0.127416 0.940101 -0.180771 -0.216424 -0.159244 0.5422 -0.233285 0.614554 -0.288192 -0.626191 -0.334867 -0.252114 0.703507
internal_weight=675 189 486 88 218 268 60 238 216 194 101 161 82 130 195 104 60 60
internal_count=675 189 486 88 218 268 60 238 216 194 101 161 82 130 195 104 60 60
is_linear=0
shrinkage=0.0646824


Tree=19
num_leaves=20
num_cat=0
split_feature=1 1 1 4 5 13 4 0 13 2 2 6 1 6 1 16 16 6 7
split_gain=46744.1 7705.85 4338.42 1240.46 885.386 1335.86 723.749 557.374 713.417 453.198 403.748 347.617 337.316 296.06 257.518 239.551 211.637 70.6639 57.8104
threshold=33.308500000000002 52.687500000000007 19.847500000000004 27.433000000000003 354.52050000000008 77.812500000000014 19.650000000000002 98.625000000000014 104.25000000000001 85.371000000000024 66.220500000000015 61.479000000000006 38.912500000000009 120.14550000000001 27.427000000000003 8.1385534647747857 6.4106535533173252 76.812500000000014 28.173000000000005
decision_type=2 2 2 2 2 2 2 2 2 2 2 2 2 2 2 2 2 2 2
left_child=2 3 10 6 9 -6 12 8 14 16 17 -11 -2 -3 -7 -8 -4 -1 -18
right_child=1 13 4 -5 5 7 15 -9 -10 11 -12 -13 -14 -15 -16 -17 18 -19 -20
leaf_value=-0.67108260111646345 0.22544574902983733 0.9973735490113026 -0.46310671485169513 0.72120542706678525 0.27864861546906972 -0.29092698916969939 -0.089948666720292489 -0.43882471108909005 0.21570319675797311 -0.26983036859472143 -0.22832481061941406 0.05510912862100785 0.61130524751293935 1.7359036058757165 -0.045678717991725439 0.1990449227064876 -0.09456031329656224 -0.33988993345516488 -0.28628283226115392
leaf_weight=141 30 58 62 47 29 39 19 22 19 24 19 23 23 19 34 19 19 21 22
leaf_count=141 30 58 62 47 29 39 19 22 19 24 19 23 23 19 34 19 19 21 22
internal_value=-0.00138876 0.778207 -0.359818 0.459129 -0.199954 -0.0801844 0.290744 -0.179995 -0.0970699 -0.307337 -0.605225 -0.12159 0.434188 1.28207 -0.187785 0.0613754 -0.38175 -0.64058 -0.218908
internal_weight=689 215 474 138 293 143 91 114 92 150 181 47 53 77 73 38 103 162 41
internal_count=689 215 474 138 293 143 91 114 92 150 181 47 53 77 73 38 103 162 41
is_linear=0
shrinkage=0.0646824


Tree=20
num_leaves=20
num_cat=0
split_feature=1 1 1 5 17 3 6 14 3 6 1 1 0 1 0 4 6 0 1
split_gain=42379.3 5881.38 4800.94 1393.48 1382.17 1182.67 700.544 885.284 633.767 749.067 540.606 513.823 591.087 330.834 327.228 288.388 266.95 209.877 193.097
threshold=38.560000000000009 24.100000000000005 61.439500000000002 371.37500000000006 26.979500000000005 24.693500000000004 65.250000000000014 85.312500000000014 15.983000000000002 78.625000000000014 16.566500000000005 41.979000000000006 148.35450000000003 28.997500000000002 74.771000000000015 23.150500000000005 97.708500000000015 99.291500000000013 27.887500000000003
decision_type=2 2 2 2 2 2 2 2 2 2 2 2 2 2 2 2 2 2 2
left_child=1 3 4 10 11 8 -7 -8 9 13 -1 -2 -13 -3 -5 -9 -12 18 -10
right_child=2 5 -4 14 -6 6 7 15 17 -11 16 12 -14 -15 -16 -17 -18 -19 -20
leaf_value=-0.67836876850767103 0.18200186750424144 -0.23292749844398533 1.432921931363474 0.077588342869583937 1.1100783425774305 -0.15354351803542426 -0.032803730222325286 0.18503364683512818 -0.27916194377533571 0.29785367078484443 -0.45067740169650283 0.68348914609170686 0.21283580379560255 0.061279986855964703 -0.24664489154738448 0.58685600375817015 -0.14001136466375172 -0.42790255471080102 -0.0092249770083370902
leaf_weight=74 26 36 48 21 19 19 27 21 19 19 168 52 22 23 22 20 19 22 21
leaf_count=74 26 36 48 21 19 19 27 21 19 19 168 52 22 23 22 20 19 22 21
internal_value=0.0140643 -0.269597 0.89607 -0.453044 0.626381 -0.0190731 0.162307 0.255393 -0.133642 -0.00755789 -0.508461 0.481979 0.567708 -0.122743 -0.0973628 0.426803 -0.42396 -0.278867 -0.155505
internal_weight=698 531 167 304 119 227 87 68 140 78 261 100 74 59 43 41 187 62 40
internal_count=698 531 167 304 119 227 87 68 140 78 261 100 74 59 43 41 187 62 40
is_linear=0
shrinkage=0.0646824


Tree=21
num_leaves=21
num_cat=0
split_feature=1 1 1 4 4 10 0 13 7 2 0 1 2 3 1 0 8 4 8 2
split_gain=39498.7 6008.02 4769.32 1924.36 1834.27 1359.98 966.859 1374.77 864.059 586.111 706.935 943.429 630.289 499.029 249.164 241.056 313.236 247.7 55.898 52.6955
threshold=36.760500000000008 55.860500000000009 21.542000000000005 26.021000000000004 23.150500000000005 10.500000000000002 104.64600000000002 120.39600000000002 21.898000000000003 118.02500000000002 98.375000000000014 28.143500000000003 60.790000000000006 17.810500000000005 15.071000000000002 80.208500000000015 67.458500000000015 10.116500000000002 71.771000000000015 68.15000000000002
decision_type=2 2 2 2 2 2 2 2 2 2 2 2 2 2 2 2 2 2 2 2
left_child=2 3 13 6 9 -3 -2 -8 -5 10 11 15 -13 14 -1 16 -4 -18 -17 -16
right_child=1 5 4 8 -6 -7 7 -9 -10 -11 -12 12 -14 -15 19 18 17 -19 -20 -21
leaf_value=-0.71773947982152664 0.59682170403677182 1.6228318813541629 0.086037177040349952 0.40362425599653723 0.31452282970536177 0.75127680557032184 -0.16689056009587541 0.44212778302916483 1.096068956072983 0.15407274863605594 -0.48718888252940845 0.31293616119418088 -0.12757927577016395 -0.12036088967950505 -0.47025724788721784 -0.39789314762205524 -0.28035829060497613 -0.00027563105372714353 -0.19441976092147986 -0.24345111986503909
leaf_weight=35 21 35 19 24 37 30 31 22 23 20 23 24 21 19 156 26 38 19 33 24
leaf_count=35 21 35 19 24 37 30 31 22 23 20 23 24 21 19 156 26 38 19 33 24
internal_value=0.0310203 0.82075 -0.272025 0.51312 -0.0784064 1.30961 0.274778 0.103523 0.820987 -0.149535 -0.182685 -0.130634 0.115769 -0.480491 -0.508563 -0.21407 -0.123803 -0.195151 -0.310091 -0.44804
internal_weight=680 186 494 121 260 65 74 53 47 223 203 180 45 234 215 135 76 57 59 180
internal_count=680 186 494 121 260 65 74 53 47 223 203 180 45 234 215 135 76 57 59 180
is_linear=0
shrinkage=0.0646824


Tree=22
num_leaves=20
num_cat=0
split_feature=1 1 4 2 6 1 1 7 13 14 7 1 0 0 13 1 5 6 2
split_gain=35053 3906.96 3862.62 1380.86 1422.53 1154.93 762.541 726.002 658.116 591.336 586.847 390.534 348.02 310.964 282.198 226.348 79.5745 43.4819 8.73446
threshold=36.760500000000008 19.847500000000004 27.433000000000003 74.527500000000018 117.10400000000001 29.925000000000001 41.979000000000006 27.025000000000002 80.479000000000013 62.021000000000008 26.862500000000004 14.029000000000002 107.43750000000001 97.937500000000014 107.43750000000001 27.392000000000007 675.56250000000011 79.833500000000015 84.795500000000018
decision_type=2 2 2 2 2 2 2 2 2 2 2 2 2 2 2 2 2 2 2
left_child=1 11 6 -4 -5 7 12 8 -3 -9 13 -1 -2 -7 -10 18 -8 -13 -11
right_child=2 5 3 4 -6 10 16 9 14 15 -12 17 -14 -15 -16 -17 -18 -19 -20
leaf_value=-0.78783076781310246 0.33702782835036682 0.18110305741228727 0.49578326497048764 0.84119330884461863 1.7061904020785388 0.10183472483675698 0.32111712717372531 0.055494861345642535 -0.25817113248648765 -0.3762505864763282 0.26985683028324159 -0.45840911314004917 -0.015044492674862053 -0.22151253068821938 0.021277486247800282 -0.12941940604623731 0.70278435094547598 -0.22379565104702012 -0.18874528247713293
leaf_weight=23 20 31 27 49 21 19 20 19 38 97 34 134 21 21 22 32 25 20 19
leaf_count=23 20 31 27 49 21 19 20 19 38 97 34 134 21 21 22 32 25 20 19
internal_value=0.0133315 -0.263229 0.767964 1.04434 1.20495 -0.128616 0.412675 -0.192359 -0.0418048 -0.270494 0.0915786 -0.504366 0.176049 -0.0741152 -0.162452 -0.312827 0.586052 -0.43661 -0.355363
internal_weight=692 509 183 97 70 332 86 258 91 167 74 177 41 40 60 148 45 154 116
internal_count=692 509 183 97 70 332 86 258 91 167 74 177 41 40 60 148 45 154 116
is_linear=0
shrinkage=0.0646824


Tree=23
num_leaves=18
num_cat=0
split_feature=1 4 1 6 6 17 17 13 4 4 17 14 1 12 1 15 0
split_gain=35781 5959.98 3545.01 2161.95 917.494 946.43 831.77 800.114 730.181 622.046 483.81 455.724 406.259 355.061 302.205 184.52 47.0323
threshold=33.514500000000005 26.021000000000004 19.847500000000004 117.10400000000001 79.396000000000015 -0.81249999999999989 -3.7710000000000004 83.729500000000016 19.650000000000002 16.002000000000006 5.6875000000000009 92.562500000000014 13.889500000000002 5.80009665444262 23.629500000000004 89.048666666666691 78.979000000000013
decision_type=2 2 2 2 2 2 2 2 2 2 2 2 2 2 2 2 2
left_child=2 7 12 6 10 9 -3 -2 11 -6 14 -9 -1 -12 -4 16 -16
right_child=1 3 4 -5 5 -7 -8 8 -10 -11 13 -13 -14 -15 15 -17 -18
leaf_value=-0.8078275310535904 -0.0027286103070554078 0.40131390162513636 -0.36013557568695709 1.5612927437559276 -0.010067439757898056 -0.19951652166356096 0.93950615258847436 0.23435113973970823 0.17144535902919325 0.41046887521196967 -0.15747430213319558 0.71314084885536932 -0.43296934326185349 0.17135113437851085 0.0012792195308496785 -0.26205795158712297 -0.11952925274278145
leaf_weight=19 22 31 67 27 28 35 56 20 37 25 26 34 161 19 24 36 25
leaf_count=19 22 31 67 27 28 35 56 20 37 25 26 34 161 19 24 36 25
internal_value=0.0505395 0.706735 -0.274262 1.02971 -0.128154 0.043761 0.782618 0.348588 0.428888 0.208031 -0.204061 0.573467 -0.495061 -0.0151322 -0.25754 -0.159882 -0.0661394
internal_weight=692 227 465 114 285 88 87 113 91 53 197 54 180 45 152 85 49
internal_count=692 227 465 114 285 88 87 113 91 53 197 54 180 45 152 85 49
is_linear=0
shrinkage=0.0646824


Tree=24
num_leaves=21
num_cat=0
split_feature=1 1 1 4 4 2 1 6 3 14 1 0 6 7 13 13 3 2 7 6
split_gain=28815.8 4988.85 3724.52 1778.7 1221.23 800.282 709.437 708.079 666.14 621.205 565.465 547.585 339.823 267.157 226.409 218.957 213.52 103.892 34.3917 0.147281
threshold=37.152000000000008 68.704000000000022 23.629500000000004 22.902000000000005 15.589500000000003 89.516500000000022 14.358000000000002 88.062500000000014 23.902000000000005 124.29150000000001 28.635500000000004 157.18750000000003 62.833500000000008 21.075000000000006 83.520500000000013 89.895500000000013 22.585500000000003 77.735500000000016 30.287500000000005 75.437500000000014
decision_type=2 2 2 2 2 2 2 2 2 2 2 2 2 2 2 2 2 2 2 2
left_child=2 3 4 5 6 -2 -1 9 -9 10 16 13 -12 -5 17 -14 18 -8 -4 -16
right_child=1 -3 7 11 -6 -7 14 8 -10 -11 12 -13 15 -15 19 -17 -18 -19 -20 -21
leaf_value=-0.72204991532858565 0.37140969474219482 1.3497120063860339 -0.28813918675397199 0.48629095783864407 0.05128664464367913 -0.085614181460276995 -0.40455210928645191 -0.026048267098709131 0.43520244859040824 -0.33843097453901172 -0.087738266332737305 0.29362870747552089 0.042345602030124059 0.95638870172296964 -0.21162701014489266 0.32853458317828904 -0.0055419829930623806 -0.16664088856088116 -0.11993413364590708 -0.10085060626442457
leaf_weight=28 37 36 21 32 25 23 198 27 19 27 21 22 22 33 19 22 31 19 23 19
leaf_count=28 37 36 21 32 25 23 198 27 19 27 21 22 22 33 19 22 31 19 23 19
internal_value=0.0156798 0.701964 -0.230136 0.500853 -0.371975 0.203659 -0.409628 -0.0208815 0.19033 -0.083226 -0.0231969 0.681781 0.111536 0.780353 -0.360966 0.205833 -0.139611 -0.388303 -0.223072 -0.175794
internal_weight=704 183 521 147 308 60 283 213 46 167 140 87 65 65 255 44 75 217 44 38
internal_count=704 183 521 147 308 60 283 213 46 167 140 87 65 65 255 44 75 217 44 38
is_linear=0
shrinkage=0.0646824


Tree=25
num_leaves=20
num_cat=0
split_feature=1 1 6 1 1 2 6 2 4 0 4 13 3 6 1 16 5 1 10
split_gain=27153.4 5425.98 1365.85 1157.42 1046.56 1001.94 1234.98 1126.46 919.251 896.158 589.509 487.374 536.373 313.534 290.038 276.841 225.903 125.951 29.1621
threshold=44.735500000000009 25.950000000000006 75.875000000000014 33.308500000000002 19.133500000000005 69.210000000000022 81.854500000000016 59.350000000000001 23.852000000000004 98.375000000000014 9.979000000000001 80.479000000000013 17.944000000000003 68.166500000000013 13.889500000000002 5.3958890477145474 418.77100000000002 24.235500000000005 8.5000000000000018
decision_type=2 2 2 2 2 2 2 2 2 2 2 2 2 2 2 2 2 2 2
left_child=1 4 -2 9 14 7 -7 -5 -4 13 17 12 -12 18 -1 -15 -13 -6 -3
right_child=2 3 8 5 10 6 -8 -9 -10 -11 11 16 -14 15 -16 -17 -18 -19 -20
leaf_value=-0.69278436108361685 0.30542076435611598 -0.14276338656454152 0.4867522857341669 0.080975487315471453 -0.33836360844350682 0.26213575043820114 -0.33988268385717735 0.62469381053895201 1.1590445184180138 -0.38434861961850914 -0.14052926269228785 -0.041752833804375743 0.2872651422663684 -0.044667632093776277 -0.37910154712649174 0.2228619252312567 -0.3298296700037131 -0.1248004151787401 -0.028126543543580393
leaf_weight=22 19 22 23 31 93 27 20 32 68 22 19 22 20 24 134 36 23 23 19
leaf_count=22 19 22 23 31 93 27 20 32 68 22 19 22 20 24 134 36 23 23 19
internal_value=0.0142092 -0.16219 0.921902 0.0795369 -0.319216 0.226914 -0.00272069 0.384836 1.02614 -0.0562899 -0.211783 -0.0743744 0.0871576 0.0311502 -0.445179 0.12103 -0.208674 -0.303502 -0.0991514
internal_weight=699 589 110 233 356 110 47 63 91 123 200 84 39 101 156 60 45 116 41
internal_count=699 589 110 233 356 110 47 63 91 123 200 84 39 101 156 60 45 116 41
is_linear=0
shrinkage=0.0646824


Tree=26
num_leaves=22
num_cat=0
split_feature=11 11 11 4 0 0 11 7 7 14 14 3 0 13 2 11 11 14 0 14 13
split_gain=20597.7 3270.1 1786.08 1728.21 1380.82 633.672 1088.47 475.474 441.072 436.119 479.912 324.723 239.802 163.8 136.254 128.7 84.3719 83.6357 77.8884 58.8961 4.76161
threshold=3.7197428808877153 3.0881059733323539 4.0406008987455957 23.852000000000004 142.31250000000003 107.64550000000001 3.3818443984775297 26.679500000000001 22.285500000000003 107.43750000000001 86.937500000000014 33.797500000000007 68.729000000000013 108.16650000000001 71.89800000000001 3.454864490974189 3.2939812899229426 77.979000000000013 78.979000000000013 74.854000000000013 81.354000000000013
decision_type=2 2 2 2 2 2 2 2 2 2 2 2 2 2 2 2 2 2 2 2 2
left_child=1 7 4 5 11 6 12 -1 -4 10 15 -2 -3 16 17 -8 18 -9 19 -14 -18
right_child=2 3 8 -5 -6 -7 9 14 -10 -11 -12 -13 13 -15 -16 -17 20 -19 -20 -21 -22
leaf_value=-0.07351930762740834 0.75403706446885632 0.042198182644774727 0.49638709318571145 0.35684017223789349 -0.0095637318610141183 -0.38041387925127962 -0.075885642806095124 -0.43818195120521702 1.1225429824468931 -0.12470845233644036 0.37005623905572338 0.33168961602390951 -0.24046935310191206 -0.0064354019923262415 -0.16208951567376156 0.12482651077960276 -0.062563981959098125 -0.19320277494255558 -0.34136921502879625 -0.084350465950609882 -0.14142510455900476
leaf_weight=24 30 20 21 35 21 24 19 154 39 21 28 29 25 19 19 25 21 19 31 29 22
leaf_count=24 30 20 21 35 21 24 19 154 39 21 28 29 25 19 19 25 21 19 31 29 22
internal_value=0.0105207 -0.173445 0.693736 -0.040154 0.443486 -0.094863 -0.0612528 -0.364477 0.962837 0.111965 0.184904 0.591942 -0.158204 -0.186002 -0.397821 0.0393414 -0.211309 -0.417983 -0.250586 -0.172012 -0.114257
internal_weight=675 535 140 319 80 284 260 216 60 93 72 59 167 147 192 44 128 173 85 54 43
internal_count=675 535 140 319 80 284 260 216 60 93 72 59 167 147 192 44 128 173 85 54 43
is_linear=0
shrinkage=0.0646824


Tree=27
num_leaves=19
num_cat=0
split_feature=1 1 1 16 4 4 3 13 17 17 5 1 1 6 4 2 6 0
split_gain=20649.1 3796.12 1846.03 1623.08 1366.6 987.92 912.464 886.238 577.344 508.581 387.148 377.33 298.271 235.492 181.023 175.234 160.855 97.3204
threshold=33.625000000000007 71.27500000000002 19.404000000000003 8.1932555278910559 23.852000000000004 15.589500000000003 37.327000000000005 77.812500000000014 -0.39549999999999835 0.89600000000000091 594.62500000000011 13.492000000000003 24.700000000000006 78.000000000000014 8.7395000000000014 48.271000000000008 76.812500000000014 87.917000000000016
decision_type=2 2 2 2 2 2 2 2 2 2 2 2 2 2 2 2 2 2
left_child=2 3 11 9 10 12 -6 -7 -9 -2 -5 -1 15 14 17 -4 -13 -14
right_child=1 -3 5 4 6 7 -8 8 -10 -11 -12 16 13 -15 -16 -17 -18 -19
leaf_value=-0.66664642498004134 -0.051745825865531531 1.1563593018113376 -0.091766380497160738 0.03988932482832995 0.94072366979557909 0.38257328949388164 0.37064957923204306 0.12235213034147178 -0.24852509091283831 0.28597137201440243 0.3950373800992692 -0.36097822961986664 -0.13470625719885673 0.068090530736006974 -0.29670257378868276 -0.29563301829013711 -0.129778359110195 0.033086689142601704
leaf_weight=19 32 31 29 24 37 21 32 31 29 35 26 125 34 24 20 97 23 20
leaf_count=19 32 31 29 24 37 21 32 31 29 35 26 125 34 24 20 97 23 20
internal_value=0.0210828 0.535658 -0.218897 0.402307 0.541559 -0.120616 0.722722 0.0695731 -0.06266 0.132896 0.245196 -0.38893 -0.189408 -0.0968079 -0.151288 -0.254448 -0.33092 -0.0752187
internal_weight=689 217 472 186 119 305 69 81 60 67 50 167 224 98 74 126 148 54
internal_count=689 217 472 186 119 305 69 81 60 67 50 167 224 98 74 126 148 54
is_linear=0
shrinkage=0.0646824


Tree=28
num_leaves=24
num_cat=0
split_feature=1 1 6 1 10 2 6 0 4 1 3 10 0 2 1 6 14 17 5 5 5 6 17
split_gain=18935.9 3766.95 2181.03 1191.07 804.146 655.496 926.962 611.175 805.135 383.846 382.273 312.246 796.183 311.211 231.126 151.332 139.931 99.6856 67.8076 64.2289 356.584 22.7638 8.14188
threshold=44.735500000000009 33.308500000000002 121.52100000000002 19.847500000000004 11.500000000000002 69.210000000000022 84.771000000000015 100.52100000000002 23.377000000000006 28.298000000000005 29.173000000000005 9.5000000000000018 80.479000000000013 85.371000000000024 15.071000000000002 88.062500000000014 85.666500000000013 2.2085000000000012 675.56250000000011 818.08300000000008 1050.1460000000002 61.979000000000006 -8.4164999999999974
decision_type=2 2 2 2 2 2 2 2 2 2 2 2 2 2 2 2 2 2 2 2 2 2 2
left_child=1 3 18 14 5 10 -7 8 9 11 -3 13 -13 15 -1 -5 -11 22 -2 -20 -21 -19 -16
right_child=2 4 -4 7 -6 6 -8 -9 -10 16 -12 12 -14 -15 17 -17 -18 21 19 20 -22 -23 -24
leaf_value=-0.51969769924335307 0.27945974987955063 0.16931826115546239 1.2686382969811243 -0.29676622527905644 -0.13733606154624051 0.32194246303154217 -0.20971719588206139 -0.42543603298868782 0.25987209000977507 0.15213892196446158 0.60661446694678967 0.19130624543216684 -0.25886124142220479 -0.025574796085340634 -0.17448997895298357 -0.075453850896629551 -0.06233605870374432 -0.21729595566263238 0.77732659466754217 0.15546201907721841 0.57675057865828683 -0.083910370661110706 -0.34925773095965146
leaf_weight=33 19 20 26 95 21 25 20 22 19 19 23 28 27 30 19 20 22 20 21 19 25 21 90
leaf_count=33 19 20 26 95 21 25 20 22 19 19 23 28 27 30 19 20 22 20 21 19 25 21 90
internal_value=0.0112281 -0.139571 0.76764 -0.219505 0.195659 0.278491 0.0885139 -0.132016 -0.0989835 -0.132384 0.445054 -0.168576 -0.0330916 -0.216914 -0.346625 -0.263421 0.0432303 -0.291704 0.544879 0.594905 0.431933 -0.166799 -0.32853
internal_weight=684 574 110 465 109 88 45 282 260 241 43 200 55 145 183 115 41 150 84 65 44 41 109
internal_count=684 574 110 465 109 88 45 282 260 241 43 200 55 145 183 115 41 150 84 65 44 41 109
is_linear=0
shrinkage=0.0646824


Tree=29
num_leaves=20
num_cat=0
split_feature=1 1 12 4 0 6 0 2 0 1 2 13 13 13 16 1 2 6 3
split_gain=15235.3 4488.78 1271.86 760.446 808.952 866.83 677.389 878.766 504.189 485.691 443.301 342.543 425.037 767.925 273.498 179.926 143.453 116.367 47.3464
threshold=33.308500000000002 64.439500000000024 5.8735827737677591 22.902000000000005 148.35450000000003 88.062500000000014 104.64600000000002 89.516500000000022 98.625000000000014 42.173000000000009 84.795500000000018 106.29150000000001 77.812500000000014 71.479500000000016 15.169308326514377 13.889500000000002 53.352000000000011 61.479000000000006 27.119000000000003
decision_type=2 2 2 2 2 2 2 2 2 2 2 2 2 2 2 2 2 2 2
left_child=2 3 10 6 5 -5 -2 9 11 -8 14 12 13 -4 15 -1 18 -12 -14
right_child=1 -3 8 4 -6 -7 7 -9 -10 -11 17 -13 16 -15 -16 -17 -18 -19 -20
leaf_value=-0.54407867692654022 0.36922589313211079 0.99773291164120026 -0.15570091079559997 0.20414073347534845 0.064609568152240268 0.72026971238643345 -0.022628697560762363 -0.26929107484663234 -0.29705892359076996 0.38650487913097914 -0.18227386698055464 0.22767246221450249 -0.2334875186772577 0.34256217904227898 -0.078810801444318179 -0.29848148517844786 0.015512064126033781 -0.0057289931251134031 -0.074461888425907272
leaf_weight=19 30 43 20 29 23 36 23 23 22 19 28 19 31 22 24 221 19 30 19
leaf_count=19 30 43 20 29 23 36 23 23 22 19 28 19 31 22 24 221 19 30 19
internal_value=0.00662082 0.437559 -0.201479 0.280946 0.41432 0.523526 0.141659 0.0162367 -0.0450754 0.18554 -0.273336 0.0077804 -0.0387317 0.114642 -0.308802 -0.329546 -0.133644 -0.0992744 -0.186286
internal_weight=700 226 474 183 88 65 95 65 152 42 322 130 111 42 264 240 69 58 50
internal_count=700 226 474 183 88 65 95 65 152 42 322 130 111 42 264 240 69 58 50
is_linear=0
shrinkage=0.0646824


Tree=30
num_leaves=21
num_cat=0
split_feature=1 6 1 6 4 8 0 2 1 3 6 3 0 1 1 4 7 13 2 1
split_gain=15696.8 2328.66 2174.9 927.995 906.448 692.481 622.114 770.679 573.127 522.566 327.972 362.97 297.833 369.005 275.052 218.922 218.135 113.663 5.17377 0.428769
threshold=41.979000000000006 117.10400000000001 23.933500000000006 90.062500000000014 15.589500000000003 65.854000000000013 77.625000000000014 118.02500000000002 57.681000000000004 26.173000000000005 64.521000000000015 24.052000000000003 88.521000000000015 33.135000000000005 15.071000000000002 11.802000000000001 25.010500000000004 81.354000000000013 73.846000000000018 48.179500000000012
decision_type=2 2 2 2 2 2 2 2 2 2 2 2 2 2 2 2 2 2 2 2
left_child=2 5 4 6 14 8 -4 10 19 -5 -8 15 -13 -14 -1 -12 -16 18 -18 -2
right_child=1 -3 3 9 -6 -7 7 -9 -10 -11 11 12 13 -15 16 -17 17 -19 -20 -21
leaf_value=-0.45073052471056074 0.40493384954620293 1.1178447639705031 0.23089229183956075 0.062415590778444462 0.1141516686617134 0.1646535692850542 -0.29190747625426144 0.20608744548879743 0.76368407115046344 0.46219481594711415 -0.054890977874015735 0.18644253769439326 -0.25708839714461423 0.098815577898491533 -0.033375515899970044 -0.35284888697810063 -0.29353314404495756 -0.11443653396669544 -0.14892609639499077 0.20402320413977912
leaf_weight=37 20 30 23 34 24 32 44 25 33 20 22 22 19 20 21 19 155 30 19 23
leaf_count=37 20 30 23 34 24 32 44 25 33 20 22 22 19 20 21 19 155 30 19 23
internal_value=0.0348933 0.636043 -0.125304 0.0151661 -0.245122 0.45505 -0.0520188 -0.0960131 0.558167 0.239215 -0.153284 -0.0817405 0.0202677 -0.0848137 -0.279684 -0.218113 -0.241586 -0.261597 -0.282733 0.332432
internal_weight=672 138 534 248 286 108 194 171 76 54 146 102 61 39 262 41 225 204 174 43
internal_count=672 138 534 248 286 108 194 171 76 54 146 102 61 39 262 41 225 204 174 43
is_linear=0
shrinkage=0.0646824


Tree=31
num_leaves=19
num_cat=0
split_feature=1 1 6 5 13 2 6 3 2 2 0 2 13 15 4 5 0 15
split_gain=10954.6 2108.47 1632.95 571.487 573.495 491.06 1656.08 1095.86 906.221 556.201 391.274 357.071 341.641 324.201 263.065 168.19 131.902 32.9647
threshold=44.735500000000009 25.950000000000006 120.14550000000001 371.37500000000006 80.479000000000013 67.052500000000009 79.396000000000015 27.233500000000003 131.53050000000005 57.204000000000008 95.104000000000013 84.795500000000018 81.229000000000013 142.95833333333334 26.618500000000001 496.70850000000002 82.646000000000015 77.958500000000015
decision_type=2 2 2 2 2 2 2 2 2 2 2 2 2 2 2 2 2 2
left_child=1 3 13 11 -5 6 9 15 10 -3 -7 12 17 14 -2 -8 -6 -1
right_child=2 5 -4 4 16 8 7 -9 -10 -11 -12 -13 -14 -15 -16 -17 -18 -19
leaf_value=-0.30948599946162536 0.26034542740012073 -0.28465219426333666 1.0441470338787422 0.21697605024962588 -0.02658700194064912 -0.022946177657485429 0.23878055932304609 0.61219017532168463 0.25306849736155307 0.11146669240484877 -0.33003155760656783 -0.013788858091093254 -0.067737305904577563 0.21002519284329713 0.66417580215325389 0.011361788309433173 -0.26045673455678325 -0.15087379816827651
leaf_weight=198 23 34 23 21 19 34 19 26 22 20 32 26 35 35 26 32 20 22
leaf_count=198 23 34 23 21 19 34 19 26 22 20 32 26 35 35 26 32 20 22
internal_value=0.00811102 -0.107905 0.591154 -0.207286 -0.0235146 0.0481128 0.125444 0.309395 -0.0676056 -0.141165 -0.185622 -0.245334 -0.268162 0.41119 0.519554 0.110927 -0.163712 -0.297646
internal_weight=667 560 107 341 60 219 131 77 88 54 66 281 255 84 49 51 39 220
internal_count=667 560 107 341 60 219 131 77 88 54 66 281 255 84 49 51 39 220
is_linear=0
shrinkage=0.0646824


Tree=32
num_leaves=21
num_cat=0
split_feature=1 4 6 1 4 10 10 6 17 0 14 3 2 1 7 10 4 10 17 0
split_gain=11285.9 2817.2 1292.29 780.602 622.805 641.794 456.581 347.611 484.573 383.646 292.994 385.643 227.16 197.455 148.528 65.4203 62.4562 38.3203 73.6817 37.4462
threshold=33.308500000000002 27.433000000000003 90.062500000000014 17.981000000000005 19.650000000000002 2.5000000000000004 8.5000000000000018 90.500000000000014 -0.22950000000000151 63.021000000000008 124.29150000000001 30.269000000000002 85.371000000000024 13.889500000000002 25.835500000000003 10.500000000000002 5.3415000000000008 6.5000000000000009 -6.6459999999999999 65.208000000000013
decision_type=2 2 2 2 2 2 2 2 2 2 2 2 2 2 2 2 2 2 2 2
left_child=3 4 -3 13 6 -6 -2 9 -9 -5 11 12 14 -1 -11 -4 -14 -16 -19 -15
right_child=1 2 15 7 5 -7 -8 8 -10 10 -12 -13 16 19 17 -17 -18 18 -20 -21
leaf_value=-0.50506511372058494 0.05294169019500241 0.25746702421232481 0.88205411511168852 0.10290260855294472 0.21220004399963965 -0.22523736098508565 0.40706962886508974 0.21883389675707957 -0.14142641914837309 -0.05579736799548788 -0.37876405388641249 0.079564577995486371 -0.10231535765816936 -0.27301182989665879 -0.2950387852587385 0.43360942896583415 0.036073321088225925 -0.050562654774106208 -0.20973290413754725 -0.11469967616369869
leaf_weight=20 27 36 46 20 20 26 36 24 28 29 22 26 22 88 47 20 23 19 81 19
leaf_count=20 27 36 46 20 20 26 36 24 28 29 22 26 22 88 47 20 23 19 81 19
internal_value=0.00104058 0.387964 0.624256 -0.175858 0.147695 -0.0327209 0.271563 -0.121518 0.0298225 -0.148796 -0.169178 -0.142755 -0.170193 -0.310785 -0.202586 0.789503 -0.0353192 -0.228521 -0.183657 -0.251806
internal_weight=679 211 102 468 109 46 63 341 52 289 269 247 221 127 176 66 45 147 100 107
internal_count=679 211 102 468 109 46 63 341 52 289 269 247 221 127 176 66 45 147 100 107
is_linear=0
shrinkage=0.0646824


Tree=33
num_leaves=24
num_cat=0
split_feature=1 6 16 23 2 2 8 1 0 4 0 1 3 2 13 0 10 15 10 2 14 14 12
split_gain=10665.4 2320.02 871.773 824.301 670.044 660.201 604.097 408.407 453.763 272.233 243.974 543.008 315.017 246.479 293.219 175.688 166.518 221.606 150.031 146.643 181.628 20.8603 2.03996
threshold=34.672500000000007 126.45850000000002 25.127705802925497 1.0000000180025095e-35 29.237500000000004 73.846000000000018 56.896000000000008 20.796000000000003 68.854000000000013 24.227000000000004 87.395500000000013 29.552000000000003 13.377000000000001 47.112500000000004 80.812500000000014 81.146000000000015 10.500000000000002 89.048666666666691 8.5000000000000018 66.220500000000015 79.541500000000013 55.770500000000006 6.9687129202249505
decision_type=2 2 2 2 2 2 2 2 2 2 2 2 2 2 2 2 2 2 2 2 2 2 2
left_child=2 3 4 5 -1 6 -2 19 -9 -7 11 13 -12 -10 18 -16 17 -14 -15 20 21 -6 -11
right_child=1 -3 -4 -5 7 9 -8 8 10 22 12 -13 16 14 15 -17 -18 -19 -20 -21 -22 -23 -24
leaf_value=-0.47543627947125799 0.35147780890942465 1.0068412669742108 0.19253526623197667 0.0092553905784900827 -0.12269388303492527 0.29077834335554015 -0.046062890895635519 0.1861116629201458 0.083449287201155756 0.6923130872278348 0.034462120180426617 0.23185648849503454 -0.13792560378300994 -0.26942385008817216 0.11760887723744945 -0.11604816469145564 -0.081824374326895238 -0.46893103614768278 -0.050526625376535149 -0.037535316481612832 -0.040923825405741722 -0.26565448880176196 0.34022190339471697
leaf_weight=21 34 21 28 29 19 37 25 20 22 32 19 19 23 50 21 22 22 19 21 22 22 123 19
leaf_count=21 34 21 28 29 19 37 25 20 22 32 19 19 23 50 21 22 22 19 21 22 22 123 19
internal_value=0.0289366 0.424659 -0.132099 0.327107 -0.153646 0.387246 0.193354 -0.132859 -0.0775941 0.498427 -0.103416 -0.0523019 -0.189786 -0.0993867 -0.136863 -0.00154405 -0.253846 -0.324248 -0.212878 -0.205136 -0.225694 -0.251755 0.606551
internal_weight=690 197 493 176 465 147 59 444 258 88 238 155 83 136 114 43 64 42 71 186 164 142 51
internal_count=690 197 493 176 465 147 59 444 258 88 238 155 83 136 114 43 64 42 71 186 164 142 51
is_linear=0
shrinkage=0.0646824


Tree=34
num_leaves=20
num_cat=0
split_feature=1 1 0 5 3 10 0 2 7 4 2 14 6 3 1 5 5 13 14
split_gain=7905.47 1988.06 1585.23 1111.55 673.321 657.237 627.928 578.508 513.459 434.772 484.239 426.983 425.112 351.466 305.517 183.764 156.94 146.188 26.9985
threshold=34.672500000000007 68.704000000000022 157.18750000000003 315.97950000000003 29.337500000000002 6.5000000000000009 87.395500000000013 86.050000000000026 22.016500000000004 9.9105000000000008 35.089500000000008 99.625000000000014 89.166500000000013 22.585500000000003 14.029000000000002 853.12500000000011 532.56250000000011 76.146000000000015 92.791500000000013
decision_type=2 2 2 2 2 2 2 2 2 2 2 2 2 2 2 2 2 2 2
left_child=3 2 4 7 5 -2 9 14 -6 -5 -11 -7 16 -12 -1 -10 -8 -9 -16
right_child=1 -3 -4 6 8 11 12 17 15 10 13 -13 -14 -15 18 -17 -18 -19 -20
leaf_value=-0.46987701726501446 -0.074788959775498418 0.78136858441662527 -0.25602086705735549 -0.12095485360321175 0.20992337231248223 0.46788081151950822 -0.10629926785880112 0.091853625142444315 0.7643187898111895 -0.10978888244801199 0.069310104522243565 0.082025067500780272 0.058704140545442325 0.36289456366886158 -0.22204030781812939 0.31677494546162704 -0.38873804748590313 -0.097922201968270409 -0.094441801711036652
leaf_weight=22 28 33 19 27 32 24 21 24 20 19 35 25 23 35 192 20 19 35 19
leaf_count=22 28 33 19 27 32 24 21 24 20 19 35 25 23 35 192 20 19 35 19
internal_value=0.0189534 0.353153 0.247183 -0.126069 0.318103 0.167021 0.00124914 -0.202713 0.456607 0.0895171 0.156655 0.298868 -0.155476 0.231676 -0.247607 0.605224 -0.270919 -0.0194887 -0.213211
internal_weight=672 201 168 471 149 77 179 292 72 116 89 49 63 70 233 40 40 59 211
internal_count=672 201 168 471 149 77 179 292 72 116 89 49 63 70 233 40 40 59 211
is_linear=0
shrinkage=0.0646824


Tree=35
num_leaves=22
num_cat=0
split_feature=1 1 1 23 2 6 16 8 5 14 14 3 0 1 1 2 10 5 6 7 5
split_gain=8678.51 2268.2 1033.57 701.222 904.997 469 491.999 467.911 455.295 409.85 330.388 379.564 827.208 255.849 243.116 231.875 165.366 63.7066 53.455 35.0203 20.126
threshold=36.760500000000008 74.789500000000018 18.802000000000003 1.0000000180025095e-35 73.846000000000018 83.437500000000014 18.998210445315536 51.458000000000006 785.50000000000011 138.50000000000003 124.29150000000001 22.585500000000003 80.208500000000015 25.720500000000005 13.889500000000002 115.63750000000002 9.5000000000000018 495.58300000000008 76.250000000000014 29.316500000000001 182.39600000000004
decision_type=2 2 2 2 2 2 2 2 2 2 2 2 2 2 2 2 2 2 2 2 2
left_child=2 3 14 4 7 10 13 -2 -6 -10 11 15 -13 -7 -1 16 19 -15 -16 -4 -21
right_child=1 -3 5 -5 8 6 -8 -9 9 -11 -12 12 -14 17 18 -17 -18 -19 -20 20 -22
leaf_value=-0.46545476912920042 0.28150895619563004 0.94896840430039575 -0.21702249473374716 -0.018286702760901392 0.61954436331843421 -0.14208106932494588 0.28816696909087686 -0.088360573505975815 0.021347116198471967 0.42835205516734193 -0.32085383385779365 0.32897894637720215 -0.13000025059039308 0.14966298096273969 -0.23382608859874648 0.069656895966891799 0.0031494879555970723 -0.00026140999654109193 -0.084372224360559009 -0.16164647602185339 -0.068638268596763002
leaf_weight=21 24 22 72 26 42 37 22 24 19 19 23 22 36 19 110 19 24 23 20 32 32
leaf_count=21 24 22 72 26 42 37 22 24 19 19 23 22 36 19 110 19 24 23 20 32 32
internal_value=0.00936268 0.394217 -0.125683 0.28531 0.345211 -0.0643758 0.0519247 0.106399 0.47261 0.252992 -0.109692 -0.0824643 0.0573689 -0.0281823 -0.26492 -0.128129 -0.153133 0.076941 -0.215143 -0.179773 -0.124157
internal_weight=688 176 512 154 128 361 101 48 80 38 260 237 58 79 151 179 160 42 130 136 64
internal_count=688 176 512 154 128 361 101 48 80 38 260 237 58 79 151 179 160 42 130 136 64
is_linear=0
shrinkage=0.0646824


Tree=36
num_leaves=22
num_cat=0
split_feature=1 1 13 2 6 5 4 6 10 0 4 2 5 8 5 13 17 1 8 17 17
split_gain=10059.6 2402.87 1014.23 756.09 691.113 913.698 562.924 508.471 311.893 603.921 686.21 411.945 259.908 224.69 148.088 108.08 104.936 73.0877 45.3721 38.3825 8.87705
threshold=34.672500000000007 74.789500000000018 84.250000000000014 35.089500000000008 104.83350000000002 829.93750000000011 24.227000000000004 96.354000000000013 9.5000000000000018 80.479000000000013 8.7045000000000012 83.323000000000022 578.75000000000011 63.041500000000006 187.45800000000003 95.833500000000015 7.1244999999999985 14.358000000000002 70.979500000000016 1.7914999999999994 3.4164999999999996
decision_type=2 2 2 2 2 2 2 2 2 2 2 2 2 2 2 2 2 2 2 2 2
left_child=3 2 -2 17 5 7 8 12 11 10 -10 13 -4 -5 -13 19 -6 -1 -11 -15 -21
right_child=1 -3 4 6 16 -7 -8 -9 9 18 -12 14 -14 15 -16 -17 -18 -19 -20 20 -22
leaf_value=-0.4684158373692886 -0.10189394299581916 0.92928303739656437 0.19201321970606788 -0.0060053978682222207 0.31682392617591942 -0.045802364028646875 0.18590098754299653 0.053669904289628326 -0.097059193569775978 -0.21719414840998025 0.39933742094775532 -0.086832185388150268 0.56225520079633917 -0.24717369887587246 0.094296533610689362 -0.062826984962085997 0.70902590001547561 -0.23525837435923927 -0.073688284092145756 -0.085110045734346426 -0.17751900468507384
leaf_weight=19 21 27 20 27 21 31 22 19 19 22 19 35 34 134 30 26 21 43 27 23 52
leaf_count=19 21 27 20 27 21 31 22 19 19 22 19 35 34 134 30 26 21 43 27 23 52
internal_value=0.018847 0.407494 0.296494 -0.135319 0.355397 0.243979 -0.102581 0.361682 -0.120122 -0.0104138 0.170056 -0.148663 0.455234 -0.18416 -0.00240855 -0.204031 0.57171 -0.338712 -0.153376 -0.219558 -0.156848
internal_weight=692 194 167 498 146 104 436 73 414 87 38 327 54 262 65 235 42 62 49 209 75
internal_count=692 194 167 498 146 104 436 73 414 87 38 327 54 262 65 235 42 62 49 209 75
is_linear=0
shrinkage=0.0646824


Tree=37
num_leaves=20
num_cat=0
split_feature=4 6 1 0 2 17 3 2 6 3 1 10 3 2 6 17 7 17 17
split_gain=6552.98 1920.92 1478.28 1171.15 484.404 552.224 445.061 509.244 347.707 271.297 252.655 231.72 326.024 222.03 221.101 209.554 139.296 61.6554 17.0506
threshold=23.377000000000006 125.06250000000001 26.118500000000004 157.18750000000003 57.496000000000002 -6.7499999999999991 33.797500000000007 131.53050000000005 67.979500000000016 17.212500000000002 13.889500000000002 9.5000000000000018 20.383500000000002 79.58750000000002 96.521000000000015 5.2710000000000017 25.404000000000003 5.6040000000000001 -9.3544999999999998
decision_type=2 2 2 2 2 2 2 2 2 2 2 2 2 2 2 2 2 2 2
left_child=2 3 10 4 -2 -6 7 8 -4 -10 -1 13 -13 16 15 -11 -12 18 -18
right_child=1 -3 6 -5 5 -7 -8 -9 9 14 11 12 -14 -15 -16 -17 17 -19 -20
leaf_value=-0.37535563646131892 0.10524105241064786 0.89779899604945967 -0.20163641604682292 -0.12225528931145818 0.1603403533307669 0.58173012867921092 0.29605889417042475 0.24602775641468272 0.15454726162014856 -0.099543419820224882 -0.058080868811907799 0.14327441043493083 -0.17231571127164158 -0.0030161455473220102 -0.18341413708624155 0.15229426518883088 -0.11428404622540712 -0.095336918025701878 -0.23299256169111543
leaf_weight=20 27 22 34 23 25 44 22 27 36 21 35 23 21 30 26 24 22 30 169
leaf_count=20 27 22 34 23 25 44 22 27 36 21 35 23 21 30 26 24 22 30 169
internal_value=0.0134149 0.3975 -0.0898365 0.269825 0.365279 0.451914 0.0544459 0.0145176 -0.0373023 0.0221408 -0.167796 -0.149337 -0.00973375 -0.170232 -0.0512121 0.0367082 -0.189358 -0.208254 -0.222861
internal_weight=681 141 540 119 96 69 190 168 141 107 350 330 44 286 71 45 256 221 191
internal_count=681 141 540 119 96 69 190 168 141 107 350 330 44 286 71 45 256 221 191
is_linear=0
shrinkage=0.0646824


Tree=38
num_leaves=23
num_cat=0
split_feature=4 6 4 1 0 7 5 2 3 0 3 2 17 3 1 10 0 19 13 2 0 5
split_gain=5663.49 998.65 1073.23 958.005 768.332 534.431 766.446 644.558 556.268 500.1 470.544 448.256 671.236 344.908 343.635 195.086 161.523 119.924 118.125 78.9561 46.7491 2.90042
threshold=23.852000000000004 102.43750000000001 37.510000000000012 23.629500000000004 152.77100000000004 20.233500000000003 644.68750000000011 56.552000000000007 15.983000000000002 106.83350000000002 8.9685000000000006 59.350000000000001 -3.7710000000000004 22.585500000000003 14.029000000000002 9.5000000000000018 88.521000000000015 1.0000000180025095e-35 82.354500000000016 77.735500000000016 62.375000000000007 228.45850000000004
decision_type=2 2 2 2 2 2 2 2 2 2 2 2 2 2 2 2 2 2 2 2 2 2
left_child=3 4 -3 14 11 -5 8 -8 10 13 -7 -2 -13 -10 -1 18 -15 -12 19 20 21 -16
right_child=1 2 -4 5 -6 6 7 -9 9 -11 17 12 -14 16 15 -17 -18 -19 -20 -21 -22 -23
leaf_value=-0.39249315205746355 0.054912327845745665 0.80240449729163554 0.18591465632273663 -0.2660274326952411 -0.09957135617202284 -0.078184018252585405 -0.031128880212958836 0.42786517321277617 -0.18804088053702267 -0.37537280986284677 0.30553266329696166 0.1034771768193755 0.62706325632029414 0.16818242281026449 -0.094163945971310906 -0.0030678083735012794 -0.039879857766326153 0.079414482083100493 -0.043051345484512948 -0.043136333863260809 -0.22736012544792883 -0.16684449570138601
leaf_weight=23 22 30 24 23 23 35 20 27 36 20 25 20 23 23 41 36 31 22 33 19 112 28
leaf_count=23 22 30 24 23 23 35 20 27 36 20 25 20 23 23 41 36 31 22 33 19 112 28
internal_value=0.00317207 0.359788 0.570476 -0.090843 0.204832 -0.000643245 0.0302446 0.249571 -0.0288385 -0.12137 0.0951173 0.311915 0.422483 -0.0467569 -0.170285 -0.143886 0.0560168 0.218897 -0.165078 -0.18354 -0.196591 -0.133689
internal_weight=696 142 54 554 88 262 239 47 192 110 82 65 43 90 292 269 54 47 233 200 181 69
internal_count=696 142 54 554 88 262 239 47 192 110 82 65 43 90 292 269 54 47 233 200 181 69
is_linear=0
shrinkage=0.0646824


Tree=39
num_leaves=23
num_cat=0
split_feature=4 6 1 7 14 7 8 15 14 2 2 4 7 2 16 14 6 4 5 2 13 13
split_gain=5127.13 1248.42 994.653 713.405 701.854 761.654 691.953 484.771 470.735 345.774 310.057 280.308 252.93 228.521 189.84 104.618 97.7986 36.9924 28.4345 25.3677 16.5196 57.9362
threshold=23.852000000000004 102.43750000000001 25.950000000000006 22.814500000000006 124.60400000000001 23.381000000000004 49.041500000000006 102.87500000000001 141.06250000000003 35.581500000000005 129.39800000000002 15.589500000000003 27.329500000000007 83.323000000000022 8.2535588514672416 83.520500000000013 98.645500000000013 10.116500000000002 371.37500000000006 65.46050000000001 68.250000000000014 63.271000000000008
decision_type=2 2 2 2 2 2 2 2 2 2 2 2 2 2 2 2 2 2 2 2 2 2
left_child=2 4 9 7 19 -6 -5 -4 -3 17 12 13 -8 16 15 -14 18 -1 20 -2 21 -11
right_child=1 8 3 6 5 -7 10 -9 -10 11 -12 -13 14 -15 -16 -17 -18 -19 -20 -21 -22 -23
leaf_value=-0.37051475735627132 0.19851029813855864 0.33540497111171369 -0.30408640673275167 0.39636583572698714 0.20470408097810261 -0.2734644836897927 0.13052987580506661 0.027053865352339362 0.80906887126728499 -0.16949734903447108 0.22141420162560893 0.086214391654253139 -0.08706799485854054 0.04847812002743266 -0.20706767148540001 0.1022792586127774 -0.010690782391958049 -0.18835455025968034 -0.074740068013528421 0.44427266317391639 -0.20077459602994074 -0.062393329333953425
leaf_weight=22 19 34 30 24 27 19 28 37 22 76 25 24 19 25 25 19 21 37 28 19 88 41
leaf_count=22 19 34 30 24 27 19 28 37 22 76 25 24 19 25 25 19 21 37 28 19 88 41
internal_value=0.00827987 0.351287 -0.0786416 0.0339526 0.175149 -0.000828875 0.115793 -0.132912 0.576616 -0.142575 0.042597 -0.110975 -0.0162412 -0.129261 -0.0866601 0.00855756 -0.147404 -0.281808 -0.159201 0.361617 -0.168508 -0.136402
internal_weight=709 140 569 207 84 46 140 67 56 362 116 303 91 279 63 38 254 59 233 38 205 117
internal_count=709 140 569 207 84 46 140 67 56 362 116 303 91 279 63 38 254 59 233 38 205 117
is_linear=0
shrinkage=0.0646824


Tree=40
num_leaves=23
num_cat=0
split_feature=1 16 6 4 6 2 2 15 2 3 8 6 8 7 2 16 0 1 10 17 0 15
split_gain=4505.28 901.963 1363.47 724.439 535.537 561.456 947.316 500.622 486.672 565.211 432.123 429.857 230.515 219.642 188.823 187.437 177.521 82.2612 51.2342 33.757 16.7187 10.9767
threshold=37.152000000000008 4.6885541362595564 121.52100000000002 22.902000000000005 79.396000000000015 67.616500000000016 80.000000000000014 101.46516666666668 54.173000000000009 24.269000000000002 61.271000000000008 83.437500000000014 60.229000000000006 25.206500000000002 85.371000000000024 7.9950826477588697 78.500000000000014 14.029000000000002 9.5000000000000018 4.2915000000000001 63.021000000000008 62.430833333333339
decision_type=2 2 2 2 2 2 2 2 2 2 2 2 2 2 2 2 2 2 2 2 2 2
left_child=3 -2 4 8 -3 -6 -7 -5 11 12 -8 13 -10 -1 19 -16 -13 -15 20 21 -19 -14
right_child=1 2 -4 7 5 6 10 -9 9 -11 -12 16 14 17 15 -17 -18 18 -20 -21 -22 -23
leaf_value=-0.38976036669941277 -0.09355537953506679 0.44224278636407283 0.7289289813753842 0.36288304332682836 0.39371956650428697 -0.26988490972270263 0.31044010550213985 -0.064404345269695129 0.11208442775097215 0.23144458437547391 -0.050857296789190487 0.10391372690446629 -0.076198361844753343 -0.30224543568442586 0.094182436766954633 -0.11361552469773611 -0.10307910378964745 -0.12056948951989406 -0.058843482184859595 -0.060960799775928096 -0.20511897787104888 -0.17245483988863916
leaf_weight=26 21 33 26 19 22 22 35 19 20 23 19 24 19 21 33 29 37 56 29 28 57 82
leaf_count=26 21 33 26 19 22 22 35 19 20 23 19 24 19 21 33 29 37 56 29 28 57 82
internal_value=0.00822673 0.284283 0.336262 -0.0878675 0.232388 0.142193 0.0479593 0.167918 -0.109592 -0.0410929 0.190293 -0.171468 -0.0758681 -0.218497 -0.0981064 -0.0043371 -0.0198002 -0.17948 -0.150849 -0.141176 -0.170676 -0.159164
internal_weight=700 178 157 522 131 98 76 38 484 234 54 250 211 189 191 62 61 163 142 129 113 101
internal_count=700 178 157 522 131 98 76 38 484 234 54 250 211 189 191 62 61 163 142 129 113 101
is_linear=0
shrinkage=0.0646824


Tree=41
num_leaves=25
num_cat=0
split_feature=1 7 3 15 10 8 1 15 2 1 8 0 14 3 10 2 7 3 16 3 5 2 17 0
split_gain=4320.43 1371.62 1006.61 642.555 615.755 459.961 702.792 395.971 344.002 289.792 337.889 411.214 236.156 225.933 190.248 224.971 181.86 155.241 144.6 101.267 88.3402 45.6831 39.6301 8.49495
threshold=44.735500000000009 25.596000000000004 25.035500000000003 78.618000000000009 3.5000000000000004 58.666500000000006 57.681000000000004 93.104166666666671 131.53050000000005 13.889500000000002 40.979500000000009 100.52100000000002 106.83350000000002 21.810500000000005 9.5000000000000018 75.239500000000007 26.077000000000002 15.304 3.7392492981834704 16.694000000000006 308.97950000000003 93.279500000000013 -8.083499999999999 57.520500000000006
decision_type=2 2 2 2 2 2 2 2 2 2 2 2 2 2 2 2 2 2 2 2 2 2 2 2
left_child=2 5 8 -4 12 6 -2 -6 9 -1 -11 13 -5 14 15 19 -9 -16 -17 20 22 -20 -12 -24
right_child=1 -3 3 4 7 -7 -8 16 -10 10 11 -13 -14 -15 17 18 -18 -19 21 -21 -22 -23 23 -25
leaf_value=-0.34270329820387879 0.039678178809184034 0.71682258630904727 0.38940597289645146 0.32783287500167702 -0.24325501336130687 0.017059987653259237 0.53361899569959925 0.16795974595144988 0.13015334456483824 0.10744288835464029 -0.05762273821917057 -0.35307720103422008 0.023769034500045003 0.093922312312214387 -0.10434860288061706 0.099559018029699672 -0.083373215800667214 0.12199530668699463 -0.010025535757830295 -0.26389597152691668 -0.016448858892736444 -0.13966707080026997 -0.08664007644346304 -0.17588725491453597
leaf_weight=20 22 29 19 22 32 34 24 19 19 24 24 26 19 19 19 21 19 21 20 37 24 24 22 123
leaf_count=20 22 29 19 22 32 34 24 19 19 24 24 26 19 19 19 21 19 21 20 37 24 24 22 123
internal_value=0.00526828 0.368363 -0.0666151 0.088983 0.0217785 0.204471 0.326549 -0.0933185 -0.112801 -0.125198 -0.110023 -0.12508 0.206205 -0.103247 -0.115751 -0.133409 0.0475867 0.0148606 -0.0246227 -0.162875 -0.136809 -0.0883219 -0.152856 -0.165967
internal_weight=682 109 573 130 111 80 46 70 443 424 404 380 41 354 335 295 38 40 65 230 193 44 169 145
internal_count=682 109 573 130 111 80 46 70 443 424 404 380 41 354 335 295 38 40 65 230 193 44 169 145
is_linear=0
shrinkage=0.0646824


Tree=42
num_leaves=27
num_cat=0
split_feature=4 14 14 16 11 7 22 7 7 13 15 2 0 8 4 16 17 11 3 13 11 17 17 0 13 15
split_gain=3773.62 941.939 1060.16 931.76 661.099 584.216 526.717 409.945 571.714 380.168 360.571 319.886 233.883 258.877 275.437 138.047 73.6057 58.9794 40.2285 32.6533 69.3617 87.3439 48.7489 40.1214 27.2172 9.09361
threshold=23.852000000000004 162.37500000000003 105.37500000000001 15.348607671550443 3.4011131779056147 24.573000000000004 1.0000000180025095e-35 23.204500000000007 21.273000000000003 127.70850000000002 85.590333333333334 35.581500000000005 86.541500000000013 58.000000000000007 15.589500000000003 8.1204776952635562 6.2704999999999993 3.2430023914366681 10.65 71.145500000000013 2.9434384732815944 0.35450000000000165 -7.0619999999999967 58.791500000000006 68.854000000000013 69.284833333333339
decision_type=2 2 2 2 2 2 2 2 2 2 2 2 2 2 2 2 2 2 2 2 2 2 2 2 2 2
left_child=4 2 3 -2 11 9 7 8 -6 -4 -9 24 13 -13 16 -12 17 19 -19 20 23 25 -21 -15 -1 -22
right_child=1 -3 5 -5 6 -7 -8 10 -10 -11 15 12 -14 14 -16 -17 -18 18 -20 22 21 -23 -24 -25 -26 -27
leaf_value=-0.17955653622344955 0.10275240644513479 0.64466985327350568 -0.051841460886939812 0.69512510491348978 0.043772257687346369 -0.21423930637916819 0.28968180633608986 -0.091633479900050996 -0.3677601678135527 0.27443635821239004 0.27296866487123789 0.11354012794965278 -0.24446579680652158 -0.090472221971261507 0.099205926281390897 0.046268944373467055 -0.016796806634516475 -0.099702681659879389 0.020928154352571664 -0.075493821386331053 -0.15412862397869356 0.017393565898978579 -0.23443158830860414 -0.21955609356719893 -0.34015477585638004 -0.063781149928615305
leaf_weight=43 23 21 22 21 27 21 22 31 22 33 23 23 36 33 24 23 31 19 19 19 20 31 35 29 21 22
leaf_count=43 23 21 22 21 27 21 22 31 22 33 23 23 36 33 24 23 31 19 19 19 20 31 35 29 21 22
internal_value=-0.00684286 0.285474 0.197398 0.430828 -0.0834292 0.0425152 0.0326964 -0.0223 -0.159273 0.151002 0.0696197 -0.125736 -0.0979029 -0.0766253 -0.0939894 0.17649 -0.113638 -0.12616 -0.044317 -0.140916 -0.114464 -0.0642134 -0.190529 -0.163683 -0.254759 -0.119537
internal_weight=694 141 120 44 553 76 148 126 49 55 77 405 341 305 282 46 258 227 38 189 135 73 54 62 64 42
internal_count=694 141 120 44 553 76 148 126 49 55 77 405 341 305 282 46 258 227 38 189 135 73 54 62 64 42
is_linear=0
shrinkage=0.0646824


Tree=43
num_leaves=26
num_cat=0
split_feature=4 0 0 8 1 8 1 0 1 3 5 2 0 13 7 2 4 17 3 1 8 17 2 2 1
split_gain=3261.8 1406.58 1226.35 1345.56 638.514 594.504 434.436 426.854 447.052 382.545 414.376 288.87 270.609 140.497 139.269 106.545 119.224 86.5944 103.256 175.145 90.7061 66.4861 17.128 12.6504 4.95397
threshold=23.852000000000004 168.54150000000001 148.35450000000003 62.083500000000008 25.950000000000006 70.250000000000014 42.429000000000009 106.29150000000001 36.385500000000008 20.383500000000002 695.97900000000016 28.692000000000004 80.208500000000015 97.937500000000014 29.239500000000003 83.323000000000022 16.002000000000006 0.64600000000000091 11.4 21.927000000000003 72.396000000000015 1.2295000000000018 37.341500000000003 50.831500000000005 18.204500000000003
decision_type=2 2 2 2 2 2 2 2 2 2 2 2 2 2 2 2 2 2 2 2 2 2 2 2 2
left_child=4 2 5 -4 11 6 -2 8 12 -9 -11 -1 -6 14 21 16 17 20 24 -20 -13 -14 -22 -24 -19
right_child=1 -3 3 -5 7 -7 -8 9 -10 10 -12 15 13 -15 -16 -17 -18 18 19 -21 22 -23 23 -25 -26
leaf_value=-0.34733072435974649 -0.073139840072875731 0.68286646924133543 0.22914500665581558 -0.4478302615702402 0.18398837217218883 0.48245365620382674 0.27412047149350166 0.074886570623033277 0.33088017060003966 -0.40972271881272532 -0.018043650488378037 -0.26386579048748932 -0.2223803544078907 0.095913688527342042 0.035880796489995564 0.006783359901648682 -0.0011554988355520295 -0.1777308131245075 0.086811143256064996 -0.13172036183837499 -0.058138346929798808 -0.048437832649400735 -0.17756130916625026 -0.10375863837960532 -0.090834510403859287
leaf_weight=20 23 22 19 20 27 34 30 25 19 19 22 34 19 21 25 28 30 24 28 23 22 21 49 59 30
leaf_count=20 23 22 19 20 27 34 30 25 19 19 22 34 19 21 25 28 30 24 28 23 22 21 49 59 30
internal_value=-0.00565951 0.258114 0.158773 -0.130337 -0.0791316 0.288418 0.130638 0.0134613 0.0797931 -0.115179 -0.226271 -0.131358 0.0243246 -0.0337614 -0.0798258 -0.112685 -0.123794 -0.137177 -0.0841538 -0.0149373 -0.167335 -0.147783 -0.132511 -0.144148 -0.142179
internal_weight=693 148 126 39 545 87 53 198 132 66 41 347 113 86 65 327 299 269 105 51 164 40 130 108 54
internal_count=693 148 126 39 545 87 53 198 132 66 41 347 113 86 65 327 299 269 105 51 164 40 130 108 54
is_linear=0
shrinkage=0.0646824


Tree=44
num_leaves=23
num_cat=0
split_feature=4 14 3 1 10 3 3 5 16 14 1 8 0 8 17 4 7 10 3 17 3 5
split_gain=3644.73 934.022 836.745 723.517 677.344 637.851 449.514 651.891 289.309 399.172 460.139 144.081 336.501 197.829 135.618 118.137 75.6451 94.9092 81.9144 73.3223 18.1271 15.0988
threshold=23.852000000000004 154.29150000000001 37.327000000000005 36.385500000000008 5.5000000000000009 46.668500000000009 16.694000000000006 657.27100000000007 25.614684979932694 107.43750000000001 28.635500000000004 67.083500000000015 80.479000000000013 70.854000000000013 9.1875000000000018 9.1920000000000019 30.723000000000003 8.5000000000000018 11.869000000000002 -5.5829999999999975 8.2605000000000022 304.58300000000008
decision_type=2 2 2 2 2 2 2 2 2 2 2 2 2 2 2 2 2 2 2 2 2 2
left_child=3 2 4 8 -2 -4 -5 -8 9 10 11 12 -1 -13 16 -12 17 19 -19 -15 -21 -20
right_child=1 -3 5 6 -6 -7 7 -9 -10 -11 15 13 -14 14 -16 -17 -18 18 21 20 -22 -23
leaf_value=0.1389601105950817 0.13018267067643799 0.60575267018310452 -0.2275025080378123 0.3500717499515148 0.58262911761321101 0.19929483596098549 -0.21047427633863022 0.19195765015839422 0.11255505635932518 -0.28718427082404707 -0.015693698587430732 -0.27280275653296787 -0.1688032197645235 -0.059805362389146452 0.050536469438207589 0.15621663600178912 0.0028664878199346632 -0.12229411489050852 -0.033570990811265335 -0.11095700738643421 -0.21160029064730135 0.036249210602069329
leaf_weight=27 33 31 22 20 25 26 24 34 25 37 28 29 22 32 20 33 21 42 20 33 67 21
leaf_count=27 33 31 22 20 25 26 24 34 25 37 28 29 22 32 20 33 21 42 20 33 67 21
internal_value=0.023831 0.314749 0.204244 -0.0530826 0.358421 0.000435247 0.123197 0.0216675 -0.0842643 -0.0969116 -0.0754316 -0.105131 -0.00227772 -0.122441 -0.100089 0.08248 -0.113704 -0.12488 -0.0644172 -0.158846 -0.185822 0.00224767
internal_weight=672 137 106 535 58 48 78 58 457 432 395 334 49 285 256 61 236 215 83 132 100 41
internal_count=672 137 106 535 58 48 78 58 457 432 395 334 49 285 256 61 236 215 83 132 100 41
is_linear=0
shrinkage=0.0646824


Tree=45
num_leaves=26
num_cat=0
split_feature=4 6 14 16 4 2 13 4 4 6 13 4 7 7 2 10 0 2 6 1 0 2 5 5 5
split_gain=3356.69 904.902 1287.89 1346.97 892.767 733.913 678.892 532.209 608.6 350.859 314.525 345.437 243.756 216.003 195.723 180.75 198.876 102.714 190.507 94.2848 47.0048 46.6529 23.6593 11.2202 35.7449
threshold=23.852000000000004 102.43750000000001 124.60400000000001 13.380021236372587 37.510000000000012 54.173000000000009 83.062500000000014 11.875000000000002 19.650000000000002 83.437500000000014 92.312500000000014 7.2455000000000007 27.190000000000001 23.381000000000004 44.948000000000008 8.5000000000000018 82.646000000000015 66.220500000000015 64.021000000000015 24.610500000000005 74.937500000000014 81.879000000000019 773.75000000000011 352.12500000000006 261.33350000000002
decision_type=2 2 2 2 2 2 2 2 2 2 2 2 2 2 2 2 2 2 2 2 2 2 2 2 2
left_child=5 2 22 -4 -3 9 15 10 -9 13 -8 -12 14 -1 -11 16 17 -7 21 -17 23 -19 -2 24 -15
right_child=1 4 3 -5 -6 6 7 8 -10 12 11 -13 -14 20 -16 19 -18 18 -20 -21 -22 -23 -24 -25 -26
leaf_value=-0.3800457924602994 0.49152611829470605 0.69990462014130794 0.2621868496064686 -0.32538140970394663 0.15490218279522736 -0.1461257096728425 0.13621580869765079 0.4324631375367059 0.020490286248985842 -0.073920744102249095 0.068175194284029211 -0.28413529026998413 -0.18247107564059295 -0.16772178058011616 0.16611907460194131 -0.0534939820389667 -0.28348095707164017 -0.021267736026807087 0.11995994815879071 0.11570130718704794 -0.065517773450391878 -0.15440242245631919 0.22403151164118484 -0.24688385335375898 -0.060330608169851863
leaf_weight=19 20 29 25 30 26 40 31 30 27 21 19 19 19 84 27 23 19 23 22 22 31 20 19 19 25
leaf_count=19 20 29 25 30 26 40 31 30 27 21 19 19 19 84 27 23 19 23 22 22 31 20 19 19 25
internal_value=0.0149058 0.281014 0.145087 -0.0587448 0.479377 -0.0605894 0.00839148 0.119263 0.256094 -0.142027 -0.00421951 -0.121495 -0.0141482 -0.188316 0.0642654 -0.0754111 -0.114401 -0.0713569 -0.0176181 0.032779 -0.153597 -0.0935708 0.404561 -0.17139 -0.147127
internal_weight=689 149 94 55 55 540 295 126 57 245 69 38 67 178 48 169 124 105 65 45 159 43 39 128 109
internal_count=689 149 94 55 55 540 295 126 57 245 69 38 67 178 48 169 124 105 65 45 159 43 39 128 109
is_linear=0
shrinkage=0.0646824


Tree=46
num_leaves=26
num_cat=0
split_feature=14 3 15 8 0 15 3 2 2 6 8 0 17 0 2 5 1 23 17 7 3 1 13 7 13
split_gain=2269.57 1414.04 657.923 635.616 924.477 1164.67 919.711 725.913 411.248 325.942 313.887 302.114 241.781 139.055 122.38 100.837 85.2685 33.1343 53.0882 67.3594 75.9287 44.8019 29.2384 17.3091 7.88959
threshold=169.39600000000004 23.416500000000003 79.882000000000019 53.250000000000007 151.39600000000004 102.21533333333336 34.827500000000008 53.352000000000011 129.39800000000002 85.937500000000014 59.291500000000006 91.083500000000015 -1.8119999999999974 93.562500000000014 84.795500000000018 184.62500000000003 14.358000000000002 1.0000000180025095e-35 5.5204999999999993 27.896000000000004 15.887500000000001 18.660000000000004 68.854000000000013 28.591500000000003 62.375000000000007
decision_type=2 2 2 2 2 2 2 2 2 2 2 2 2 2 2 2 2 2 2 2 2 2 2 2 2
left_child=1 8 -3 7 5 11 -7 -4 10 -9 12 -5 -1 14 16 -16 -12 18 19 22 23 -19 24 -21 -18
right_child=-2 2 3 4 -6 6 -8 9 -10 -11 13 -13 -14 -15 15 -17 17 21 -20 20 -22 -23 -24 -25 -26
leaf_value=0.15854785277092615 0.5957300946638352 0.38787268442330652 -0.10108906673982811 0.05226384644439902 -0.30616100881984448 -0.013758499133411203 0.547175175016125 0.13625212193604966 0.15342139672274582 0.46594904416435251 -0.23896345611211275 -0.22729707490348169 -0.079962519258071171 -0.27017760210862235 -0.088176121235162302 0.092504463502048079 -0.14538165214780527 -0.10693139710891404 -0.034143885545967659 -0.045397712190350395 0.013203060199405927 0.016806494147166458 -0.23039277628782642 -0.13138891014699391 -0.059056297080140846
leaf_weight=28 21 26 21 25 30 21 23 31 24 27 23 33 33 22 22 19 22 19 32 20 22 22 35 74 20
leaf_count=28 21 26 21 25 30 21 23 31 24 27 23 33 33 22 22 19 22 19 32 20 22 22 35 74 20
internal_value=0.00779443 -0.0151442 0.110545 0.067488 -0.020366 0.0749304 0.307385 0.206142 -0.0838307 0.316511 -0.099432 -0.112645 0.0335329 -0.122634 -0.108578 -0.00341883 -0.123158 -0.108559 -0.118536 -0.13121 -0.092473 -0.0463411 -0.17962 -0.116575 -0.115754
internal_weight=695 674 237 211 132 102 44 79 437 58 413 58 61 352 330 41 289 266 225 193 116 41 77 94 42
internal_count=695 674 237 211 132 102 44 79 437 58 413 58 61 352 330 41 289 266 225 193 116 41 77 94 42
is_linear=0
shrinkage=0.0646824


Tree=47
num_leaves=27
num_cat=0
split_feature=1 6 0 4 6 0 6 7 4 8 17 2 7 2 0 3 2 6 8 3 17 10 16 16 14 3
split_gain=3311.48 713.298 634.637 585.586 497.752 412.219 433.469 300.34 398.18 282.243 250.479 214.793 184.553 177.48 115.05 174.549 55.8223 79.0054 61.4092 84.661 59.3474 34.715 29.8632 35.6848 21.6711 17.7113
threshold=40.754500000000007 119.33300000000001 157.79200000000003 25.858500000000003 98.854500000000016 117.06250000000001 83.854000000000013 21.569000000000006 9.1920000000000019 59.896000000000008 -3.5835000000000004 115.63750000000002 21.510000000000002 35.727000000000011 86.541500000000013 22.948000000000004 86.050000000000026 75.583500000000015 78.916500000000013 11.518500000000001 -4.0204999999999975 9.5000000000000018 8.9324383548831001 4.3771307233897039 66.646000000000015 10.248000000000003
decision_type=2 2 2 2 2 2 2 2 2 2 2 2 2 2 2 2 2 2 2 2 2 2 2 2 2 2
left_child=3 2 4 5 9 6 11 -8 -9 -2 -10 12 -1 25 15 16 17 18 19 22 -20 -16 23 24 -15 -14
right_child=1 -3 -4 -5 -6 -7 7 8 10 -11 -12 -13 13 14 21 -17 -18 -19 20 -21 -22 -23 -24 -25 -26 -27
leaf_value=0.088645817482933265 0.21214703605817556 0.57051097815322094 -0.084894868803772616 0.2181692135004929 0.060109522802353113 -0.31247336707421824 -0.11808979517957464 -0.072039650615770043 0.33952100681730979 0.5393894794975328 0.074319242793439752 0.1050888496546277 -0.10494437246520782 -0.022594199091503939 -0.23220263048031789 0.089232467404133015 0.0054276858708728077 -0.20329585886206036 -0.021412144581447981 0.056861854332585726 -0.15680692271782437 -0.078291187893040709 -0.13279953413112797 0.027282898183099213 -0.10952817798052379 -0.24446848536988533
leaf_weight=19 36 29 22 29 32 20 25 29 26 26 36 21 19 27 20 25 29 19 21 25 46 19 19 19 23 32
leaf_count=19 36 29 22 29 32 20 25 29 26 26 36 21 19 27 20 25 29 19 21 25 46 19 19 19 23 32
internal_value=0.0323202 0.301221 0.211372 -0.0410907 0.281561 -0.0576887 -0.0442193 0.0632253 0.116886 0.381799 0.203938 -0.0771907 -0.0891634 -0.100242 -0.0780387 -0.0595579 -0.0775709 -0.0894888 -0.0718679 -0.0396437 -0.119162 -0.175972 -0.0687733 -0.0427314 -0.0694033 -0.207605
internal_weight=693 145 116 548 94 519 499 116 91 62 62 383 362 343 292 253 228 199 180 113 67 39 88 69 50 51
internal_count=693 145 116 548 94 519 499 116 91 62 62 383 362 343 292 253 228 199 180 113 67 39 88 69 50 51
is_linear=0
shrinkage=0.0646824


Tree=48
num_leaves=27
num_cat=0
split_feature=14 1 15 16 0 6 7 6 14 7 16 10 4 17 14 5 2 10 7 16 16 10 2 3 7 2
split_gain=2145.1 1200.34 787.398 639.685 606.872 564.769 522.638 513.707 471.066 575.623 358.624 267.743 192.467 160.367 244.899 121.35 93.2254 85.6636 66.3437 75.4098 64.3469 56.3353 16.2485 50.7139 0.485546 0.478481
threshold=161.50000000000003 33.514500000000005 142.95833333333334 19.156220272880613 147.29150000000001 105.54150000000001 27.210500000000003 85.937500000000014 107.43750000000001 26.652000000000005 17.394088469155708 5.5000000000000009 13.362500000000002 6.1665000000000001 83.875000000000014 332.45800000000008 55.908000000000008 8.5000000000000018 29.077000000000002 8.2535588514672416 4.6885541362595564 6.5000000000000009 50.831500000000005 11.518500000000001 27.952000000000002 62.187500000000007
decision_type=2 2 2 2 2 2 2 2 2 2 2 2 2 2 2 2 2 2 2 2 2 2 2 2 2 2
left_child=1 8 3 5 -5 6 7 -3 9 10 13 15 18 14 -1 16 -11 -10 22 20 21 -20 24 25 -13 -24
right_child=-2 2 -4 4 -6 -7 -8 -9 17 11 -12 12 -14 -15 -16 -17 -18 -19 19 -21 -22 -23 23 -25 -26 -27
leaf_value=0.20388806163208761 0.48689863717717574 -0.1408772206323449 -0.16209501401766083 0.52908882808987645 0.071133540292088335 -0.19678094151390485 0.33392376205485452 0.20823329759889617 -0.35321322320357329 -0.17819308359203764 0.30093982537167119 -0.15730575724373089 0.11197878666007685 -0.1161952861977332 -0.068814670504781558 -0.29516941848039019 -0.014331908874159879 -0.12786348029123351 -0.086725958152980676 -0.10515844491504417 0.090340376176035742 0.038446600736624738 -0.064446540342774486 -0.0041323658097064007 -0.080467134510577132 -0.13547267145174843
leaf_weight=24 32 32 31 28 22 20 33 28 21 33 20 28 22 21 22 26 25 23 28 32 21 23 19 29 23 22
leaf_count=24 32 32 31 28 22 20 33 28 21 33 20 28 22 21 22 26 25 23 28 32 21 23 19 29 23 22
internal_value=0.0106371 -0.0164062 0.116601 0.173125 0.354325 0.0803645 0.147542 0.0258059 -0.0729642 -0.0499068 0.0940839 -0.0886621 -0.0525468 0.0143839 0.0799767 -0.185209 -0.114845 -0.262432 -0.070896 -0.0306571 0.00751273 -0.0320099 -0.102676 -0.0720348 -0.133743 -0.113957
internal_weight=688 656 194 163 50 113 93 60 462 418 87 331 247 67 46 84 58 44 225 104 72 51 121 70 51 41
internal_count=688 656 194 163 50 113 93 60 462 418 87 331 247 67 46 84 58 44 225 104 72 51 121 70 51 41
is_linear=0
shrinkage=0.0646824


Tree=49
num_leaves=27
num_cat=0
split_feature=1 3 7 18 16 13 13 4 2 16 7 1 0 1 0 25 1 0 1 2 7 0 0 3 3 16
split_gain=2629.42 873.079 1125.14 501.06 649.836 884.965 951.767 285.324 253.821 235.779 707.114 346.158 187.939 215.864 164.311 89.8117 139.802 108.033 133.028 79.0879 49.6652 39.5763 32.0999 26.6552 25.9394 12.6556
threshold=44.735500000000009 31.046000000000003 22.166500000000003 1.0000000180025095e-35 27.057355890428045 144.70850000000004 121.08300000000001 23.852000000000004 118.02500000000002 10.45559110674626 25.404000000000003 23.189500000000002 104.25000000000001 32.664500000000011 71.333500000000015 1.0000000180025095e-35 20.935500000000005 79.187500000000014 23.495500000000003 51.027500000000011 29.077000000000002 65.208000000000013 68.250000000000014 11.958500000000003 11.958500000000003 7.6815116803334078
decision_type=2 2 2 2 2 2 2 2 2 2 2 2 2 2 2 2 2 2 2 2 2 2 2 2 2 2
left_child=3 -2 -3 4 5 6 7 8 12 10 -5 -11 13 15 19 17 -17 18 20 24 22 -22 23 -1 -12 -19
right_child=1 2 -4 9 -6 -7 -8 -9 -10 11 14 -13 -14 -15 -16 16 -18 25 -20 -21 21 -23 -24 -25 -26 -27
leaf_value=-0.11210260459326868 0.0075721444382563343 0.10090404764731127 0.61023368715250803 0.20129476482264927 0.24524791042494701 -0.42926359063152342 0.3338623366041652 0.14864171227906886 0.10943954832589425 -0.069433285189017993 -0.20864276020069514 -0.46164982158906204 -0.24375508083534489 0.1083760957791607 -0.3247139359063892 -0.10718319571241131 0.10745519480951879 -0.10230167044276611 0.051718094480531163 -0.0063086510093248614 0.02421328423099435 -0.083036372525514143 -0.17739146573790876 -0.019627467292998833 -0.073472309965741472 -0.19888838328742781
leaf_weight=36 36 35 39 20 28 19 23 22 26 19 22 19 24 22 23 19 21 33 29 20 23 26 29 23 19 38
leaf_count=36 36 35 39 20 28 19 23 22 26 19 22 19 24 22 23 19 21 33 29 20 23 26 29 23 19 38
internal_value=-0.00936703 0.272969 0.392727 -0.0646679 -0.0297495 -0.0513376 -0.0275183 -0.05442 -0.0693041 -0.168016 -0.107769 -0.298777 -0.0852655 -0.0684182 -0.189118 -0.0842754 0.00487619 -0.0990941 -0.0668053 -0.115604 -0.0929106 -0.0353041 -0.121066 -0.0807505 -0.161938 -0.164465
internal_weight=693 110 74 583 441 413 394 371 349 142 104 38 323 299 84 277 40 237 166 61 137 49 88 59 41 71
internal_count=693 110 74 583 441 413 394 371 349 142 104 38 323 299 84 277 40 237 166 61 137 49 88 59 41 71
is_linear=0
shrinkage=0.0646824


Tree=50
num_leaves=28
num_cat=0
split_feature=0 1 0 0 7 13 4 2 0 1 13 5 2 2 5 10 1 1 0 6 17 1 0 15 4 4 17
split_gain=3561.93 1165.58 781.369 733.055 766.899 494.299 536.972 255.694 225.843 423.479 296.447 232.654 162.922 179.541 133.84 89.105 67.1099 53.8159 116.172 69.7006 51.6593 36.9624 31.9892 30.7362 18.9229 10.7491 0.391214
threshold=168.54150000000001 45.63750000000001 128.89550000000003 151.10450000000003 22.106000000000005 121.08300000000001 23.852000000000004 56.552000000000007 104.25000000000001 34.531500000000001 106.83350000000002 601.04150000000016 79.816500000000019 94.279000000000011 499.43750000000006 5.5000000000000009 22.337500000000002 18.993500000000001 77.479000000000013 64.021000000000015 -0.33350000000000074 21.152500000000007 58.791500000000006 79.374833333333342 9.6210000000000004 4.8855000000000013 -1.3335000000000006
decision_type=2 2 2 2 2 2 2 2 2 2 2 2 2 2 2 2 2 2 2 2 2 2 2 2 2 2 2
left_child=1 2 5 4 -3 6 8 -7 9 10 11 12 14 -14 15 16 20 22 19 21 24 -19 25 -15 -1 -17 -24
right_child=-2 3 -4 -5 -6 7 -8 -9 -10 -11 -12 -13 13 23 -16 17 -18 18 -20 -21 -22 -23 26 -25 -26 -27 -28
leaf_value=-0.19083537651869828 0.7506260711714553 0.075795706720545059 -0.39991494943147365 -0.041597765748358384 0.5538617724005741 -0.00028238489703323919 0.17782812050071534 0.31599376946192276 -0.2199798935159854 0.20929029742675939 0.15329715994356014 -0.2728388892446667 0.16403838018241695 0.0060954742475697998 0.041114968091073789 -0.0094123743188154873 -0.238729012791422 -0.069331026814395194 -0.12681837664606685 0.10125242916046043 -0.038902700857657464 0.031881855618347943 -0.08069041448512336 -0.098161866013611071 -0.075031494994574427 -0.077414766432573515 -0.15870673112467951
leaf_weight=23 21 29 20 33 26 19 35 19 33 19 19 20 20 21 29 19 24 30 32 20 36 22 22 20 22 19 30
leaf_count=23 21 29 20 33 26 19 35 19 33 19 19 20 20 21 29 19 24 30 32 20 36 22 22 20 22 19 30
internal_value=0.0143709 -0.0149525 -0.0490765 0.197169 0.331284 -0.0326182 -0.0498237 0.177613 -0.068229 -0.0545172 -0.0687065 -0.0808953 -0.0674022 0.0276477 -0.0852417 -0.0980124 -0.146008 -0.0687632 -0.0343053 0.0128284 -0.105248 -0.0275456 -0.104359 -0.0502999 -0.14841 -0.0488472 -0.136462
internal_weight=682 661 573 88 55 553 515 38 480 447 428 409 389 61 328 299 105 194 104 72 81 52 90 41 45 38 52
internal_count=682 661 573 88 55 553 515 38 480 447 428 409 389 61 328 299 105 194 104 72 81 52 90 41 45 38 52
is_linear=0
shrinkage=0.0646824


Tree=51
num_leaves=30
num_cat=0
split_feature=4 7 17 17 0 2 4 1 17 13 4 0 1 7 1 4 1 14 0 10 17 17 3 1 13 13 8 1 17
split_gain=1783 701.617 848.087 662.788 793.884 579.164 386.679 242.745 310.304 280.572 498.926 467.987 311.028 128.051 321.791 83.3517 108.64 98.8215 114.302 76.7688 70.7488 54.2733 71.7307 55.0548 54.5193 85.4196 28.4947 28.0692 14.1307
threshold=25.858500000000003 25.596000000000004 5.6875000000000009 -13.853999999999997 157.79200000000003 131.53050000000005 34.125000000000007 15.794000000000002 -31.562499999999996 118.14600000000002 19.764500000000002 100.14550000000001 29.925000000000001 25.404000000000003 22.920500000000004 14.202000000000002 27.427000000000003 86.937500000000014 78.500000000000014 9.5000000000000018 -3.3119999999999972 1.333500000000001 8.4060000000000006 21.687500000000004 67.354500000000016 58.312500000000007 77.437500000000014 17.646000000000004 1.333500000000001
decision_type=2 2 2 2 2 2 2 2 2 2 2 2 2 2 2 2 2 2 2 2 2 2 2 2 2 2 2 2 2
left_child=5 3 -3 -2 6 7 -5 20 -9 11 -11 12 13 14 -10 16 17 18 21 -13 -1 23 -23 24 25 -15 -24 -27 -17
right_child=1 2 -4 4 -6 -7 -8 8 9 10 -12 19 -14 15 -16 28 -18 -19 -20 -21 -22 22 26 -25 -26 27 -28 -29 -30
leaf_value=-0.071387947425283399 0.37466132011498848 0.073746901942379886 0.66907755298947236 -0.075280531289760991 -0.31582999676860724 0.21392136057987901 0.27959257734404358 -0.26011569922284733 0.2201836463624067 0.29495640120008376 -0.10042232461241321 -0.33848839622561522 0.13736155000414885 -0.15590393687310553 -0.084173169681364568 -0.19328782318927706 0.064500433665067983 0.043827920712296048 -0.20916412584070987 -0.12143754883922023 -0.24069443192147089 -0.09256408349824706 -0.012121542279710726 0.0030938757387775602 -0.16886049528609706 -0.053592586194130341 0.089138746045593492 0.039066066278365223 -0.07547628498832655
leaf_weight=22 20 19 20 19 19 27 25 23 19 22 22 19 36 20 31 19 26 27 21 23 36 21 20 24 33 21 19 23 19
leaf_count=22 20 19 20 19 19 27 25 23 19 22 22 19 36 20 31 19 26 27 21 23 36 21 20 24 33 21 19 23 19
internal_value=-0.00480345 0.214253 0.423551 0.0959166 -0.015307 -0.0530191 0.134925 -0.0681983 -0.0520328 -0.0388534 0.107964 -0.0553785 -0.0309301 -0.050461 0.0417333 -0.0666675 -0.0511769 -0.0655018 -0.0808808 -0.247167 -0.188096 -0.0603318 -0.00882018 -0.0843973 -0.10506 -0.0615174 0.0420805 -0.00618771 -0.151201
internal_weight=695 122 39 83 63 573 44 546 488 465 44 421 379 343 50 293 255 229 202 42 58 181 60 121 97 64 39 44 38
internal_count=695 122 39 83 63 573 44 546 488 465 44 421 379 343 50 293 255 229 202 42 58 181 60 121 97 64 39 44 38
is_linear=0
shrinkage=0.0646824


Tree=52
num_leaves=28
num_cat=0
split_feature=1 6 0 3 10 13 6 3 4 7 4 7 13 10 3 14 17 15 10 3 5 14 16 5 4 17 3
split_gain=1932.05 670.868 1007.42 1708.5 309.911 297.185 296.756 428.553 341.355 239.229 233.101 208.993 202.891 198.67 216.425 156.665 209.864 106.626 104.574 92.7714 85.4791 66.5188 64.3452 34.269 32.4163 27.2141 17.8434
threshold=79.925000000000011 87.791500000000013 148.35450000000003 29.173000000000005 9.5000000000000018 144.70850000000004 61.187500000000007 40.977000000000011 13.548000000000002 25.700000000000003 23.377000000000006 25.404000000000003 86.396000000000015 9.5000000000000018 15.983000000000002 93.187500000000014 -4.5624999999999991 66.52766666666669 8.5000000000000018 10.462500000000002 481.93750000000006 68.854000000000013 5.5008920940439276 191.12500000000003 4.3500000000000005 -1.228999999999999 11.518500000000001
decision_type=2 2 2 2 2 2 2 2 2 2 2 2 2 2 2 2 2 2 2 2 2 2 2 2 2 2 2
left_child=1 5 3 4 11 6 8 10 18 -6 12 20 13 14 17 -14 -17 -8 19 23 -3 26 -19 24 25 -1 -20
right_child=-2 2 -4 -5 9 -7 7 -9 -10 -11 -12 -13 15 -15 -16 16 -18 22 21 -21 -22 -23 -24 -25 -26 -27 -28
leaf_value=0.003503640374613223 0.53191451696611836 -0.031439524337249281 -0.2074091232236582 0.56114549750771903 0.0020838037055204454 -0.25238811367566666 -0.14771214385103765 0.25218772229199232 -0.32729528997057517 0.30868653369185223 0.14660341836711024 -0.15554200677125085 0.12699948993724877 0.040657819528918879 -0.27001416078692597 0.068313615907523523 -0.17513802316161206 -0.060429993989811782 -0.082616115117304684 -0.20963262727960627 0.13647095850755275 0.069677692528118729 0.076035281167746549 -0.00034279543451586552 -0.14236125822893952 -0.089607966520667742 -0.0021092586684713158
leaf_weight=23 22 23 34 29 19 26 35 20 20 19 24 31 35 34 29 29 21 30 25 24 19 25 19 23 27 24 19
leaf_count=23 22 23 34 29 19 26 35 20 20 19 24 31 35 34 29 29 21 30 25 24 19 25 19 23 27 24 19
internal_value=-0.000418421 -0.0215384 0.0864484 0.162899 0.0375105 -0.0587597 -0.0457235 -0.0012904 -0.102615 0.174833 -0.0259258 -0.041136 -0.0467218 -0.0915221 -0.131334 0.0316007 -0.0410841 -0.0699531 -0.0705179 -0.105479 0.051455 -0.00598287 -0.00520589 -0.0699513 -0.0900823 -0.0484036 -0.0519068
internal_weight=708 686 174 140 111 512 486 276 210 38 256 73 232 147 113 85 50 84 190 121 42 69 49 97 74 47 44
internal_count=708 686 174 140 111 512 486 276 210 38 256 73 232 147 113 85 50 84 190 121 42 69 49 97 74 47 44
is_linear=0
shrinkage=0.0646824


end of trees

feature_importances:
PM2.5=234
AQI=93
PM10=93
O3=87
SO2=82
NO2=62
Temperature=57
AQI_diff=49
AQI_lag_1=47
CO=44
AQI_lag_2=41
month=34
AQI_roll_std_3=32
Humidity=26
AQI_roll_mean_3=25
log_PM2.5=16
log_CO=4
weekday_3=3
season_Spring=1
season_Summer=1
weekday_2=1
weekday_4=1
weekday_5=1

parameters:
[boosting: gbdt]
[objective: regression]
[metric: rmse]
[tree_learner: serial]
[device_type: cpu]
[data_sample_strategy: bagging]
[data: ]
[valid: ]
[num_iterations: 3000]
[learning_rate: 0.0646824]
[num_leaves: 199]
[num_threads: 0]
[seed: 42]
[deterministic: 0]
[force_col_wise: 0]
[force_row_wise: 1]
[histogram_pool_size: -1]
[max_depth: -1]
[min_data_in_leaf: 19]
[min_sum_hessian_in_leaf: 0.001]
[bagging_fraction: 0.822077]
[pos_bagging_fraction: 1]
[neg_bagging_fraction: 1]
[bagging_freq: 1]
[bagging_seed: 400]
[bagging_by_query: 0]
[feature_fraction: 0.942246]
[feature_fraction_bynode: 1]
[feature_fraction_seed: 30056]
[extra_trees: 0]
[extra_seed: 12879]
[early_stopping_round: 0]
[early_stopping_min_delta: 0]
[first_metric_only: 0]
[max_delta_step: 0]
[lambda_l1: 0]
[lambda_l2: 5.43655]
[linear_lambda: 0]
[min_gain_to_split: 0]
[drop_rate: 0.1]
[max_drop: 50]
[skip_drop: 0.5]
[xgboost_dart_mode: 0]
[uniform_drop: 0]
[drop_seed: 17869]
[top_rate: 0.2]
[other_rate: 0.1]
[min_data_per_group: 100]
[max_cat_threshold: 32]
[cat_l2: 10]
[cat_smooth: 10]
[max_cat_to_onehot: 4]
[top_k: 20]
[monotone_constraints: ]
[monotone_constraints_method: basic]
[monotone_penalty: 0]
[feature_contri: ]
[forcedsplits_filename: ]
[refit_decay_rate: 0.9]
[cegb_tradeoff: 1]
[cegb_penalty_split: 0]
[cegb_penalty_feature_lazy: ]
[cegb_penalty_feature_coupled: ]
[path_smooth: 0]
[interaction_constraints: ]
[verbosity: -1]
[saved_feature_importance_type: 0]
[use_quantized_grad: 0]
[num_grad_quant_bins: 4]
[quant_train_renew_leaf: 0]
[stochastic_rounding: 1]
[linear_tree: 0]
[max_bin: 255]
[max_bin_by_feature: ]
[min_data_in_bin: 3]
[bin_construct_sample_cnt: 200000]
[data_random_seed: 175]
[is_enable_sparse: 1]
[enable_bundle: 1]
[use_missing: 1]
