tree
version=v4
num_class=1
num_tree_per_iteration=1
label_index=0
max_feature_idx=109
objective=regression
feature_names=pm2_5_mean pm10_mean co_mean no_mean no2_mean o3_mean so2_mean nh3_mean num_hours o3_8h_max_ppb temp_mean temp_min temp_max humidity_mean dew_point_mean pressure_mean wind_speed_mean wind_speed_max wind_gust_max clouds_mean visibility_mean rain_sum snow_sum wind_u_mean wind_v_mean temp_range is_complete_day imputed aqi_daily day_of_week day_of_year month is_weekend week_of_year doy_sin doy_cos aqi_daily_lag1 aqi_daily_lag2 aqi_daily_lag3 aqi_daily_lag4 aqi_daily_lag5 aqi_daily_lag6 aqi_daily_lag7 pm2_5_mean_lag1 pm2_5_mean_lag2 pm2_5_mean_lag3 pm2_5_mean_lag4 pm2_5_mean_lag5 pm2_5_mean_lag6 pm2_5_mean_lag7 pm10_mean_lag1 pm10_mean_lag2 pm10_mean_lag3 pm10_mean_lag4 pm10_mean_lag5 pm10_mean_lag6 pm10_mean_lag7 aqi_roll_mean_3 aqi_roll_std_3 aqi_roll_mean_7 aqi_roll_std_7 aqi_roll_mean_14 aqi_roll_std_14 aqi_roll_mean_30 aqi_roll_std_30 pm25_roll_mean_3 pm25_roll_std_3 pm25_roll_mean_7 pm25_roll_std_7 pm25_roll_mean_14 pm25_roll_std_14 pm25_roll_mean_30 pm25_roll_std_30 pm10_roll_mean_3 pm10_roll_std_3 pm10_roll_mean_7 pm10_roll_std_7 pm10_roll_mean_14 pm10_roll_std_14 pm10_roll_mean_30 pm10_roll_std_30 temp_mean_lag1 temp_mean_lag2 temp_mean_lag3 temp_mean_roll_mean_3 temp_mean_roll_std_3 temp_mean_roll_mean_7 temp_mean_roll_std_7 humidity_mean_lag1 humidity_mean_lag2 humidity_mean_lag3 humidity_mean_roll_mean_3 humidity_mean_roll_std_3 humidity_mean_roll_mean_7 humidity_mean_roll_std_7 wind_u_mean_lag1 wind_u_mean_lag2 wind_u_mean_lag3 wind_u_mean_roll_mean_3 wind_u_mean_roll_std_3 wind_u_mean_roll_mean_7 wind_u_mean_roll_std_7 wind_v_mean_lag1 wind_v_mean_lag2 wind_v_mean_lag3 wind_v_mean_roll_mean_3 wind_v_mean_roll_std_3 wind_v_mean_roll_mean_7 wind_v_mean_roll_std_7 aqi_change_rate
feature_infos=[3.2025000000000001:616.58416666666665] [7.335:727.84458333333339] [199.15916666666666:8809.7250000000004] [0.14041666666666666:108.66958333333334] [1.5658333333333332:190.92708333333334] [15.069166666666666:145.91041666666666] [0.99124999999999996:68.564583333333331] [0:102.25625000000001] none [14.790267499999999:176.00265625000003] [14.854166666666666:33.404166666666669] [8.9000000000000004:30.5] [19.399999999999999:41.600000000000001] [19.666666666666668:89.916666666666671] [-9.7791666666666668:27.520833333333332] [992.13333333333333:1021.0333333333333] [5.6708333333333334:38.666666666666664] [9.3000000000000007:46.600000000000001] [22:68.400000000000006] [0:100] none [0:57] none [-20.75033541925556:24.207842000746769] [-31.955843386774617:32.357982578309056] [1.3000000000000007:15.599999999999998] none none [20.310513888888895:473.69301200800538] [0:6] [1:365] [1:12] [0:1] [1:52] [-0.99999073973619013:0.99999073973619013] [-0.99996295911626554:1] [20.310513888888895:473.69301200800538] [20.310513888888895:473.69301200800538] [20.310513888888895:473.69301200800538] [20.310513888888895:473.69301200800538] [20.310513888888895:473.69301200800538] [20.310513888888895:473.69301200800538] [20.310513888888895:473.69301200800538] [3.2025000000000001:616.58416666666665] [3.2025000000000001:616.58416666666665] [3.2025000000000001:616.58416666666665] [3.2025000000000001:616.58416666666665] [3.2025000000000001:616.58416666666665] [3.2025000000000001:616.58416666666665] [3.2025000000000001:616.58416666666665] [7.335:727.84458333333339] [7.335:727.84458333333339] [7.335:727.84458333333339] [7.335:727.84458333333339] [7.335:727.84458333333339] [7.335:727.84458333333339] [7.335:727.84458333333339] [23.287928240740744:420.38816868068869] [0.36225390695057991:223.01663741237891] [28.7995980489418:330.95011380746035] [1.0051693309433569:148.3534006845525] [34.520902001560238:299.783252529734] [4.0745779966483298:127.01183900955419] [54.542583670214306:276.27722359370802] [7.5247141395408068:107.51028442443274] [3.6938888888888868:414.78416666666664] [0.17190130270067416:291.14502714030704] [5.703035714285714:331.50244047619043] [0.47796827355084731:215.84586975494693] [8.0616071428571434:286.76267857142858] [1.300399423200602:174.32429338539194] [12.978097222222223:251.10046135265702] [2.2282575530653319:159.67865982247835] [8.9851388888888888:521.65083333333337] [0.93673644862176841:322.32901563701631] [17.508571428571429:420.76755952380955] [2.823271418003074:233.30853092118937] [27.165773809523809:364.74846143892336] [6.3079273066852917:195.26238333156564] [40.605972222222221:325.456065821256] [13.41490364273427:181.14645426343199] [14.854166666666666:33.404166666666669] [14.854166666666666:33.404166666666669] [14.854166666666666:33.404166666666669] [15.222222222222221:32.720833333333339] [0.0041666665927719351:3.9126582620932315] [16.284523809523812:32.294047619047618] [0.058070553238130297:3.2939670734066908] [19.666666666666668:89.916666666666671] [19.666666666666668:89.916666666666671] [19.666666666666668:89.916666666666671] [24.958333333333325:87.861111111111086] [0:28.236671306680005] [33.678571428571431:87.208333333333329] [0:23.855888636121843] [-20.75033541925556:24.207842000746769] [-20.75033541925556:24.207842000746769] [-20.75033541925556:24.207842000746769] [-16.266592414656426:15.737500711044232] [0.036082192266460665:16.862732605415268] [-13.344778704165803:10.570833555407972] [0.43440262356431947:14.190189193664683] [-31.955843386774617:32.357982578309056] [-31.955843386774617:32.357982578309056] [-31.955843386774617:32.357982578309056] [-29.027156770813885:29.070768265891612] [0.090583250003572174:24.163855168486474] [-27.889031488706546:11.074328785516053] [1.1945871489871005:27.118552654428154] [-296.13176417042041:436.92353799060487]
tree_sizes=1955 2006 2009 2078 1759 2090 2318 1909 2092 1999 2240 2246 2095 2079 2172 2094 2100 2012 2179 2413 2175 2175 1931 2253 2179 2331 2259 2358 2103 2434 2333 2184 2357 2280 2181 2356 2600 2270 2425 2441 2523 2359 2283 2436 2201 2278 2441 2445 2528 2369 2438

Tree=0
num_leaves=23
num_cat=0
split_feature=35 35 0 12 24 34 53 52 56 1 28 3 36 91 101 35 67 12 77 100 86 11
split_gain=2.6912e+06 368607 108567 52495.4 51062 44508.4 40506.3 53499 46386.2 35918.5 28367 27827.6 23150.5 19609.3 14660.1 7690.61 7037 6686.82 4924.57 2293.3 991.582 431.579
threshold=0.25951179706979971 0.70252747416915695 33.559791666666676 29.250000000000004 -5.2550396339105463 -0.96683886033945943 136.7864764492754 352.57645833333339 312.23729166666675 95.217373188405816 66.398810801144506 15.724166666666669 136.55865210945302 47.80555555555555 2.7859917865987316 -0.21772323039653199 29.855238095238096 33.550000000000004 104.07171907349898 -4.62560119673795 30.731845238095239 25.650000000000002
decision_type=2 2 2 2 2 2 10 10 10 2 2 2 2 2 2 2 2 2 10 2 2 2
left_child=2 9 10 4 -3 -4 -6 8 13 12 17 14 -2 -8 -11 20 -7 19 -18 -1 -12 -21
right_child=1 3 5 -5 6 16 7 -9 -10 11 15 -13 -14 -15 -16 -17 18 -19 -20 21 -22 -23
leaf_value=128.40424254154158 131.51937985714497 132.56978739181764 131.20018684257508 132.56100917618537 132.82205890601912 129.18861295803609 135.17114577533169 132.90066820793146 136.22077839818675 133.03563903094692 129.00816105288371 131.19417225842588 130.29433473704327 133.67636892020712 131.88725159527667 129.68732206448141 130.28624083792815 129.27940349162208 129.64638719674173 129.10129611702982 129.43717462643207 128.63336024197164
leaf_weight=103 29 25 22 37 21 20 20 20 20 20 84 28 25 37 28 32 20 21 29 29 23 44
leaf_count=103 29 25 22 37 21 20 20 20 20 20 84 28 25 37 28 32 20 21 29 29 23 44
internal_value=130.657 132.781 129.114 133.657 133.926 130.042 134.195 134.467 134.84 131.554 128.865 131.97 130.955 134.269 132.404 129.218 129.671 128.624 129.894 128.555 129.088 128.795
internal_weight=737 310 427 180 143 91 118 97 77 130 336 76 54 57 48 139 69 197 49 176 107 73
internal_count=737 310 427 180 143 91 118 97 77 130 336 76 54 57 48 139 69 197 49 176 107 73
is_linear=0
shrinkage=1


Tree=1
num_leaves=23
num_cat=0
split_feature=35 35 57 34 62 10 103 11 42 28 29 53 7 54 107 25 109 73 35 83 93 10
split_gain=2.36814e+06 307805 161344 95263.9 55156.8 71169.3 59696.6 39531.4 52212.1 31873.9 20515.8 19511.6 18123.8 17218.1 12266.7 8117.34 7463.46 7274.84 6457.49 3751.36 3512.11 3330.25
threshold=0.25951179706979971 0.73246693938583607 93.733218298650684 -0.96683886033945943 88.620019033467443 22.581250000000004 1.3501199335879359 23.250000000000004 170.76447356866882 66.398810801144506 3.5000000000000004 183.67812499999999 32.145416666666669 173.40520833333338 7.2188603971354111 6.6000000000000005 4.2248479971387676 110.18888888888891 -0.18399835165767994 30.387500000000003 72.830357142857153 30.664583333333336
decision_type=2 2 2 2 10 2 10 2 10 2 2 10 2 10 2 2 2 2 2 8 2 2
left_child=2 7 9 -4 5 6 -3 8 10 15 -2 -7 -6 -10 -8 19 20 -9 21 -1 -5 -11
right_child=1 4 3 16 12 11 14 17 13 18 -12 -13 -14 -15 -16 -17 -18 -19 -20 -21 -22 -23
leaf_value=-2.2145096815701186 2.5803343359947202 4.6898825613657626 1.1676030612450379 -0.86406978470938545 1.1130389083515515 1.4016819643974305 2.2099687065124511 -0.18098477160930634 1.128873896923932 -1.6412575350156644 1.2172494198964989 2.7832386276938696 2.4610583904811314 -0.031759821510314937 3.4613434514589607 -1.4687904510498047 -0.57429719257168466 0.57804544006075176 -0.9361340270723616 -1.5824076996678891 -1.5278312553678239 -1.1298462804158527
leaf_weight=144 24 35 25 20 21 23 24 24 21 81 22 21 20 24 23 29 31 20 27 22 20 26
leaf_count=144 24 35 25 20 21 23 24 24 21 81 22 21 20 24 23 29 31 20 27 22 20 26
internal_value=-0.0394985 1.98798 -1.48149 -0.394327 2.84642 3.16558 3.70069 0.912946 1.26681 -1.79656 1.96819 2.10826 1.81355 0.522635 2.8817 -2.04879 -0.952881 0.169207 -1.41704 -2.14071 -1.22512 -1.5286
internal_weight=727 302 425 96 167 126 82 135 91 329 46 44 41 45 47 195 71 44 134 166 40 107
internal_count=727 302 425 96 167 126 82 135 91 329 46 44 41 45 47 195 71 44 134 166 40 107
is_linear=0
shrinkage=0.03


Tree=2
num_leaves=23
num_cat=0
split_feature=35 35 65 34 53 4 42 77 64 71 28 87 36 56 3 107 85 36 83 35 86 68
split_gain=2.38186e+06 324967 130842 61432.6 61388.6 47810.1 44534.3 34297.3 55235.6 47939.7 23344.5 20230.7 19918.5 21462.9 13880.1 9027.38 8976.81 6154.48 5728.31 5431.17 2731.27 449.738
threshold=0.25951179706979971 0.68389408864483059 34.830347222222194 -0.96683886033945943 141.41937500000003 54.990833333333335 305.5548423423424 274.20060817805387 57.963146866239363 177.57273762077298 66.398810801144506 0.49222551608963383 132.79870184254608 138.67395833333336 16.201875000000005 -10.218467446919391 0.44925344576126502 121.54542504187607 30.506250000000005 -0.21772323039653199 30.731845238095239 6.0226104270736247
decision_type=2 2 2 2 10 2 10 10 10 10 2 2 2 10 2 2 2 2 8 2 2 2
left_child=2 5 10 -4 -3 12 7 8 11 -10 16 -6 15 -14 -7 -2 18 -5 -1 20 21 -12
right_child=1 4 3 17 6 14 -8 -9 9 -11 19 -13 13 -15 -16 -17 -18 -19 -20 -21 -22 -23
leaf_value=-2.1282767621784995 1.3140148285457067 1.6548508519392748 0.94347435122274836 -0.60708645502726233 2.9286634078392617 2.1020707257270814 4.448984366330234 1.7616348920549665 4.9851917266845698 2.7822607612609862 -1.4659281026163407 1.5726415580749511 0.67610091413770401 -0.61343799687348877 0.95420929227556506 0.39477887630462649 -1.3349150678846571 -1.2691623637080192 -1.4151573446818759 -0.96100287437438958 -1.1659985013161935 -1.8281261603037515
leaf_weight=145 20 38 22 35 25 24 21 27 21 25 61 24 20 25 20 20 26 23 20 26 30 35
leaf_count=145 20 38 22 35 25 24 21 27 21 25 61 24 20 25 20 20 26 23 20 26 30 35
internal_value=-0.0135656 1.98052 -1.47617 -0.377964 2.7979 0.82095 3.08804 2.81951 3.09869 3.87262 -1.73047 2.30923 0.3969 -0.0380711 1.61311 0.875236 -1.96088 -0.886695 -2.05088 -1.43002 -1.51847 -1.61546
internal_weight=733 310 423 80 181 129 143 122 95 46 343 49 85 45 44 40 191 58 165 152 126 96
internal_count=733 310 423 80 181 129 143 122 95 46 343 49 85 45 44 40 191 58 165 152 126 96
is_linear=0
shrinkage=0.03


Tree=3
num_leaves=24
num_cat=0
split_feature=35 35 65 53 100 49 106 101 5 94 28 15 53 56 35 77 25 74 86 83 68 62 62
split_gain=2.38544e+06 247477 240461 65452.6 53019.3 47117.8 51583.9 42942.2 38323.4 37062.9 32689.4 26109.4 25624.8 23427 17803.2 12524.8 7371.7 6208.25 4589.23 4382.34 2254.75 861.993 960.011
threshold=0.41326329957804331 0.72660752476856549 34.830347222222194 136.7864764492754 -0.80782297539733261 255.09625000000003 6.0674551939425578 3.7579628243996885 53.324375000000011 8.4192801788252307 66.398810801144506 1014.49375 260.78020833333341 132.08145833333336 -0.21772323039653199 237.99338444616981 6.6000000000000005 30.299007472120469 30.826190476190479 30.387500000000003 8.8290793250374549 17.375745244105897 13.842719909968922
decision_type=2 2 2 10 2 10 2 2 2 2 2 2 10 10 2 10 2 2 2 8 2 8 10
left_child=2 8 10 -3 17 6 9 -6 -2 -5 16 13 -8 -10 18 -11 19 -4 21 20 -1 22 -12
right_child=1 3 4 5 7 -7 12 -9 11 15 14 -13 -14 -15 -16 -17 -18 -19 -20 -21 -22 -23 -24
leaf_value=-2.1396026710702594 2.1068873941898345 1.6558830541722913 -0.46154082775115962 2.2904409366183809 -0.18329490700834675 4.4063009252219363 2.6937863622392926 1.3397855852842331 0.85347418695688249 4.6313153873790398 -1.5559697914123534 1.5350943827629089 1.0978371919904435 -0.40499295784079509 -0.65570751122065951 3.1991105756759644 -1.3603748407671528 -1.1266825777292251 -1.016404987970988 -1.43258711255115 -1.5590602970123291 -1.7167687126306386 -1.1114550392444316
leaf_weight=118 23 33 32 26 37 28 20 29 31 21 28 23 20 22 34 29 30 23 26 22 21 51 25
leaf_count=118 23 33 32 26 37 28 20 29 31 21 28 23 20 22 34 29 30 23 26 22 21 51 25
internal_value=0.0558476 2.27009 -1.23011 2.94051 -0.0741219 3.22146 2.90024 0.495946 1.05404 3.37278 -1.62281 0.71219 1.94205 0.333265 -1.29506 3.87965 -1.89601 -0.754843 -1.456 -1.9868 -2.06366 -1.55517 -1.37076
internal_weight=752 276 476 177 121 144 116 66 99 76 355 76 40 53 164 50 191 55 130 161 139 104 53
internal_count=752 276 476 177 121 144 116 66 99 76 355 76 40 53 164 50 191 55 130 161 139 104 53
is_linear=0
shrinkage=0.03


Tree=4
num_leaves=20
num_cat=0
split_feature=35 35 65 53 100 101 108 94 106 5 7 80 40 1 56 77 63 15 80
split_gain=2.04821e+06 225447 224765 61343.3 52870.9 49581.1 42364.5 55066.6 40043.2 37752.4 27828.4 19873.9 18907.1 16396.3 16314.6 7333.78 4124.57 1514.63 601.137
threshold=0.41326329957804331 0.70252747416915695 34.830347222222194 136.7864764492754 -0.66882256166639364 3.8058984668961409 8.7872838951800105 12.337020066547804 2.3487216035441185 57.87583333333334 2.388958333333334 34.630526788401063 233.49810435435438 90.24812500000003 132.08145833333336 110.56028273809524 95.719712024831495 999.81875000000014 21.147610331973706
decision_type=2 2 2 10 2 2 2 2 2 2 2 10 10 2 10 10 8 2 10
left_child=2 9 10 -3 15 -6 7 8 -5 -2 13 -12 -10 16 -11 -4 18 -15 -1
right_child=1 3 4 6 5 -7 -8 -9 12 14 11 -13 -14 17 -16 -17 -18 -19 -20
leaf_value=-1.4575988493646894 1.6772545498609541 1.4751672450701394 -0.40431336801499129 3.843903034329414 -0.2782274247209231 1.3628338003615217 1.6781796489715575 4.2792333210215849 2.7269187465080851 0.8451063062162959 -1.529887729252086 -0.4904657232761383 1.5621810885838101 -0.88436512981142312 -0.11984457874298095 -1.0895002343736844 -1.3734736670217207 -1.3450749021417954 -1.9222629036441927
leaf_weight=20 31 35 31 23 35 30 24 33 38 33 33 35 27 20 29 28 30 33 185
leaf_count=20 31 35 31 23 35 30 24 33 38 33 33 35 27 20 29 28 30 33 185
internal_value=-0.0202888 2.05003 -1.1996 2.66795 -0.098415 0.488358 2.94379 3.179 2.72297 0.838409 -1.58181 -1.00975 2.2741 -1.71291 0.39902 -0.742226 -1.82512 -1.19082 -1.88423
internal_weight=753 273 480 180 124 65 145 121 88 93 356 68 65 288 62 59 235 53 205
internal_count=753 273 480 180 124 65 145 121 88 93 356 68 65 288 62 59 235 53 205
is_linear=0
shrinkage=0.03


Tree=5
num_leaves=24
num_cat=0
split_feature=28 65 12 97 58 107 30 28 25 72 70 30 94 64 53 24 6 85 15 94 12 42 25
split_gain=1.90315e+06 261530 195081 51244.1 51140.8 57354.2 47104.1 35729.1 34422.6 30949.3 63225 26642.7 20342.2 19905.9 18074.4 12093.1 11432.5 8786.15 2637.33 2280.95 2908.25 2063.21 1202.63
threshold=154.82495170354761 34.233888888888856 29.050000000000004 1.0747052828156303 16.129558145724804 -0.77086440745185814 309.50000000000006 66.398810801144506 7.8500000000000005 70.498195551636286 106.49853991236435 282.50000000000006 10.475220237335479 29.369569325561681 172.8391666666667 -11.528409051544918 4.3529166666666681 0.44925344576126502 1001.0354166666668 2.8794465609985456 30.450000000000003 61.974615522174545 6.3000000000000034
decision_type=2 2 2 10 2 2 2 2 2 10 10 2 2 10 10 2 2 2 2 2 2 10 2
left_child=1 7 4 11 -2 -6 12 17 -5 -7 -11 15 -4 19 -8 -3 -15 18 -1 20 -9 -22 -20
right_child=2 3 6 8 5 9 14 13 -10 10 -12 -13 -14 16 -16 -17 -18 -19 22 -21 21 -23 -24
leaf_value=-1.4087246976448939 4.2929986136300222 -0.45197379121413594 -0.01482261538505554 1.7032119486161641 1.5428710513114929 2.1262341356277465 1.2008749089922224 -1.4455334281921386 0.15328996477808271 4.2656980247497556 2.0115738734331998 0.31580209016799926 1.081685460805893 -1.0297306700186297 2.4151248229980466 -1.3695106533595494 -0.036784173420497349 -1.1780633435930523 -1.9806466968416228 -1.5451137931823731 -0.68522680623190746 -1.1931008070165461 -1.4674017306736535
leaf_weight=25 20 38 29 20 39 32 27 29 34 34 21 29 31 21 24 20 20 27 126 49 20 21 20
leaf_count=25 20 38 29 20 39 32 27 29 34 34 21 29 31 21 24 20 20 27 126 49 20 21 20
internal_value=0.0149578 -1.06487 2.10759 0.029718 2.82713 2.56248 1.14439 -1.49486 0.747865 2.99682 3.45632 -0.419462 0.560152 -1.14712 1.80774 -0.786215 -0.557775 -1.76869 -1.85456 -1.34383 -1.18315 -0.967571 -1.9208
internal_weight=756 499 257 141 146 126 111 358 54 87 55 87 60 160 51 58 41 198 171 119 70 41 146
internal_count=756 499 257 141 146 126 111 358 54 87 55 87 60 160 51 58 41 198 171 119 70 41 146
is_linear=0
shrinkage=0.03


Tree=6
num_leaves=27
num_cat=0
split_feature=35 35 65 63 9 23 92 60 28 25 58 12 41 0 39 51 48 85 92 53 72 86 38 25 35 24
split_gain=1.77107e+06 263542 109004 58332.1 46602.2 40374.8 35165.9 34541 29528.1 23497.7 19298.2 32199.2 15924.8 17119.3 12865.9 12487.9 8299.02 6403.14 6127.57 2623.23 2463.16 1288.74 854.638 850.754 800.964 428.395
threshold=0.25951179706979971 0.7987497853924842 34.233888888888856 82.178820926467282 49.990480625000011 2.4698838409242962 7.0539979050009665 51.629878489952752 66.398810801144506 10.050000000000002 48.874364583866978 30.050000000000004 174.1466697400773 111.98625000000001 52.614493919885554 131.26937500000003 218.09062500000002 0.44925344576126502 3.2993492833533504 26.976041666666671 11.92218348053161 30.636309523809526 75.480135205472138 6.200000000000002 -0.8520459593969173 -17.489966638291786
decision_type=2 2 2 10 2 2 2 2 2 2 2 2 10 2 10 10 10 2 2 10 8 2 10 2 2 2
left_child=2 5 8 -4 6 10 -3 -6 17 -9 11 -2 13 -7 -10 -13 -11 19 -5 -1 21 25 -22 24 -21 -16
right_child=1 4 3 18 7 12 -8 9 14 16 -12 15 -14 -15 20 -17 -18 -19 -20 23 22 -23 -24 -25 -26 -27
leaf_value=-1.3206436899730138 1.4861064722388981 2.5489731699228284 0.98574853107333182 -0.34983014247634198 1.99201267176661 1.1350234379087174 0.8111219384453513 2.3599813158615777 -0.43256601061139788 3.1171317312452529 -0.22040915350914 -0.10021915424953808 0.84141117307874891 2.4708755738394599 -1.320651307356985 0.83857956894806451 4.4365248870849605 -1.1935930054004373 -1.0187664414445559 -1.5956986390460621 -1.2358100200653077 -1.0936927689038791 -0.8633736908024755 -1.4431318664550781 -2.0166702874816291 -1.7481058402683423
leaf_weight=20 31 23 23 21 28 20 21 22 20 26 24 32 26 20 37 20 22 25 35 32 24 25 28 20 100 22
leaf_count=20 31 23 23 21 28 20 21 22 20 26 24 32 26 20 37 20 22 25 35 32 24 25 28 20 100 22
internal_value=-0.0239463 1.68374 -1.27014 -0.258924 2.63826 0.889598 1.756 3.01263 -1.49508 3.38707 0.521742 0.736409 1.46928 1.84692 -1.17098 0.269867 3.80005 -1.74452 -0.778454 -1.81723 -1.27562 -1.39797 -1.05534 -1.87351 -1.92738 -1.50652
internal_weight=747 315 432 79 142 173 44 98 353 70 107 83 66 40 156 52 48 197 56 172 136 84 52 152 132 59
internal_count=747 315 432 79 142 173 44 98 353 70 107 83 66 40 156 52 48 197 56 172 136 84 52 152 132 59
is_linear=0
shrinkage=0.03


Tree=7
num_leaves=22
num_cat=0
split_feature=35 35 57 30 12 38 45 24 40 60 108 28 36 109 23 90 107 68 50 10 0
split_gain=1.68904e+06 249602 102834 71976.3 69913.4 57306.5 41976.5 27794.5 27038.8 24322.1 23971 15967.9 14172.3 7761.41 6699.11 3771.76 3359.3 2639.58 3445.92 2497.82 45.879
threshold=0.25118075958286767 0.68389408864483059 93.733218298650684 264.50000000000006 29.250000000000004 175.0261569195645 208.62520833333335 -8.9488981356790429 193.37383429926243 79.537945590820144 5.1841850444708966 69.521707119478052 136.55865210945302 4.2248479971387676 -0.97337062021384291 74.479166666666671 -15.4382899807327 8.5131335304882629 71.287708333333356 30.691666666666666 15.365
decision_type=2 2 2 2 2 10 10 2 10 2 2 2 2 2 2 10 2 2 2 2 2
left_child=2 7 11 13 5 -3 8 12 -7 -8 -9 14 -2 15 16 -4 20 18 -13 -20 -1
right_child=1 4 3 -5 -6 6 9 10 -10 -11 -12 17 -14 -15 -16 -17 -18 -19 19 -21 -22
leaf_value=-1.903903115301421 0.66570702783523072 1.5323385262829916 -0.76256619691848759 1.027142567539215 1.2015804860517381 2.5526292644847524 2.9147648262977599 1.734064893722534 4.2150202854701453 1.5203619106292723 0.57168707764148707 -0.76471104457460592 -0.21650663913999282 -0.44025194687502722 -1.0916882562637329 -1.4259786462783812 -1.3168534511923791 -1.5173732716696602 -1.3801815267042681 -0.89026798963546749 -1.5991138354214753
leaf_weight=98 30 34 20 24 39 21 31 28 34 24 39 28 34 27 23 20 29 27 43 23 54
leaf_count=98 30 34 20 24 39 21 31 28 34 24 39 28 34 27 23 20 29 27 43 23 54
internal_value=0.00186796 1.65992 -1.25062 -0.354434 2.37315 2.67998 3.0177 0.653141 3.63721 2.34431 1.07581 -1.4997 0.200911 -0.857154 -1.66899 -1.12096 -1.73595 -1.20293 -1.09759 -1.22529 -1.80678
internal_weight=730 314 416 91 183 144 110 131 55 55 67 325 64 67 204 40 181 121 94 66 152
internal_count=730 314 416 91 183 144 110 131 55 55 67 325 64 67 204 40 181 121 94 66 152
is_linear=0
shrinkage=0.03


Tree=8
num_leaves=24
num_cat=0
split_feature=35 35 65 91 34 97 53 93 85 15 19 28 35 13 42 93 25 92 35 16 53 87 15
split_gain=1.63149e+06 168114 146610 67179.5 54441.3 51758.7 34727.1 34727.4 29971.3 28581.2 24310 23967 12579.6 11967.1 10228.2 9419.61 8020.39 5939.41 4403.56 2023.43 543.147 533.514 221.38
threshold=0.3896304495307879 0.70252747416915695 35.55173611111109 47.347222222222207 0.44437406304545285 1.9291384657728623 183.67812499999999 54.244047619047628 0.65887808532130832 1013.7937500000002 22.854166666666668 66.398810801144506 -0.21772323039653199 65.500000000000014 158.30772523709172 71.127976190476204 6.2999999999999998 3.2993492833533504 -0.92910699518418138 21.864583333333339 26.976041666666671 0.45334577446112223 1000.0062500000001
decision_type=2 2 2 2 2 10 10 2 2 2 2 2 2 2 10 2 2 2 2 2 10 2 2
left_child=2 9 11 8 6 13 -5 -8 -3 10 15 16 19 -4 -11 -2 18 -15 -1 21 -20 -13 -21
right_child=1 3 5 4 -6 -7 7 -9 -10 14 -12 12 -14 17 -16 -17 -18 -19 20 22 -22 -23 -24
leaf_value=-1.2096167765964161 1.2441251822880335 3.7201801271226844 0.035357551885687781 1.3772232981289134 0.67068529639925278 0.88548247385409573 1.6581754657745362 3.2502495629536479 2.0929038366404447 1.8843347508566721 -0.44294180932370097 -1.2083204655647277 -0.61615734665017374 -0.37418968755265936 0.85491230896541048 0.32430958514863795 -1.1821133221112763 -1.0253756187359491 -1.4128196961539132 -0.84602815968649725 -1.8719897753050345 -1.5620387216516443 -1.1738057327270508
leaf_weight=21 20 37 22 33 27 30 24 37 21 20 21 39 37 22 20 21 38 35 20 20 118 36 27
leaf_count=21 20 37 22 33 27 30 24 37 21 20 21 39 37 22 20 21 38 35 20 20 118 36 27
internal_value=-0.0315419 1.76958 -1.12142 2.32211 1.88991 -0.156879 2.22936 2.66071 3.17645 0.786805 0.373281 -1.41548 -1.1261 -0.558833 1.40303 0.791939 -1.64217 -0.784826 -1.74405 -1.27448 -1.81609 -1.39642 -1.05486
internal_weight=746 281 465 179 121 109 94 61 58 102 62 356 159 79 40 41 197 57 159 122 138 75 47
internal_count=746 281 465 179 121 109 94 61 58 102 62 356 159 79 40 41 197 57 159 122 138 75 47
is_linear=0
shrinkage=0.03


Tree=9
num_leaves=23
num_cat=0
split_feature=35 35 65 97 13 52 64 80 56 63 7 48 5 49 94 1 64 9 83 11 24 15
split_gain=1.58586e+06 168246 163429 50532.4 49547.4 46256.3 68703.8 41624.7 37250.9 31310.9 23757.6 23667.9 20907.4 17181.2 15984.3 12820.1 5378.41 4658.05 4305.23 4427.24 3498.83 1306.32
threshold=0.42110087079608943 0.70252747416915695 34.830347222222194 1.9291384657728623 74.854166666666671 388.95520833333336 57.963146866239363 151.6246966834498 173.9135416666667 232.43692832897946 2.388958333333334 15.235416666666667 59.640208333333341 107.31875000000001 7.7973801497882862 93.216250000000016 29.369569325561681 57.03281375000001 30.585416666666671 25.150000000000002 -12.414510541285885 999.81875000000014
decision_type=2 2 2 10 2 10 10 10 10 10 2 8 2 10 2 2 10 2 8 2 2 2
left_child=2 8 10 14 5 6 13 9 12 -8 15 -12 -2 -3 20 18 -13 -11 19 -1 -4 -17
right_child=1 4 3 -5 -6 -7 7 -9 -10 17 11 16 -14 -15 -16 21 -18 -19 -20 -21 -22 -23
leaf_value=-1.1918822756121235 1.8061481793721517 2.5800099461419244 -0.50812243487523945 0.83172009073770958 1.0376146030426026 1.1635861253738404 4.7706445834947671 2.051961963073067 -0.21523779144287108 3.5750672285897389 0.01799059737812389 -1.5136437320709228 0.68257250281480641 1.366255126432939 0.029410963549333459 -0.75976535633854236 -0.80065642386674873 2.4425975281851633 -1.1176840378556934 -1.6936168060191843 -1.0622822586695353 -1.1614318362149325
leaf_weight=30 26 20 22 38 23 20 22 22 24 20 21 24 38 32 33 22 23 20 27 171 26 32
leaf_count=30 26 20 22 38 23 20 22 22 24 20 21 24 38 32 33 22 23 20 27 171 26 32
internal_value=0.0311548 1.87276 -1.01902 -0.0577615 2.39942 2.59231 2.79239 3.33283 0.786577 3.74755 -1.34475 -0.821175 1.15979 1.87296 -0.480103 -1.46766 -1.18868 3.08222 -1.57007 -1.625 -0.823846 -1.01458
internal_weight=736 267 469 119 179 156 136 84 88 62 350 68 64 52 81 282 47 40 228 201 48 54
internal_count=736 267 469 119 179 156 136 84 88 62 350 68 64 52 81 282 47 40 228 201 48 54
is_linear=0
shrinkage=0.03


Tree=10
num_leaves=26
num_cat=0
split_feature=35 57 35 88 93 53 104 91 10 53 55 15 19 102 28 70 109 79 65 56 53 31 10 25 16
split_gain=1.55567e+06 148949 125871 61401.2 45498.2 33216.3 46216.9 31622.6 31363 29810.9 36803.8 29455.9 24072.3 18580.2 16523.8 11262.8 7734.4 7563.26 6876.32 3527.38 2565.82 2521 2570.17 1704.27 352.389
threshold=0.42110087079608943 93.733218298650684 0.70252747416915695 79.229166666666671 68.300595238095255 136.7864764492754 -2.2478949247214119 68.229166666666657 22.581250000000004 316.65250000000009 243.516875 1013.7937500000002 22.145833333333339 -1.3636309420365891 66.398810801144506 46.671257066969922 4.2248479971387676 104.55620138888889 18.816736111111094 90.96663043478263 26.556250000000002 4.5000000000000009 30.691666666666666 6.4000000000000012 19.647916666666671
decision_type=2 2 2 2 2 10 10 2 2 10 10 2 2 2 2 10 2 8 2 10 10 2 2 2 2
left_child=1 14 11 7 5 -4 13 15 9 10 -8 12 -2 -7 17 -3 19 20 -16 -9 -1 -20 24 -22 -23
right_child=2 3 4 -5 -6 6 8 16 -10 -11 -12 -13 -14 -15 18 -17 -18 -19 21 -21 23 22 -24 -25 -26
leaf_value=-1.1501753269542347 0.88374032040437056 0.7105818489619663 1.3486538549554017 1.3170130055291311 0.90857120555380111 2.5669968379627575 1.9532570192548964 -1.3518882296302102 1.1791685565948486 1.4102391529083251 3.6869483246122088 1.5634884227405894 -0.39939614474773405 4.1562773124031391 -0.53236982209341865 -0.2524417177490566 -0.40555595284700391 -0.90172974450247623 -0.8531184275396938 -0.75438223063945764 -1.7126779332000819 -1.5259455184936523 -0.92214235888587104 -1.2712278281725369 -1.176845630009969
leaf_weight=21 35 20 26 20 22 21 26 21 24 20 27 32 20 22 20 22 29 20 28 25 133 34 26 25 35
leaf_count=21 35 20 26 20 22 21 26 21 24 20 27 32 20 22 20 22 29 20 28 25 133 34 26 25 35
internal_value=0.0150145 -1.01694 1.80967 -0.179339 2.24575 2.41646 2.60379 -0.444119 2.19456 2.50794 2.88838 0.852528 0.418345 3.4561 -1.35097 0.212001 -0.809502 -1.53395 -1.08745 -1.05012 -1.59919 -1.17268 -1.257 -1.65126 -1.36821
internal_weight=754 479 275 137 188 166 140 117 97 73 53 87 55 43 342 42 75 199 143 46 179 123 95 158 69
internal_count=754 479 275 137 188 166 140 117 97 73 53 87 55 43 342 42 75 199 143 46 179 123 95 158 69
is_linear=0
shrinkage=0.03


Tree=11
num_leaves=26
num_cat=0
split_feature=35 35 65 25 106 34 9 85 25 4 57 42 28 19 3 96 74 65 85 68 109 39 95 82 72
split_gain=1.46766e+06 202473 79840.5 56156.5 50577.9 48984 48132.4 35362 33155.4 24084.8 17028.3 15926.5 15072.4 14757.4 13942.7 11132.2 7885.9 5858.73 5241.79 4018.03 3931.3 3266.03 1326.4 770.885 125.545
threshold=0.25951179706979971 0.68389408864483059 34.830347222222194 10.350000000000001 2.547007250374691 -0.96683886033945943 47.828503125000005 0.39942957093153725 11.250000000000002 54.990833333333335 123.23279084281013 174.07782534246579 66.398810801144506 3.6041666666666674 16.201875000000005 5.6431452010480472 17.535895831869471 18.816736111111094 0.44925344576126502 7.3959121958962131 10.358085612924663 69.284053030303042 -8.7229381209637769 29.631250000000005 18.041204019313522
decision_type=2 2 2 2 2 2 2 2 2 2 2 10 2 2 2 10 2 2 2 2 2 10 2 10 10
left_child=2 9 12 7 -5 -4 -6 -3 -8 10 -2 -12 18 -9 -11 -10 -7 -14 19 23 22 -22 -19 -1 -24
right_child=1 3 5 4 6 16 8 13 15 14 11 -13 17 -15 -16 -17 -18 20 -20 -21 21 -23 24 -25 -26
leaf_value=-1.7282202370633784 0.93545845105097836 2.2884779902299242 0.85760468959808345 4.0440856797354563 0.93111185661384033 -0.26399450210125547 3.6003639759063719 0.35595526910253933 1.4832063596209755 1.6994750957903655 0.38662016347050665 -0.65296197942325052 -0.56355892831628973 1.4383249467816845 0.57299484048570903 2.6088755113428288 -0.99690024723877779 -1.0192311231749398 -1.0174520119811807 -1.1752741646085465 -1.1342240051601242 -0.57483039379119871 -1.4617455606875212 -1.3803896746268638 -1.0936823654174805
leaf_weight=96 25 35 24 20 20 22 24 20 22 22 35 20 21 28 20 21 36 34 27 34 22 23 45 38 20
leaf_count=96 25 35 24 20 20 22 24 20 22 22 35 20 21 28 20 21 36 34 27 34 22 23 45 38 20
internal_value=0.00323555 1.57578 -1.10784 2.18622 2.64812 -0.259242 2.2849 1.56633 2.66938 0.615031 0.302815 0.00368079 -1.29988 1.00381 1.18886 2.07975 -0.728088 -1.07327 -1.48518 -1.55389 -1.1432 -0.867024 -1.25881 -1.64054 -1.36678
internal_weight=754 312 442 190 107 82 87 83 67 122 80 55 360 48 42 43 58 165 195 168 144 45 99 134 65
internal_count=754 312 442 190 107 82 87 83 67 122 80 55 360 48 42 43 58 165 195 168 144 45 99 134 65
is_linear=0
shrinkage=0.03


Tree=12
num_leaves=24
num_cat=0
split_feature=35 35 57 53 42 56 78 82 94 59 15 98 103 28 34 109 71 41 68 12 71 15 76
split_gain=1.35213e+06 128538 117932 46982.4 46620.4 37860.3 37200.7 41964.6 31167.5 25147.1 20900.1 17993.3 17732.2 15772.5 12408.2 9412.63 7416.47 5891.4 2246.26 1369.99 1207.24 844.46 1008.32
threshold=0.41326329957804331 0.70860043010605911 93.733218298650684 136.7864764492754 305.5548423423424 271.12854166666676 135.26058789268609 21.650000000000002 8.3059296403843152 143.87687072746178 1013.8729166666668 0.9207820576171627 -6.172903217773233 65.655749284692448 -0.94697898371965705 4.2248479971387676 30.990131944444446 53.727137640713295 8.8290793250374549 32.850000000000001 34.796798611111122 999.7104166666669 19.514823534024512
decision_type=2 2 2 10 10 10 10 10 2 2 2 2 10 2 2 2 8 8 2 2 8 2 2
left_child=2 11 13 -3 5 6 7 -5 14 -10 -9 -2 -13 16 -4 -16 18 -15 19 -1 21 -19 -23
right_child=1 3 8 4 -6 -7 -8 10 9 -11 -12 12 -14 17 15 -17 -18 20 -20 -21 -22 22 -24
leaf_value=-1.6637146886619361 0.24521688656508925 1.0581257833271998 0.08910469736371722 3.4288230256239571 3.5716109388608199 0.86986764127557925 1.1489013498762379 2.5705622951801006 1.1082532380456509 -0.22405632832954669 1.2251513886451721 1.6665406806652363 0.53862387465579165 -0.62180477164685721 -1.0908229265113671 -0.36042231898347382 -0.84118396137441898 -0.92769333711037272 -1.1669960164818272 -1.2541154398236956 -0.85317062192493009 -1.0554972487858363 -1.4270469150027711
leaf_weight=110 39 33 20 35 25 21 22 25 22 28 23 25 27 31 35 31 20 25 28 27 26 34 36
leaf_count=110 39 33 20 35 25 21 22 25 22 28 23 25 27 31 35 31 20 25 28 27 26 34 36
internal_value=0.00569356 1.67499 -0.966311 2.13014 2.35592 2.08849 2.3217 2.61519 -0.218538 0.372396 1.96405 0.741524 1.1021 -1.26654 -0.562436 -0.758256 -1.45858 -1.02481 -1.52789 -1.59266 -1.12212 -1.18607 -1.26399
internal_weight=748 275 473 184 151 126 105 83 136 50 48 91 52 337 86 66 185 152 165 137 121 95 70
internal_count=748 275 473 184 151 126 105 83 136 50 48 91 52 337 86 66 185 152 165 137 121 95 70
is_linear=0
shrinkage=0.03


Tree=13
num_leaves=24
num_cat=0
split_feature=35 35 57 88 9 92 15 76 1 48 105 107 13 33 28 23 96 85 0 10 68 24 0
split_gain=1.33818e+06 134486 123193 53210.1 52115.9 34715.1 32318 37878.8 39473.2 30996.8 32004 46370.8 25296.9 16477.9 12479.5 7658.81 5208.08 4855.08 3921.09 2727.61 2096.35 274.144 176.353
threshold=0.3896304495307879 0.81898454963288581 93.733218298650684 79.229166666666671 51.948221875000009 7.9865682456267431 1013.2333333333335 77.951322905047547 134.90687500000001 255.09625000000003 1.1493576960729432 4.6929504638594564 66.937500000000014 43.500000000000007 69.521707119478052 -0.91164879311920333 -3.9916066017726286 0.56199562811038717 21.988541666666674 30.758333333333336 7.2727045731122377 -18.329628822222926 15.365
decision_type=2 2 2 2 2 2 2 2 2 10 2 2 2 2 2 2 10 2 2 2 2 2 2
left_child=2 6 14 12 5 -3 13 8 -8 10 -6 -12 -4 -2 15 20 -14 -18 -16 21 22 -20 -1
right_child=1 4 3 -5 9 -7 7 -9 -10 -11 11 -13 16 -15 18 -17 17 -19 19 -21 -22 -23 -24
leaf_value=-1.6296820428967476 -0.071000246107578269 2.2073552532379446 0.22972474883000055 1.2205873005730763 3.4045997923070734 0.55462396992289498 0.77741179474762512 0.38869463801383969 2.5303529047966005 3.8606587125573832 0.82005393131919535 2.6858543338775638 -1.0664959761192059 0.89065840739470259 -0.56735015596662253 -0.85884080203043089 -0.82046674787998197 -0.19202792426814205 -0.97467590793486569 -0.73359135932922359 -1.2083601011113916 -1.2621795059652889 -1.3503025642706423
leaf_weight=95 27 25 35 20 21 22 20 23 31 20 22 29 28 38 20 26 23 22 30 24 46 50 48
leaf_count=95 27 25 35 20 21 22 20 23 31 20 22 29 28 38 20 26 23 22 30 24 46 50 48
internal_value=0.021934 1.66643 -0.958483 -0.163828 2.32542 1.46141 0.995523 1.42167 1.8711 2.74636 2.38819 1.91225 -0.429047 0.496177 -1.25717 -1.40091 -0.743733 -0.524084 -0.998722 -1.07548 -1.47056 -1.16773 -1.54593
internal_weight=745 278 467 128 139 47 139 74 51 92 72 51 108 65 339 215 73 45 124 104 189 80 143
internal_count=745 278 467 128 139 47 139 74 51 92 72 51 108 65 339 215 73 45 124 104 189 80 143
is_linear=0
shrinkage=0.03


Tree=14
num_leaves=25
num_cat=0
split_feature=35 35 1 91 34 91 12 66 100 25 100 103 28 10 19 54 82 97 25 60 88 53 35 96
split_gain=1.21258e+06 179037 59047.4 37547.5 47338.4 50561.2 47609.1 36875.3 29310.6 28796.7 26522.6 23243.8 21180.1 12079.4 10038.8 9902.83 4758.02 4261.42 4384.13 2877.1 3159.95 1195.75 1043.32 536.081
threshold=0.25951179706979971 0.72660752476856549 141.41937500000003 47.347222222222207 0.44437406304545285 60.9861111111111 27.950000000000003 12.40374487355639 1.9242926271325891 9.5000000000000036 8.0569579346585289 -6.172903217773233 66.398810801144506 27.870833333333334 9.0208333333333357 133.68875000000003 26.554166666666671 0.85223579558129725 6.6000000000000005 15.682811105634832 77.145833333333357 26.976041666666671 -0.8520459593969173 -1.9896965658372525
decision_type=2 2 2 2 2 2 2 2 2 2 2 10 2 2 2 10 10 8 2 2 2 10 2 10
left_child=2 8 12 10 5 6 -5 -4 13 -7 -3 -10 17 15 -14 -2 -16 18 21 20 -18 -1 -23 -21
right_child=1 3 7 4 -6 9 -8 -9 11 -11 -12 -13 14 -15 16 -17 19 -19 -20 23 -22 22 -24 -25
leaf_value=-1.1133953115214472 0.85099897962645621 2.0489137803380553 -0.77477404689788809 2.0907932491194119 0.51771348127951988 1.8584327234540667 0.27494795509006664 0.90928787827491753 1.7769596617751651 3.6495917136328559 3.4879696449279782 0.55534370877526018 -0.4421625724205604 -0.24260279130935669 -0.57840569114685059 0.042974221980571749 -0.67541449044431956 -0.8524727933747428 -0.97000168772680417 -1.4069869570298628 -1.1249960111316881 -1.2405781459808349 -1.5967642995626619 -1.021958928257227
leaf_weight=22 31 36 24 32 25 20 22 21 26 20 24 32 38 29 24 24 34 20 27 32 37 33 100 23
leaf_count=22 31 36 24 32 25 20 22 21 26 20 24 32 38 29 24 24 34 20 27 32 37 33 100 23
internal_value=0.0161839 1.41239 -1.015 2.04143 1.70374 2.01041 1.36945 0.013804 0.610717 2.82118 2.67228 1.1238 -1.13344 0.247391 -0.894452 0.50547 -1.00534 -1.35036 -1.40011 -1.08147 -0.922074 -1.46834 -1.5183 -1.2671
internal_weight=756 321 435 179 119 94 54 45 142 40 60 58 390 84 188 55 150 202 182 126 71 155 133 55
internal_count=756 321 435 179 119 94 54 45 142 40 60 58 390 84 188 55 150 202 182 126 71 155 133 55
is_linear=0
shrinkage=0.03


Tree=15
num_leaves=24
num_cat=0
split_feature=35 57 35 53 42 106 94 94 69 59 95 5 104 0 86 97 85 59 10 72 15 24 68
split_gain=1.12546e+06 110957 91128.4 52537.4 71905 53495.6 40198.5 28505.3 24124.2 23966.4 23170.8 16083.7 14141 11277.3 7781.13 9541.4 7529.55 6731.85 4199.15 4126.83 3538.11 1368.82 79.0782
threshold=0.42110087079608943 98.672200655159486 0.68389408864483059 136.7864764492754 305.5548423423424 6.0674551939425578 8.4192801788252307 8.337980335404696 171.70181547619049 154.09064831411624 5.4706081239596935 59.640208333333341 -7.415353449309106 18.084375000000005 28.740773809523812 -3.8856608826283492 0.44925344576126502 62.772598804365721 30.802083333333339 29.07706413861948 1001.0354166666668 -18.16678121576502 8.0221889747669515
decision_type=2 2 2 10 10 2 2 2 10 2 2 2 10 2 2 10 2 2 2 8 2 2 2
left_child=1 13 11 -4 5 6 -5 14 -8 -9 -7 -2 -13 16 -3 -16 20 -15 19 21 -1 -19 -22
right_child=2 7 3 4 -6 10 8 9 -10 -11 -12 12 -14 17 15 -17 -18 18 -20 -21 22 -23 -24
leaf_value=-0.96229648465695594 1.3312826049327851 -0.76530195352435104 0.83313583136846614 1.2866695492843101 3.7421441870150356 0.19736274412700108 3.4198348025617924 1.0752013608125539 2.0256787135524137 -0.24550599753856658 1.5911890465021132 0.80178994165733453 -0.15599716916084289 -0.41949977670397076 -0.61703337056296204 0.28876039026038985 -0.80997111337525496 -1.0052280621195948 -0.63527231042201704 -0.72992772983653198 -1.5184210979212884 -1.3353102272435238 -1.1640871644020079
leaf_weight=22 23 39 35 28 22 20 28 25 30 23 23 31 24 20 20 20 27 42 25 27 114 56 20
leaf_count=22 23 39 35 28 22 20 28 25 30 23 23 31 24 20 20 20 27 42 25 27 114 56 20
internal_value=-0.0174938 -0.882372 1.55241 1.91273 2.15584 1.8586 2.29063 -0.120646 2.74528 0.450267 0.962117 0.67985 0.388524 -1.15531 -0.468823 -0.16814 -1.32541 -0.965509 -1.03505 -1.10933 -1.4089 -1.20543 -1.47455
internal_weight=744 480 264 186 151 129 86 127 58 48 43 78 55 353 79 40 183 170 150 125 156 98 134
internal_count=744 480 264 186 151 129 86 127 58 48 43 78 55 353 79 40 183 170 150 125 156 98 134
is_linear=0
shrinkage=0.03


Tree=16
num_leaves=24
num_cat=0
split_feature=35 35 65 25 25 34 53 1 92 19 92 92 35 35 0 92 74 94 23 98 35 64 34
split_gain=1.03952e+06 106132 99682.6 44998.5 50930.5 33429.6 28625.2 39916.3 26268.8 23421.9 22069.7 17407.9 16987.2 13360.4 9086.04 8818.55 6471.62 3769.93 3272.36 3240.47 2150.58 1979.41 1632.25
threshold=0.3896304495307879 0.68389408864483059 34.830347222222194 10.350000000000001 10.750000000000004 -0.96683886033945943 173.9135416666667 166.78812500000001 8.5125683861303916 22.083333333333339 3.2993492833533504 8.3095818504118046 0.25951179706979971 0.038722280892174228 18.912916666666671 4.8166316959588036 17.535895831869471 3.1364074022007298 -1.3996199696421401 -3.7247813651083512 -0.83352489619613901 27.584483586690759 -0.97873101657557326
decision_type=2 2 2 2 2 2 10 2 2 2 2 2 2 2 2 2 2 2 2 2 2 10 2
left_child=2 9 13 6 -5 -4 -3 -8 10 11 -6 15 16 14 18 -2 -7 19 22 20 -16 -19 -1
right_child=1 3 5 4 8 12 7 -9 -10 -11 -12 -13 -14 -15 17 -17 -18 21 -20 -21 -22 -23 -24
leaf_value=-1.7329144527601159 0.9391124314847199 0.52373290675301709 0.9537082229961048 3.6309940953765594 1.5899093175888062 -0.22803744018077851 0.66335354707457794 2.3997530134262575 1.2508871703881483 -0.13144692226730542 2.9867606598801082 1.6189969191168034 0.19089961961337495 -0.54651372149183941 -0.69815187360346309 0.073772693531853811 -0.87539482463724339 -1.3439974006853606 -0.89315265265378085 -0.46558082035609655 -1.1073665879902086 -0.86691360061818901 -1.3170546720956118
leaf_weight=22 22 30 21 20 24 23 21 30 38 28 26 20 34 36 29 20 38 37 21 20 37 21 130
leaf_count=22 22 30 21 20 24 23 21 30 38 28 26 20 34 36 29 20 38 37 21 20 37 21 130
internal_value=-0.00423778 1.4428 -0.866292 1.84551 2.25161 -0.102139 1.28319 1.71127 1.90084 0.586108 2.36059 0.907107 -0.34304 -1.1164 -1.1792 0.538344 -0.638924 -0.985832 -1.33357 -0.836801 -0.940664 -1.18888 -1.38818
internal_weight=748 279 469 189 108 116 81 51 88 90 50 62 95 353 317 42 61 144 173 86 66 58 152
internal_count=748 279 469 189 108 116 81 51 88 90 50 62 95 353 317 42 61 144 173 86 66 58 152
is_linear=0
shrinkage=0.03


Tree=17
num_leaves=23
num_cat=0
split_feature=35 35 57 9 9 108 14 56 45 28 62 28 74 5 71 42 54 10 53 0 109 76
split_gain=1.06818e+06 96610 75783.1 33101 29833.3 31870.6 28981.3 44075.5 37031.9 25126.4 16112.2 14674.8 11761.8 9393.75 8098.91 6922 5364.4 3120.26 2461.04 2139.43 1103.14 477.117
threshold=0.3896304495307879 0.83824865459667641 98.672200655159486 49.990480625000011 56.442055625000002 6.3808113767468493 19.622916666666672 148.15479166666671 110.73145833333335 158.7985642781876 86.223818279244327 65.177315808297593 31.621666568129953 59.068125000000009 30.990131944444446 132.79870184254608 44.306875000000005 30.664583333333336 26.976041666666671 14.144583333333335 2.8853826443315786 19.514823534024512
decision_type=2 2 2 2 2 2 2 10 10 2 10 2 2 2 8 10 8 2 10 2 2 2
left_child=2 6 11 -3 -5 -6 7 8 -2 12 -9 14 13 -4 18 -8 -13 21 -1 -20 -21 -18
right_child=1 3 9 4 5 -7 15 10 -10 -11 -12 16 -14 -15 -16 -17 17 -19 19 20 -22 -23
leaf_value=-0.93653677667890267 1.1279985971376298 1.2833447214514018 -0.51471879305158341 3.3363045661926267 1.170255141587093 2.5863273355123155 0.69031231479985367 1.0027437978113691 2.8278498227255686 0.54024072360992426 -0.026578289166740748 -0.53989718848153156 -0.94940306138992303 0.26771291598029756 -0.66394359963280813 -0.046767646991289581 -0.92521179676055909 -0.68925748739923753 -1.5369677452199599 -1.3244673119420591 -0.9127885310990469 -1.1812757570603314
leaf_weight=20 31 39 34 24 28 36 20 35 20 29 22 37 29 22 20 25 44 34 84 45 20 50
leaf_count=20 31 39 34 24 28 36 20 35 20 29 22 37 29 22 20 25 44 34 84 45 20 50
internal_value=-0.00851394 1.45417 -0.884859 2.06541 2.3937 1.99433 0.936681 1.20154 1.83617 -0.209849 0.611853 -1.10103 -0.469068 -0.208031 -1.28603 0.288709 -0.882649 -0.976772 -1.35532 -1.40491 -1.21355 -1.07242
internal_weight=748 280 468 127 88 64 153 108 51 114 57 354 85 56 189 45 165 128 169 149 65 94
internal_count=748 280 468 127 88 64 153 108 51 114 57 354 85 56 189 45 165 128 169 149 65 94
is_linear=0
shrinkage=0.03


Tree=18
num_leaves=25
num_cat=0
split_feature=35 24 48 57 30 15 53 28 81 104 55 47 83 89 12 10 83 25 63 60 55 16 0 109
split_gain=828426 126717 99805.2 55239.4 36155.8 26174.5 26046.3 24465 21030.9 28745.5 19548.9 17004.5 12800.1 14214.2 10988.3 6914.21 4327.42 4861.62 3660.86 3710.6 1285.26 1098.2 455.798 94.3487
threshold=0.25951179706979971 1.0000000180025095e-35 262.16150362318848 129.00954118137699 320.50000000000006 1013.6 189.04500000000002 66.398810801144506 21.427083333333339 -12.246483650105658 190.73250000000002 12.133333333333335 22.762500000000003 65.812500000000014 32.250000000000007 31.127083333333335 30.537500000000005 6.7999999999999998 116.61887363728449 14.837472251662918 57.975208333333342 27.100000000000005 16.511875000000003 9.0201359084406381
decision_type=2 2 10 2 2 2 10 2 2 10 10 10 10 10 2 2 8 2 8 2 10 2 2 2
left_child=3 4 6 7 8 -6 -3 16 -2 -10 -8 -9 -11 -14 -15 18 17 21 19 20 -13 22 -1 -21
right_child=1 2 -4 -5 5 -7 10 11 9 12 -12 15 13 14 -16 -17 -18 -19 -20 23 -22 -23 -24 -25
leaf_value=-1.4418221860561731 1.202835732602304 0.91618076325394204 3.8806492887224469 0.36501756048202511 2.2493256187438964 0.78872776386993271 2.6300658869743345 0.085109148706708632 1.1807247820922304 -0.46855130288336011 1.258952078819275 -0.60622470204646772 0.84620817727512787 0.3733623207807541 -0.49820323876712636 -0.43612826923529308 -0.73915876047951823 -0.79222262776416275 -0.57344075151852203 -1.3427823139059132 -0.94247844407724779 -1.011144783185876 -1.1030645633697509 -0.99752970114998185
leaf_weight=105 30 39 20 29 20 27 23 20 27 26 21 25 26 29 22 35 20 22 27 28 42 22 24 22
leaf_count=105 30 39 20 29 20 27 23 20 27 26 21 25 26 29 22 35 20 22 27 28 42 22 24 22
internal_value=-0.0219047 1.15295 2.00922 -0.88768 0.719266 1.44417 1.51745 -0.981047 0.498678 0.328238 2.01819 -0.74071 0.0955666 0.289613 -0.00495779 -0.83294 -1.22376 -1.27521 -0.925715 -1.00146 -0.827771 -1.33991 -1.38777 -1.21341
internal_weight=731 310 103 421 207 47 83 392 160 130 44 199 103 77 51 179 193 173 144 117 67 151 129 50
internal_count=731 310 103 421 207 47 83 392 160 130 44 199 103 77 51 179 193 173 144 117 67 151 129 50
is_linear=0
shrinkage=0.03


Tree=19
num_leaves=28
num_cat=0
split_feature=35 35 57 12 62 30 72 2 91 28 29 23 3 19 12 19 84 35 80 97 94 53 25 105 57 14 3
split_gain=918689 139874 50468.9 36242.2 36528.6 65332.6 36746.1 22032.9 21177.5 18264.5 14598.5 14512.6 11870.5 11541.4 10398.5 7877.49 5823.25 6745.3 7264.81 4427.09 2824.86 2473.43 2352.15 988.882 946.531 875.253 681.54
threshold=0.25951179706979971 0.68389408864483059 125.70825252661142 29.250000000000004 76.854805682435611 45.500000000000007 70.498195551636286 2891.9775000000004 48.479166666666657 66.398810801144506 2.5000000000000004 2.4698838409242962 12.978333333333335 22.083333333333339 30.650000000000002 7.5625000000000009 30.918055555555558 -0.23449138957041016 61.529411487017732 0.85223579558129725 2.6343276292553299 26.556250000000002 6.7999999999999998 -17.61864376550589 53.18651200849699 24.739583333333336 0.66125000000000012
decision_type=2 2 2 2 10 2 10 2 2 2 2 2 2 2 2 2 2 2 10 8 2 10 2 2 2 2 2
left_child=2 11 9 4 6 8 7 -3 -6 19 -8 13 -5 14 -2 -13 17 20 -19 21 25 -1 24 -22 -23 -11 -26
right_child=1 3 -4 12 5 -7 10 -9 -10 16 -12 15 -14 -15 -16 -17 -18 18 -20 -21 23 22 -24 -25 26 -27 -28
leaf_value=-0.84824151667681602 0.96248352216637656 2.3542163357268207 0.19378552277882893 1.41465699332101 1.3087139866181781 2.5576889533466765 3.7218465709686277 0.91691154718399048 -0.03687846454707059 -0.93759419202804561 2.2640327375275748 0.4646155375242233 0.36823281313691819 -0.24903996290699129 0.11621220574714243 1.3214563775062562 -0.43062213519215586 -0.22996412992477416 -0.9736247335161482 -0.70730239868164069 -0.93039640290396552 -1.5212361407279966 -0.88597200121198372 -1.3168189983983194 -1.0929397872578013 -0.61413008754069986 -1.3953849220275878
leaf_weight=21 22 22 35 20 20 26 20 20 21 27 20 21 20 30 31 20 39 29 20 20 27 47 20 30 54 25 39
leaf_count=21 22 22 35 20 20 26 20 20 21 27 20 21 20 30 31 20 39 29 20 20 27 47 20 30 54 25 39
internal_value=0.000844289 1.23689 -0.893439 1.74882 1.96557 1.40778 2.39886 1.70703 0.63504 -0.989296 3.06594 0.448862 0.913187 0.215901 0.478813 0.904098 -0.776073 -0.858098 -0.546901 -1.1934 -0.99175 -1.24293 -1.28914 -1.15297 -1.34005 -0.796604 -1.23327
internal_weight=746 313 433 189 149 67 82 42 41 398 40 124 40 83 53 41 197 158 49 201 109 181 160 57 140 52 93
internal_count=746 313 433 189 149 67 82 42 41 398 40 124 40 83 53 41 197 158 49 201 109 181 160 57 140 52 93
is_linear=0
shrinkage=0.03


Tree=20
num_leaves=25
num_cat=0
split_feature=35 35 65 63 38 52 47 23 71 4 101 36 3 56 1 85 108 89 72 71 54 83 105 92
split_gain=831953 114684 50144 44601.9 38154.7 38307.7 46555.8 35592.5 25207.1 17955.6 17085.4 16923.4 13543 12181.9 9564.28 6854.65 6556.02 5680.72 5570.41 3914.92 3860.43 3914.07 1335.87 745.407
threshold=0.25951179706979971 0.68389408864483059 34.233888888888856 80.694239521986276 175.0261569195645 348.00666666666672 151.00020833333335 3.5582946860081481 196.77409390096622 54.990833333333335 2.8654277723225476 132.79870184254608 16.507708333333337 141.8974275362319 87.451875000000015 0.44925344576126502 3.5238949781307709 74.520833333333357 12.0832293694949 32.799466183574886 26.976041666666671 30.585416666666671 -17.876488360228127 1.5716682740359318
decision_type=2 2 2 10 10 10 10 2 10 2 2 2 2 10 2 2 2 10 8 8 10 10 2 2
left_child=2 9 14 -4 7 6 10 -3 -8 11 -6 -2 -11 -13 15 19 -17 -5 23 20 -1 22 -22 -16
right_child=1 4 3 17 5 -7 8 -9 -10 12 -12 13 -14 -15 18 16 -18 -19 -20 -21 21 -23 -24 -25
leaf_value=-0.74899011546915228 0.63308577437149849 0.13459361531904765 0.98356606786901302 -0.81032143464455231 0.7383737799951009 0.94669469538856943 3.3303143347010891 1.6536304049553541 1.8236411572857336 1.3960925775557755 1.8947379029478346 0.29240180628640311 0.34126168744130569 -0.70947313101395315 -0.66452295988798138 -0.29260515962328226 -1.023793854372842 -0.2194060290318269 -0.27584570333361624 -0.7430132856735816 -1.1959282808033924 -0.79110752008178009 -1.4719901615078166 -0.99526894463433158
leaf_weight=21 37 27 21 38 20 33 33 28 21 24 34 20 21 22 23 20 27 25 23 25 105 21 58 26
leaf_count=21 37 27 21 38 20 33 33 28 21 24 34 20 21 22 23 20 27 25 23 25 105 21 58 26
internal_value=0.0114548 1.16939 -0.845016 -0.184337 1.61972 1.88282 2.15755 0.923641 2.7882 0.450319 1.48767 0.173498 0.921958 -0.236685 -1.00305 -1.08499 -0.725228 -0.582923 -0.677275 -1.15505 -1.20145 -1.24876 -1.30254 -0.856416
internal_weight=753 320 433 84 196 141 108 55 54 124 54 79 45 42 349 277 47 63 72 230 205 184 163 49
internal_count=753 320 433 84 196 141 108 55 54 124 54 79 45 42 349 277 47 63 72 230 205 184 163 49
is_linear=0
shrinkage=0.03


Tree=21
num_leaves=25
num_cat=0
split_feature=35 35 1 104 24 66 11 68 101 82 57 91 28 91 19 99 3 42 1 77 79 80 60 16
split_gain=737964 96888.6 45288.5 38871.8 40573.2 37519.5 28325.8 45566.8 27503.4 34422.9 19527.2 19044.3 14059.1 9866.74 9672.1 8951.31 5258.19 5190.32 5296.58 5282.18 3299.62 2712.5 1514.55 1139.21
threshold=0.25951179706979971 0.84750952922804634 141.41937500000003 -2.6277509498858298 2.896340270144945 16.842076740374157 23.250000000000004 67.525520478384109 3.3689094743739205 25.991666666666671 234.66306459251669 45.61805555555555 66.398810801144506 68.229166666666657 25.812500000000004 4.3981381275001015 3.6564583333333336 53.727137640713295 94.591875000000002 96.643333333333345 104.55620138888889 20.808314303013038 12.812319263238033 26.487500000000001
decision_type=2 2 2 10 2 2 2 2 2 10 2 2 2 2 2 2 2 8 2 10 8 10 2 2
left_child=2 6 12 -3 10 -4 7 8 9 -2 -5 -6 20 -14 -9 -10 -8 -15 22 -20 21 -1 -19 -23
right_child=1 3 5 4 11 -7 16 14 15 -11 -12 -13 13 17 -16 -17 -18 18 19 -21 -22 23 -24 -25
leaf_value=-0.7534417922156198 2.4654032553566827 2.7143269978761673 -0.64547408938407891 0.10402204314416104 2.7792627389090399 1.0079053946903773 0.32773839791615805 0.4616575788562336 1.0290282471821857 0.93624361496779218 1.3105682890990684 1.3818797075489291 -0.10011336939675468 -0.40025631639692516 -0.37295945320810586 0.17444082396371025 -0.28266054540872571 -0.85743985671263478 -0.37954912830801568 -0.9716627867405232 -0.70372183239978281 -1.2493110584100682 -1.205807318346841 -0.89472587087880007
leaf_weight=20 26 29 29 21 20 20 26 30 25 30 28 22 20 26 20 20 23 38 33 25 22 133 41 22
leaf_count=20 26 29 29 21 20 20 26 30 25 30 28 22 20 26 20 20 23 38 33 25 22 133 41 22
internal_value=-0.00923927 1.0792 -0.821753 1.75101 1.41786 0.0360358 0.669412 0.871623 1.23537 1.67701 0.805899 2.09646 -0.932167 -0.734572 0.127044 0.661261 0.0413017 -0.811335 -0.885884 -0.646914 -1.11108 -1.158 -1.05105 -1.20504
internal_weight=749 320 429 120 91 49 200 151 101 56 49 42 380 183 50 45 49 163 137 58 197 175 79 155
internal_count=749 320 429 120 91 49 200 151 101 56 49 42 380 183 50 45 49 163 137 58 197 175 79 155
is_linear=0
shrinkage=0.03


Tree=22
num_leaves=22
num_cat=0
split_feature=35 35 0 53 94 92 30 29 29 4 105 80 7 36 35 24 0 21 35 54 94
split_gain=824329 86135.2 51874.9 35955.3 39839 37528.4 22094.5 21292.2 60193.3 19694.9 15388.6 12751.4 10904.8 9373.31 7995.85 6621.4 5338.62 2113.17 1995.97 1889.13 800.383
threshold=0.3896304495307879 0.68389408864483059 31.754583333333336 136.7864764492754 12.829055103233435 9.4453532932247235 264.50000000000006 2.5000000000000004 4.5000000000000009 54.990833333333335 -1.7412754915267461 60.067029392818192 2.388958333333334 132.79870184254608 -0.21772323039653199 -12.794488757986988 23.64041666666667 1.1500000000000004 -0.92910699518418138 26.976041666666671 2.1457883673601499
decision_type=2 2 2 10 2 2 2 2 2 2 2 10 2 2 2 2 2 2 2 10 2
left_child=2 9 12 -3 5 7 11 -5 -9 13 -6 15 16 -2 -14 -4 17 18 -1 -20 -18
right_child=1 3 6 4 10 -7 -8 8 -10 -11 -12 -13 14 -15 -16 -17 20 -19 19 -21 -22
leaf_value=-0.82203228541782924 0.59882586061954501 0.75333405446764579 -0.42445713068505647 2.5219059719145296 1.8616252192854881 0.70698156350537344 0.34085840079188345 0.39179624257179402 2.513944517970085 1.0482327893295804 3.2333040394990338 0.11510977988657743 -0.90290613389784291 -0.18137949770147149 -0.19465904807222301 -1.0394727206999257 -0.54349130868911733 -0.74870100975036613 -0.81153569529631309 -1.2186512741336115 -0.85743293331219594
leaf_weight=27 23 36 37 31 20 37 39 25 23 36 22 22 30 32 28 30 23 22 20 161 25
leaf_count=27 23 36 37 31 20 37 39 25 23 36 22 22 30 32 28 30 23 22 20 161 25
internal_value=0.0144638 1.28179 -0.765041 1.63806 1.83363 1.52212 -0.248614 1.89028 1.43921 0.512727 2.63861 -0.507839 -0.960454 0.149755 -0.570088 -0.711074 -1.03956 -1.1026 -1.13627 -1.17837 -0.721164
internal_weight=749 285 464 194 158 116 128 79 48 91 42 89 336 55 58 67 278 230 208 181 48
internal_count=749 285 464 194 158 116 128 79 48 91 42 89 336 55 58 67 278 230 208 181 48
is_linear=0
shrinkage=0.03


Tree=23
num_leaves=26
num_cat=0
split_feature=35 35 1 12 97 53 94 60 44 28 19 11 25 44 100 109 96 83 56 41 18 24 97 0 51
split_gain=693444 105502 43360.8 42523.8 38463.9 38144.9 51193.1 39772.8 23840 16763.2 15054.4 13505.4 8323.76 5751.11 7203.62 5226.79 4727.84 3200.5 2324.4 1960.39 1043.94 1032.8 1568.78 545.552 513.135
threshold=0.25951179706979971 0.68389408864483059 134.90687500000001 29.250000000000004 -1.4966778427229659 137.99812500000004 12.829055103233435 80.573533314939851 124.13833333333334 66.398810801144506 34.770833333333336 19.900000000000002 10.200000000000003 45.486458333333339 1.4195947044166564 12.209044840029337 -4.9288064169442958 30.537500000000005 57.440000000000005 103.51617462311559 52.000000000000007 -19.588779052986201 -4.7069544233149028 15.365 73.180000000000007
decision_type=2 2 2 2 10 10 2 2 10 2 2 2 2 10 2 2 10 8 10 8 2 2 10 2 10
left_child=2 10 9 5 -4 -3 7 8 -7 17 11 -2 15 -13 -15 18 -17 19 24 20 23 -20 -23 -1 -11
right_child=1 3 4 -5 -6 6 -8 -9 -10 12 -12 13 -14 14 -16 16 -18 -19 21 -21 -22 22 -24 -25 -26
leaf_value=-1.290980643783648 1.0746594399419322 0.67456198300634107 -0.62677334569394583 0.5850764610145528 1.025592564855303 1.1263829125269598 2.9912554816766219 0.63543249041803418 2.4445170323252681 -0.48070923668997628 -0.34578252115032887 0.64059092932733985 -0.119517665180293 -0.23186327934265136 0.49121038626069613 -0.76175269603729245 -0.12526189603588797 -0.67124935558864052 -0.71456363603472706 -0.77153344154357906 -0.90756397656032006 -1.2108529749783601 -0.80620381114738326 -1.0243836061771099 -0.76698198182242261
leaf_weight=96 28 27 31 38 20 22 32 30 39 20 21 28 21 26 22 21 21 20 23 20 27 32 27 38 20
leaf_count=96 28 27 31 38 20 22 32 30 39 20 21 28 21 26 22 21 21 20 23 20 27 32 27 38 20
internal_value=-0.0219129 1.05406 -0.793224 1.5016 0.0284749 1.72838 1.9524 1.55854 1.99496 -0.901584 0.374386 0.521712 -0.688315 0.306684 0.102807 -0.759983 -0.453821 -1.0935 -0.860837 -1.13621 -1.17647 -0.960017 -1.0422 -1.22353 -0.639061
internal_weight=750 313 437 188 51 150 123 91 61 386 125 104 185 76 48 164 42 201 122 181 161 82 59 134 40
internal_count=750 313 437 188 51 150 123 91 61 386 125 104 185 76 48 164 42 201 122 181 161 82 59 134 40
is_linear=0
shrinkage=0.03


Tree=24
num_leaves=25
num_cat=0
split_feature=35 35 57 88 91 34 90 61 100 13 91 1 3 109 7 67 83 15 1 85 53 54 34 53
split_gain=747729 78098.5 64342.7 45384.1 30249.6 37922.1 33310.3 44020.9 24049.8 52224.2 19309 14644.8 18092.2 7707.32 6677.77 9158.13 5850.12 3444.4 2995.61 2866.95 1685.11 1622.44 1303.45 18.9599
threshold=0.3896304495307879 0.70252747416915695 93.733218298650684 79.229166666666671 48.479166666666657 0.44437406304545285 52.041666666666679 220.65539773603675 8.5200314105209589 40.979166666666679 66.993055555555557 95.217373188405816 15.724166666666669 4.2248479971387676 2.6483333333333339 20.191934523809529 30.585416666666671 999.7104166666669 93.216250000000016 0.44925344576126502 26.556250000000002 104.72812500000002 0.74409704927257569 52.921875000000007
decision_type=2 2 2 2 2 2 10 10 2 2 2 2 2 2 2 2 8 2 2 2 10 10 2 10
left_child=2 11 14 10 8 6 -6 -8 9 -3 -4 -2 -13 21 16 -16 18 -18 19 20 -1 -12 23 -22
right_child=1 4 3 -5 5 -7 7 -9 -10 -11 13 12 -14 -15 15 -17 17 -19 -20 -21 22 -23 -24 -25
leaf_value=-0.7637958410808019 0.050701474325997489 0.52078369515282763 0.17572751542925835 1.1245748168771916 0.78242731122409592 0.28897284302446574 1.2397347662899945 2.8757445679861924 3.0462315688814434 2.6097792989730833 -1.1048562014644796 1.2072893870472909 0.12973497655080712 -0.26710824851877984 -0.058875117642538888 -0.85878900444185413 -0.32675768929979071 -0.87056855559349056 -0.71047928891863132 -0.72549266683644265 -1.3341113267626081 -0.66294207558035856 -0.81946011151586262 -1.1161445212132721
leaf_weight=20 34 20 39 21 33 26 36 28 20 24 21 39 22 31 20 36 22 23 34 28 41 23 20 102
leaf_count=20 34 20 39 21 33 26 36 28 20 24 21 39 22 31 20 36 22 23 34 28 41 23 20 102
internal_value=0.0370518 1.26104 -0.681672 -0.124964 1.61608 1.31993 1.5905 1.98872 2.15618 1.69291 -0.36292 0.552604 0.827024 -0.641644 -0.897898 -0.57915 -0.957248 -0.617589 -1.01687 -1.06266 -1.11002 -0.893721 -1.14759 -1.18747
internal_weight=763 282 481 135 187 123 97 64 64 44 114 95 61 75 346 56 290 45 245 211 183 44 163 143
internal_count=763 282 481 135 187 123 97 64 64 44 114 95 61 75 346 56 290 45 245 211 183 44 163 143
is_linear=0
shrinkage=0.03


Tree=25
num_leaves=27
num_cat=0
split_feature=35 10 57 30 63 82 70 99 69 61 14 94 94 65 108 7 0 52 49 15 85 56 83 0 108 53
split_gain=681095 70142.1 59133.5 52283.1 37061.9 37044 34771.1 27141.4 29063.5 40570.7 16294.9 12919.2 12824.1 10292 8902.88 7885.18 7966.03 6032.41 4658.69 4218.48 3722.89 3454.79 2724.71 2290.14 982.347 196.944
threshold=0.3896304495307879 22.212500000000002 93.733218298650684 323.50000000000006 76.479754717463493 22.762500000000003 65.168303737109298 4.4847271913590019 174.32192287784682 246.31707033713812 19.660416666666674 7.9247294013598522 11.612788810407936 150.66715277777777 5.1841850444708966 2.388958333333334 21.988541666666674 121.77354166666669 49.267708333333339 999.7104166666669 0.4948159785019543 83.048541666666679 30.506250000000005 15.365 2.5959183688870366 30.374375000000001
decision_type=2 2 2 2 10 10 10 2 10 10 2 2 2 2 2 2 2 10 10 2 2 10 8 2 2 10
left_child=2 7 15 5 -4 -3 -5 8 13 -10 14 21 -11 -2 -7 19 -17 -13 -12 22 23 -6 -1 25 -25 -21
right_child=1 3 4 6 11 10 -8 -9 9 12 18 17 -14 -15 -16 16 -18 -19 -20 20 -22 -23 -24 24 -26 -27
leaf_value=-0.87017300333295544 1.8995233209644045 -0.69213706301606215 1.0391747593879699 0.76935647109746941 -0.83507994270324704 1.5099033407189628 2.4687727195566347 0.73771799445152286 0.50938184383970042 1.3955001670122145 0.55134765761239179 0.44538653765405928 2.6040847667780787 3.1232461752210341 0.59790588593618443 -0.12850628146758447 -0.82399785217485921 -0.26591133079745555 -0.077355551069433023 -0.89201249735695975 -0.55295488357543943 -0.38652755731344224 -0.35065522670745847 -0.68764480778883241 -0.9691615802601532 -1.1848948897486147
leaf_weight=20 20 22 20 24 29 21 21 23 25 20 20 20 21 20 21 25 37 21 21 20 20 39 20 28 80 91
leaf_count=20 20 22 20 24 29 21 21 23 25 20 20 20 21 20 21 25 37 21 21 20 20 39 20 28 80 91
internal_value=0.0314961 1.20321 -0.665131 0.754146 -0.116829 0.380463 1.59885 1.71556 1.91885 1.49014 0.669622 -0.336458 2.06179 2.57264 1.07841 -0.871605 -0.550049 0.0834064 0.235154 -0.940842 -0.990827 -0.587152 -0.625302 -1.02812 -0.903154 -1.14056
internal_weight=749 279 470 150 129 105 45 129 106 66 83 109 41 40 42 341 62 41 41 279 239 68 40 219 108 111
internal_count=749 279 470 150 129 105 45 129 106 66 83 109 41 40 42 341 62 41 41 279 239 68 40 219 108 111
is_linear=0
shrinkage=0.03


Tree=26
num_leaves=26
num_cat=0
split_feature=35 35 25 25 28 30 92 52 49 107 83 10 60 7 77 77 79 109 15 53 0 88 16 59 53
split_gain=650100 101734 33067.9 42011.9 32156.6 39572.5 27861.6 27401.5 23265.5 20906.3 14808.6 24619.1 15926.4 8972.96 7161.88 8411.38 7027.29 5799.81 4768.28 2593.75 2660.56 1850.58 820.139 812.21 279.447
threshold=0.25118075958286767 0.68389408864483059 10.350000000000001 11.050000000000002 93.039932045779707 264.50000000000006 6.5911824585412591 163.5110416666667 164.13895833333336 0.64466047018623251 22.762500000000003 26.818750000000005 45.802173546885875 2.388958333333334 82.785868918219478 102.09366071428572 123.6208402777778 -5.0195718586075371 999.7104166666669 26.556250000000002 16.564791666666668 67.479166666666671 25.981250000000003 73.534618237119204 85.509791666666686
decision_type=2 2 2 2 2 2 2 10 10 2 10 2 2 2 10 10 10 2 2 10 2 2 2 2 10
left_child=4 10 7 -4 13 14 8 -3 -5 -9 -2 12 -12 18 -6 -16 21 -15 -1 -20 22 -13 23 -21 -22
right_child=1 2 3 6 5 -7 -8 9 -10 -11 11 16 -14 17 15 -17 -18 -19 19 20 24 -23 -24 -25 -26
leaf_value=-0.56663076075640595 -0.26811074184334793 0.20470434475690125 2.8556116092205044 2.7460992373738971 -0.93298633933067321 0.78165480651855468 0.84572423809845199 1.8875662781975486 1.2237249765612861 0.61472843097788943 1.6569260924795399 0.18161444523504802 0.54094769153330058 -0.87727648803165981 0.0984449697577435 -0.63832059633087457 -0.26675773989070545 -0.22130552228540182 -0.62491026505180025 -1.2558338729858398 -0.78542194624480444 0.59808603014264783 -0.85332991686734283 -0.8954408400399344 -0.99086814607892704
leaf_weight=32 22 25 29 20 31 24 37 32 21 20 22 20 26 20 22 36 21 31 22 74 56 20 21 20 41
leaf_count=32 22 25 29 20 31 24 37 32 21 20 22 20 26 20 22 36 21 31 22 74 56 20 21 20 41
internal_value=0.0423269 1.07586 1.52928 1.87404 -0.715533 -0.277788 1.47756 1.03232 2.01405 1.41885 0.432223 0.574727 1.07581 -0.87021 -0.568991 -0.361926 0.169436 -0.490473 -0.940908 -0.989462 -1.02418 0.399359 -1.13591 -1.18939 -0.881485
internal_weight=745 315 184 107 430 113 78 77 41 52 131 109 48 317 89 58 61 51 266 234 212 40 115 94 97
internal_count=745 315 184 107 430 113 78 77 41 52 131 109 48 317 89 58 61 51 266 234 212 40 115 94 97
is_linear=0
shrinkage=0.03


Tree=27
num_leaves=27
num_cat=0
split_feature=35 35 38 56 28 39 94 10 94 104 84 76 50 10 28 79 54 84 10 25 10 53 24 78 70 24
split_gain=543646 76236.5 29590.6 32304.9 28740.5 27993.5 39658.7 22579.8 13641.5 16653.4 14208.8 13463.8 13189.9 12349.1 6909.77 5417.6 3074.78 3893.36 2619.99 2560.73 1598.68 1746.83 1582.77 828.237 624.393 53.2539
threshold=0.25951179706979971 0.68389408864483059 175.0261569195645 148.15479166666671 143.46871859296485 193.75011195995788 12.203274685692676 21.16041666666667 8.9531276222757494 -12.206812706896736 23.651388888888892 67.557385190114857 182.58104166666672 31.302083333333336 66.398810801144506 129.73985477053142 28.466041666666669 26.877083333333335 30.691666666666666 6.4000000000000012 27.312500000000004 26.976041666666671 -18.16678121576502 38.304865574808801 15.413484636352189 -21.348865868849796
decision_type=2 2 10 10 2 10 2 2 2 10 2 2 2 2 2 10 8 2 2 2 2 10 2 10 10 2
left_child=4 8 12 -4 13 -5 7 -7 9 -2 -10 -12 -3 14 19 -11 -16 -18 22 20 -1 -22 25 -23 -24 -19
right_child=1 2 3 5 -6 6 -8 -9 10 15 11 -13 -14 -15 16 -17 17 18 -20 -21 21 23 24 -25 -26 -27
leaf_value=-0.68608164651053294 0.76205427101680212 1.1698447169780732 2.3794710076938976 0.57657659684356888 0.22474523050444464 1.6592457589387892 2.6210208731889724 0.28945568382740022 0.012803339617592946 0.029070094994136264 1.5038053113763983 0.41424735976891081 0.20424364976584911 -0.20598855106414041 -0.31221608025687075 -0.61238213079316273 -0.41917401552200317 -0.78681727954319547 -0.50435288012027746 -0.66829368146983059 -0.71616995402744832 -1.173148345289559 -1.0877899807255442 -0.8905966868120081 -0.75597782739571151 -0.56513211829321719
leaf_weight=20 20 24 32 37 27 24 23 20 20 27 21 21 27 32 20 20 33 20 26 32 20 86 40 33 20 20
leaf_count=20 20 24 32 37 27 24 23 20 20 27 21 21 27 32 20 20 33 20 26 32 20 86 40 33 20 20
internal_value=-0.0205859 0.922034 1.30777 1.53939 -0.715446 1.26071 1.62447 1.05688 0.357101 0.0581923 0.674064 0.981329 0.672403 -0.778994 -0.827863 -0.25096 -0.684955 -0.729596 -0.806956 -0.957527 -1.0112 -1.05274 -0.87986 -1.10287 -0.991392 -0.692462
internal_weight=745 316 187 136 429 104 67 44 129 67 62 42 51 402 370 47 179 159 126 191 159 139 100 119 60 40
internal_count=745 316 187 136 429 104 67 44 129 67 62 42 51 402 370 47 179 159 126 191 159 139 100 119 60 40
is_linear=0
shrinkage=0.03


Tree=28
num_leaves=24
num_cat=0
split_feature=28 12 15 3 94 92 9 85 53 90 25 64 0 47 19 15 80 11 3 4 60 108 7
split_gain=517774 64641.1 63723.7 38294.5 48506.2 31386.6 23198.3 17666.4 22443 17461.1 16060.2 13665.7 12884.8 8787.95 5730.11 3477.85 3464.61 2532.34 2340.02 4012.04 1286.69 443.189 422.711
threshold=154.82495170354761 29.150000000000002 1009.4770833333333 23.441041666666667 12.564537405526645 6.7291834238985446 49.422309375000005 0.54823205508534323 177.60145833333334 70.166666666666671 8.3499999999999996 61.523762889261434 18.912916666666671 39.507500000000007 9.5833333333333339 996.28125000000011 20.808314303013038 28.250000000000004 3.5727083333333334 8.0922916666666698 14.837472251662918 3.4345016255603786 0.2614583333333334
decision_type=2 2 2 2 2 2 2 2 10 10 2 10 2 10 2 2 10 2 2 2 2 2 2
left_child=2 3 12 4 5 -2 -5 8 -3 10 -4 -9 16 -11 -14 -16 -1 21 19 20 22 -18 -17
right_child=1 7 9 6 -6 -7 -8 11 -10 13 -12 -13 14 -15 15 18 17 -19 -20 -21 -22 -23 -24
leaf_value=-0.53905510165474635 2.127164060146578 0.4240260928496718 1.1125899119036537 0.1173404999660409 3.1247110617679099 0.73988026170060039 1.3472100499899764 0.55355013040395884 1.6568918115752083 -0.63976306080818168 -0.012296266601635859 -0.45061924602674402 -0.25689776327088476 0.058447081744670865 -0.31091636657714838 -0.50429548195430207 -0.90549896980586808 -0.61813565662928982 -1.033167370505955 -0.39406096584521805 -0.98641672982109907 -1.1095209928097263 -0.75887224785983565
leaf_weight=21 30 39 20 22 22 31 37 25 20 29 25 22 39 35 23 20 56 20 22 38 26 92 31
leaf_count=21 30 39 20 22 22 31 37 25 20 29 25 22 39 35 23 20 56 20 22 38 26 92 31
internal_value=-0.0280111 1.08901 -0.586465 1.50615 1.92246 1.44546 0.898214 0.521344 0.862596 0.0541444 0.500971 0.0839179 -0.766107 -0.262905 -0.591882 -0.671432 -0.945468 -0.99278 -0.729265 -0.662722 -0.788556 -1.03892 -0.670656
internal_weight=745 248 497 142 83 61 59 106 59 109 45 47 388 64 199 160 189 168 137 115 77 148 51
internal_count=745 248 497 142 83 61 59 106 59 109 45 47 388 64 199 160 189 168 137 115 77 148 51
is_linear=0
shrinkage=0.03


Tree=29
num_leaves=28
num_cat=0
split_feature=35 10 30 80 77 1 66 15 96 95 89 80 79 11 28 35 54 85 107 60 59 35 53 68 80 74 14
split_gain=489324 74956.1 36503.8 34718.5 33958.3 28926.8 27878.1 20406 20345.7 16881.4 10427.7 9764.07 12178.3 12065.5 7941.89 4707.25 7230.99 2870.99 2820.72 2628.85 2088.62 1998.82 1827.59 1648.8 1581.04 276.035 179.467
threshold=0.25951179706979971 22.212500000000002 56.500000000000007 151.6246966834498 158.43701475155282 126.24250000000001 19.222625908729288 1014.8104166666668 5.0675645444437345 3.5582946860081481 66.479166666666671 77.023987683185808 130.26909088164254 23.450000000000003 65.177315808297593 -0.38168922026665864 49.690000000000012 0.44925344576126502 -19.256179011138141 15.867640096643253 110.22072673727526 -0.92910699518418138 28.466041666666669 4.4616963905328495 28.521259606861424 3.599388642993318 23.097916666666666
decision_type=2 2 2 10 10 2 2 2 10 2 10 10 10 2 2 2 10 2 2 2 2 2 10 2 8 2 2
left_child=5 3 -3 7 11 14 19 -2 -9 10 -6 12 13 -4 17 18 -17 21 23 -7 -18 -1 -23 -16 -20 -24 -27
right_child=1 2 4 -5 9 6 -8 8 -10 -11 -12 -13 -14 -15 15 16 20 -19 24 -21 -22 22 25 -25 -26 26 -28
leaf_value=-0.60800871167864112 2.6463652420043942 -0.62248526040626606 1.2543631652810356 0.68115091435611241 0.21718704453536442 -0.25390323093959266 0.80762060961940063 0.92830361238547732 2.0106781753471918 1.686843686081589 1.1770250402797351 -0.18449091578352039 -0.13966938802174159 0.28510367578930323 -0.72488678336143486 0.063863799742289951 -0.73593016698553759 -0.57792209658129456 -1.1117924547195435 -0.75401129045656745 -0.34504021987318995 -0.6663129853118549 -0.80987511514940036 -0.33602801053420356 -0.71803001378263742 -1.2808077099012292 -1.009685518476698
leaf_weight=20 20 22 21 39 20 20 21 34 34 30 21 28 20 26 23 20 36 28 23 20 23 21 21 22 34 22 80
leaf_count=20 20 22 21 39 20 20 21 34 34 30 21 28 20 26 23 20 36 28 23 20 23 21 21 22 34 22 80
internal_value=-0.00883989 0.889636 0.504979 1.45066 0.657234 -0.661506 -0.0548153 1.7802 1.49079 1.14927 0.72513 0.281359 0.475893 0.735287 -0.760311 -0.61049 -0.427116 -0.897654 -0.74699 -0.516249 -0.59184 -0.948409 -0.991167 -0.546216 -0.893346 -1.04081 -1.08003
internal_weight=749 315 188 127 166 434 61 88 68 71 41 95 67 47 373 181 79 192 102 40 59 164 144 45 57 123 102
internal_count=749 315 188 127 166 434 61 88 68 71 41 95 67 47 373 181 79 192 102 40 59 164 144 45 57 123 102
is_linear=0
shrinkage=0.03


Tree=30
num_leaves=27
num_cat=0
split_feature=35 35 57 88 9 108 56 108 5 9 94 3 60 10 13 7 62 79 10 0 53 25 101 57 80 17
split_gain=484784 57526.7 53598 45398.5 36332.2 33984.2 27540.4 24953.3 23410.3 19417.4 16371.8 10081.8 9595.51 18769.4 7054.96 4529.69 8212.14 4579.92 4394.23 2532.49 2496.23 2363.21 1792.08 1337.52 1939.78 369.67
threshold=0.42110087079608943 0.83824865459667641 93.733218298650684 79.229166666666671 52.447678125000003 7.0330590239657731 158.23437500000003 6.2743820688214162 53.324375000000011 60.207701250000007 8.086385606216334 10.474583333333335 52.715424453393851 26.418750000000006 69.312500000000014 2.4397916666666672 19.753273036307302 120.9595709541063 31.208333333333339 23.64041666666667 26.556250000000002 8.5500000000000007 2.2992804572587531 52.55853795013801 24.09257383021037 25.250000000000004
decision_type=2 2 2 2 2 2 10 2 2 2 2 2 2 2 2 2 8 8 2 2 10 2 2 2 10 2
left_child=2 6 15 10 7 9 8 -3 -2 -6 18 -12 13 -10 -8 17 -17 19 21 20 -1 -4 -21 -22 -25 -26
right_child=1 4 3 -5 5 -7 14 -9 12 -11 11 -13 -14 -15 -16 16 -18 -19 -20 22 23 -23 -24 24 25 -27
leaf_value=-0.55346630386684248 1.8104728086428208 1.6359100472927093 -0.93431039657592774 1.1898115533048457 2.0527800836888224 2.7227788281440732 0.45605904694114408 0.27600576644943603 1.56466662134443 0.80992410193229536 -0.238253464950965 0.64675129890441885 0.1544645670056343 0.29405812149462496 -0.19661322265863418 -0.11620746885027204 -0.83683912546403938 -0.36534303432161158 -0.20931559882164003 -0.38714813508770679 -1.1192403403572415 -0.49240236430332579 -0.79266571680704745 -0.54908651445593148 -1.0997255473666721 -0.86174094734611084
leaf_weight=22 21 20 24 21 21 29 27 30 20 28 25 20 23 22 31 27 30 21 24 21 45 28 26 20 26 90
leaf_count=22 21 20 24 21 21 29 27 30 20 28 25 20 23 22 31 27 30 21 24 21 45 28 26 20 26 90
internal_value=0.0303675 1.03619 -0.552689 -0.0650859 1.498 1.90294 0.618186 0.841378 0.955849 1.37298 -0.290845 0.160591 0.656492 0.921426 0.109797 -0.762946 -0.503376 -0.81549 -0.556757 -0.851697 -0.901258 -0.71014 -0.623317 -0.940258 -0.873298 -0.924026
internal_weight=742 272 470 142 128 78 144 50 86 49 121 45 65 42 58 328 57 271 76 250 203 52 47 181 136 116
internal_count=742 272 470 142 128 78 144 50 86 49 121 45 65 42 58 328 57 271 76 250 203 52 47 181 136 116
is_linear=0
shrinkage=0.03


Tree=31
num_leaves=25
num_cat=0
split_feature=35 79 60 95 1 66 29 7 10 85 16 42 91 108 79 83 56 53 60 42 1 28 97 6
split_gain=454496 70159 57253.1 54063.1 32495.3 34265.3 27770.9 30220.7 18768.9 22526.9 12941.4 10440.8 7890.13 6858.35 6246.43 5562.18 5075.42 4630.24 4054.7 3892.99 3762.37 1156.66 554.578 507.624
threshold=0.24284972209593572 193.0095323067633 81.247586733166031 5.1381052369622413 134.90687500000001 15.595870210963419 2.5000000000000004 28.744791666666671 26.818750000000005 0.33991718680105526 11.106250000000001 218.35762012012017 66.756944444444443 5.6989498506518244 123.6208402777778 30.537500000000005 31.206250000000004 37.040000000000006 15.277917429063384 138.24092336683421 87.215625000000003 51.462660944206014 -0.45977465697728764 1.493541666666667
decision_type=2 10 2 2 2 2 2 2 2 2 2 10 2 2 10 10 10 8 2 10 2 2 10 2
left_child=4 8 6 11 12 -6 -3 -8 9 -2 -11 -4 -1 -12 19 16 17 -14 -17 -10 21 -18 23 -23
right_child=1 2 3 -5 5 -7 7 -9 14 10 13 -13 15 -15 -16 18 20 -19 -20 -21 -22 22 -24 -25
leaf_value=-0.18501707388804509 1.4751895481348036 2.503164917952136 -0.42595436356284405 1.873757539560849 -0.5319203539817563 1.0378449428081513 2.0401021445714509 0.4994141848450121 0.60458428893770488 -0.017356416620314119 1.1796582081488201 0.49836620417508209 -0.14028517442090169 0.40212779104709623 -0.2637786227038928 -0.17907662859984805 -1.0842452905394813 -0.73062173411250109 -0.71833233489990234 0.031990316328795058 -0.54821846363575832 -0.65315887314932686 -0.63917202621698377 -0.91515628794344461
leaf_weight=25 26 37 21 21 30 20 25 22 20 31 20 21 20 23 27 27 43 31 24 22 37 20 23 122
leaf_count=25 26 37 21 21 30 20 25 22 20 31 20 21 20 23 27 27 43 31 24 22 37 20 23 122
internal_value=0.0314569 0.890252 1.36801 0.668996 -0.612207 0.104024 1.87823 1.34436 0.469087 0.729689 0.45158 0.0370479 -0.708495 0.782361 0.0863749 -0.745569 -0.796248 -0.506267 -0.441778 0.312373 -0.854308 -0.905873 -0.853137 -0.883081
internal_weight=738 316 147 63 422 50 84 47 169 100 74 42 372 43 69 347 296 51 51 42 245 208 165 142
internal_count=738 316 147 63 422 50 84 47 169 100 74 42 372 43 69 347 296 51 51 42 245 208 165 142
is_linear=0
shrinkage=0.03


Tree=32
num_leaves=27
num_cat=0
split_feature=35 94 63 74 106 63 28 39 72 12 79 73 36 0 19 30 82 60 88 80 42 24 79 15 55 84
split_gain=421451 58075.7 41941.2 44132 38159.1 35727.7 26438.9 25677.2 16674.7 13862.1 15409.2 10412.5 8219.37 7681.77 4306.51 4801.29 4054.95 3359.15 3264.49 3187.42 2881.88 2367.66 2835.75 1875.12 1166.44 217.954
threshold=0.25118075958286767 8.4192801788252307 192.74632094723714 111.82881486640436 6.2373313901531553 233.83998284493964 143.46871859296485 217.52518768768775 64.266691207809501 30.250000000000004 224.37727777777783 175.19131944444447 132.79870184254608 16.511875000000003 8.5000000000000018 140.50000000000003 26.554166666666671 15.108095848692187 75.812500000000014 20.808314303013038 158.30772523709172 -16.509261375244591 94.24956250000001 1002.8437500000001 62.34458333333334 28.307638888888892
decision_type=2 2 10 2 2 10 2 10 10 2 10 2 2 2 2 2 8 2 2 10 10 2 8 2 10 2
left_child=6 9 8 4 5 -4 13 -5 11 10 -2 -3 -11 19 15 -15 -16 18 -18 -1 -14 22 -19 -21 -20 -25
right_child=1 2 3 7 -6 -7 -8 -9 -10 12 -12 -13 20 14 16 -17 17 21 24 23 -22 -23 -24 25 -26 -27
leaf_value=-0.46353460175650457 1.0227503307660419 1.4895832511356899 3.0777786755561829 1.4256415866102492 0.90920176368355754 1.3625066697055643 0.26734548007619791 -0.07287076064518519 0.12778824854541471 0.47304321357182094 0.014320004193679145 0.49530193758862356 0.00087125676018851147 -0.56517922117159913 -0.23235079483493515 0.050745795283998758 -0.31986980617046357 -0.85609570537294655 -0.4677422802556645 -0.64321781059791305 -0.50226844549179073 -1.0145730144099185 -0.36508859363469209 -1.0773023934267005 -0.79752613343690559 -0.86560055426831506
leaf_weight=20 35 20 30 20 24 21 28 20 36 20 22 20 20 25 22 20 39 27 21 28 20 37 21 48 37 52
leaf_count=20 35 20 30 20 24 21 28 20 36 20 22 20 20 25 22 20 39 27 21 28 20 37 21 48 37 52
internal_value=-0.00372145 0.839768 1.16112 1.52176 1.9489 2.41127 -0.615539 0.692883 0.602737 0.309771 0.640489 1.01665 -0.0097612 -0.678324 -0.571682 -0.296283 -0.630691 -0.677309 -0.544807 -0.852699 -0.256813 -0.820423 -0.653115 -0.909442 -0.688073 -0.976878
internal_weight=733 308 191 115 75 51 425 40 76 117 57 40 60 397 249 45 204 182 97 148 40 85 48 128 58 100
internal_count=733 308 191 115 75 51 425 40 76 117 57 40 60 397 249 45 204 182 97 148 40 85 48 128 58 100
is_linear=0
shrinkage=0.03


Tree=33
num_leaves=26
num_cat=0
split_feature=35 35 13 1 97 100 17 85 2 83 10 60 25 100 67 86 34 7 39 15 58 107 86 59 13
split_gain=390281 62566.6 32029.6 27308.1 31937.1 26373.2 53790.6 51004.9 29117.7 15273.4 24335.7 12940.7 8689.85 5148.02 6303.12 5184.45 5135.63 4356.5 4352.62 2171.84 1316.66 2499.75 602.458 484.459 240.107
threshold=0.25951179706979971 0.70252747416915695 69.312500000000014 134.90687500000001 -1.4966778427229659 8.6435097061623818 21.550000000000004 0.35701458626571952 2891.9775000000004 22.762500000000003 26.818750000000005 45.802173546885875 10.550000000000002 -5.0838019682923878 14.163922101449279 30.595238095238098 0.98801351631316348 0.64375000000000016 147.94037897822449 999.81875000000014 33.860442417886482 -15.065397038960514 27.886309523809526 71.495842274678125 80.312500000000014
decision_type=2 2 2 2 10 2 2 2 2 10 2 2 2 2 2 2 2 2 10 2 2 2 2 2 2
left_child=3 9 5 12 -5 6 7 -3 -9 -2 11 -11 13 17 -15 16 20 19 -12 -1 21 22 -16 -19 -21
right_child=1 2 -4 4 -6 -7 -8 8 -10 10 18 -13 -14 14 15 -17 -18 23 -20 24 -22 -23 -24 -25 -26
leaf_value=-0.39967400491237637 -0.3790190830826759 2.3899631443149167 0.39110575034068179 -0.49950669331210001 0.9804286892073496 2.3680427889932285 0.013706929513386317 1.6025150259609879 0.23627018617979925 1.4826404818762904 -0.21236694854908977 0.46828028110357428 -0.079781891677690592 -0.16832541923224925 -0.6530661808360706 -0.19192836318697248 -0.30279167118072509 -1.1027543729416869 0.29161198388446463 -0.82414609723620946 -1.0548805715821006 -0.51208788059853216 -0.95215989017486569 -0.79089145075191147 -0.62635710429400204
leaf_weight=23 23 37 38 34 20 21 27 28 28 22 28 25 22 29 21 20 24 46 32 53 21 36 39 21 31
leaf_count=23 23 37 38 34 20 21 27 28 28 22 28 25 22 29 21 20 24 46 32 53 21 36 39 21 31
internal_value=-0.00111261 0.814585 1.1771 -0.574503 0.0564776 1.38468 1.19444 1.53344 0.935522 0.31026 0.460561 0.964084 -0.662693 -0.697608 -0.582505 -0.65561 -0.719565 -0.819249 0.056796 -0.686477 -0.801767 -0.736094 -0.859899 -1.01807 -0.75938
internal_weight=749 309 179 440 54 141 120 93 56 130 107 47 386 364 190 161 141 174 60 107 117 96 60 67 84
internal_count=749 309 179 440 54 141 120 93 56 130 107 47 386 364 190 161 141 174 60 107 117 96 60 67 84
is_linear=0
shrinkage=0.03


Tree=34
num_leaves=25
num_cat=0
split_feature=28 30 63 3 92 94 85 99 44 108 80 93 80 108 74 19 83 54 17 79 25 60 79 7
split_gain=348130 50429.4 49760.8 76326.1 30170.5 42263.6 19893.6 19398.1 13180.8 17809.3 13093.7 11284.5 9628.12 15779 8588.32 7057.87 3607.86 3879.77 2965.6 5586.1 2258.1 5870.87 1449.26 805.999
threshold=154.82495170354761 279.50000000000006 188.86467991809974 23.441041666666667 6.1199917244509807 12.066312304367719 0.36436271502529799 2.631588484826501 27.092500000000001 8.90952391604708 76.763333122153384 75.732142857142875 74.190192153526127 4.4448616906226794 23.989533816841426 66.104166666666686 30.585416666666671 26.556250000000002 23.750000000000004 99.331076388888889 6.200000000000002 11.164145875262998 85.088489734299529 0.77312500000000017
decision_type=2 2 10 2 2 2 2 2 10 2 10 2 10 2 2 2 10 8 2 10 2 2 8 2
left_child=1 8 12 4 -4 -6 -5 -8 16 14 11 -3 13 -2 15 -10 17 -1 -16 -20 22 -22 23 -19
right_child=2 10 3 6 5 -7 7 -9 9 -11 -12 -13 -14 -15 18 -17 -18 20 19 -21 21 -23 -24 -25
leaf_value=-0.38592437162852056 0.10378461681093488 1.1068908689703261 2.5041318378845849 1.1599356930906122 0.49237886469939657 2.2126021817207335 -0.61253026860100879 0.66224621902812608 0.0055907317308279188 0.38926375895738596 -0.20646993503719568 0.10534810772963933 -0.033044992825564216 0.9862189178466797 -1.0556842140717939 -0.63572356492280957 -0.39741831417661161 -0.800693785469487 -0.92363771302359443 -0.20941013489450727 -0.19084022385733468 -0.83486096382141117 -0.6809243988990783 -1.0377221695321504
leaf_weight=25 34 20 35 21 28 24 20 21 38 23 29 20 33 39 21 25 31 52 20 20 20 38 43 60
leaf_count=25 34 20 35 21 28 24 20 21 38 23 29 20 33 39 21 25 31 52 20 20 20 38 43 60
internal_value=-0.00110172 -0.47272 0.89424 1.24645 1.81526 1.3131 0.432141 0.0406257 -0.597133 -0.36478 0.275185 0.620903 0.392128 0.582179 -0.506639 -0.254856 -0.722286 -0.76276 -0.758372 -0.580342 -0.80498 -0.619783 -0.869862 -0.935733
internal_weight=740 485 255 149 87 52 62 41 416 147 69 40 106 73 124 63 269 238 61 40 213 58 155 112
internal_count=740 485 255 149 87 52 62 41 416 147 69 40 106 73 124 63 269 238 61 40 213 58 155 112
is_linear=0
shrinkage=0.03


Tree=35
num_leaves=27
num_cat=0
split_feature=35 38 60 71 52 1 97 40 23 41 58 99 98 7 42 101 1 99 80 101 108 41 108 30 98 15
split_gain=330763 44206.2 42609.2 48607 41965.6 25072 27416.9 22299.2 20858.5 23974.7 18115.4 14282.6 16835.8 7474.41 12661.8 5242.04 3818.92 2213.24 1807.79 1668.98 1434.13 1299.56 1060.64 862.52 362.038 273.339
threshold=0.25951179706979971 181.15836406743946 77.025116127956508 137.25663949275364 289.22791666666672 134.90687500000001 -1.4966778427229659 197.71963689848965 3.1777778726996813 166.47224051633302 20.395192575496804 1.7593902708788522 0.54270816455880289 2.388958333333334 53.803996871432496 2.4821045761456948 94.591875000000002 3.9805206205510042 35.777815754088429 2.9193995878479799 3.4968371236449411 105.35599236713874 3.0587002779971235 216.50000000000003 -5.9158208679670565 1003.1187500000002
decision_type=2 10 2 10 10 2 10 10 2 10 2 2 2 2 8 2 2 2 10 2 2 8 2 2 2 2
left_child=5 8 3 10 -5 13 -7 -4 11 -10 -3 -2 -13 16 -15 -16 17 20 -17 -18 22 23 25 24 -22 -1
right_child=1 2 7 4 -6 6 -8 -9 9 -11 -12 12 -14 14 15 18 19 -19 -20 -21 21 -23 -24 -25 -26 -27
leaf_value=-0.57772873441760353 0.54185471807655539 1.4084319962774003 1.127140051573515 2.8024174154958414 1.0808210262426963 -0.48153579235076899 0.93209435190473278 -0.058568012913068131 1.5437728047370909 0.30834014910298424 0.24102245211601256 0.3130064257671093 -0.70208668494224546 0.27904465947832374 -0.12628200769424436 -0.93918381963457376 -0.25571571091810863 -0.40856766053608484 -0.54854876947402953 -0.62422173803267267 -0.58282711744308469 -0.57744687340476286 -0.44824316173791884 -0.99739561367034901 -0.85981016235351559 -0.7907901406288147
leaf_weight=25 37 20 23 30 25 29 20 35 23 36 29 28 29 20 20 20 26 20 39 22 20 21 23 59 24 47
leaf_count=25 37 20 23 30 25 29 20 35 23 36 29 28 29 20 20 20 26 20 39 22 20 21 23 59 24 47
internal_value=0.000801609 0.739845 1.08421 1.44556 2.05315 -0.534837 0.102558 0.422761 0.370547 0.807652 0.736155 0.0905796 -0.206645 -0.615806 -0.384568 -0.553959 -0.693959 -0.744162 -0.694414 -0.433907 -0.772813 -0.850258 -0.663924 -0.899792 -0.749658 -0.725738
internal_weight=750 315 162 104 55 435 49 58 153 59 49 94 57 386 99 79 287 239 59 48 219 124 95 103 44 72
internal_count=750 315 162 104 55 435 49 58 153 59 49 94 57 386 99 79 287 239 59 48 219 124 95 103 44 72
is_linear=0
shrinkage=0.03


Tree=36
num_leaves=30
num_cat=0
split_feature=0 79 63 30 35 55 53 80 108 72 24 66 60 0 5 79 58 24 0 56 87 37 12 60 90 108 92 91 105
split_gain=348046 59091.3 47499.9 36388.2 35491.5 32691.2 25175 21859.9 19299.2 24845 14389.2 10043.9 11714.8 5981.31 6020.84 5185.72 5183.46 4356.72 5614.27 3455.72 3103.28 2905.94 2406.04 1757.52 1120.28 675.719 503.045 481.711 47.1238
threshold=62.907916666666672 193.0095323067633 217.58430961865204 278.50000000000006 0.8977101403255705 310.07458333333335 292.40333333333336 76.763333122153384 8.90952391604708 11.029223466267439 -6.7695088295259689 68.215475783419194 34.591840171420181 16.511875000000003 96.470833333333346 99.802389492753647 20.395192575496804 -11.528409051544918 31.491875000000004 99.595833333333346 0.68556828417826043 56.235604434907025 32.95000000000001 12.812319263238033 80.479166666666671 3.4968371236449411 2.3646827489855338 75.5763888888889 -19.230176144160989
decision_type=2 10 10 2 2 10 10 10 2 10 2 2 2 2 2 10 2 2 2 10 2 10 2 2 10 2 2 2 2
left_child=3 10 -3 8 -4 6 -6 15 13 -10 -2 12 -12 22 17 -5 -14 18 21 -20 -19 -15 24 27 25 -1 -25 -23 -27
right_child=1 2 4 7 5 -7 -8 -9 9 -11 11 -13 16 14 -16 -17 -18 20 19 -21 -22 23 -24 26 -26 28 -28 -29 -30
leaf_value=-0.74615879559516907 -0.21044315156936644 2.5888505633547898 0.17697326803207397 0.92941232686693021 0.3181436322927475 2.2049959545135493 1.6456746807694433 -0.44883913087844846 -0.56441328790452738 0.81147717033113753 0.99999686743902116 1.189514261654445 0.55297081538609094 -0.24310979442937031 -0.021510472978864395 0.26832777366042138 -0.048635054931921114 -0.55074712455272679 -0.4181467718482017 0.087241284166063568 -1.0946814975531205 -0.38033821310847998 -0.45214966990730976 -0.62615810010168294 -0.57745681626456125 -0.8172864298387007 -0.89870845794677723 -0.59604356759931976 -1.1048974146161761
leaf_weight=39 24 23 29 21 29 29 23 29 26 20 22 20 20 20 20 23 33 23 29 20 22 23 21 26 20 21 29 40 27
leaf_count=39 24 23 29 21 29 29 23 29 26 20 22 20 20 20 20 23 33 23 29 20 22 23 21 26 20 21 29 40 27
internal_value=0.0234003 0.930077 1.36293 -0.435425 1.08558 1.40476 0.925292 0.181375 -0.541298 0.0383375 0.438979 0.603526 0.433667 -0.611381 -0.522128 0.597488 0.184422 -0.565007 -0.496016 -0.214247 -0.834687 -0.593804 -0.781687 -0.650701 -0.841578 -0.895043 -0.783349 -0.524467 -0.998315
internal_weight=751 252 133 499 110 81 52 73 426 46 119 95 75 380 252 44 53 232 187 49 45 138 128 118 107 87 55 63 48
internal_count=751 252 133 499 110 81 52 73 426 46 119 95 75 380 252 44 53 232 187 49 45 138 128 118 107 87 55 63 48
is_linear=0
shrinkage=0.03


Tree=37
num_leaves=26
num_cat=0
split_feature=28 35 79 63 76 30 102 85 4 28 41 58 90 85 65 16 15 5 60 100 89 28 15 74 49
split_gain=306996 42734.4 31068 45797.9 43214.3 50706.2 30866.6 17478 10629.4 10214 15874.9 7986.74 10135.8 4873 4046.72 3381.9 5003.23 2973.16 2622.73 1936.99 1237.26 1184.43 729.433 243.705 180.158
threshold=156.37104627678261 0.24284972209593572 193.0095323067633 217.58430961865204 94.624648278473657 344.50000000000006 2.0348966109051174 0.33991718680105526 18.886458333333334 66.398810801144506 52.614493919885554 19.792009999640783 73.104166666666671 0.42191121409770455 128.45513888888885 15.058333333333335 998.64791666666667 94.667916666666699 7.8761983395521495 -2.0243706181600345 76.458333333333357 45.134452160493829 1001.0354166666668 4.85486448496217 21.757291666666671
decision_type=2 2 10 10 2 2 2 2 2 2 8 2 10 2 2 2 2 2 2 2 10 2 2 2 8
left_child=1 9 7 -4 6 -6 -5 -2 -3 19 -11 -9 14 -10 -13 -12 -17 18 -18 21 -20 -1 -23 -24 -22
right_child=2 8 3 4 5 -7 -8 11 13 10 15 12 -14 -15 -16 16 17 -19 20 -21 24 22 23 -25 -26
leaf_value=-0.97390562653541557 1.0941138052940369 0.53668086638576107 2.3454727492332457 2.3577616011578102 -0.33554033367257369 1.5034038550513131 0.81369277060031886 0.74288531802270719 0.18810710163116456 0.32821925417560599 -0.78658026981353757 -0.46359611164439807 0.62567559003829953 -0.38437849636735583 0.11427358600226314 -0.1377328720492752 -0.31238123916089533 -0.19711908476693288 -0.85150865372489482 -0.47457082915306087 -0.65040231845208574 -0.50361898557706308 -0.61150973224639893 -0.80135558402538298 -0.43963645594460621
leaf_weight=31 31 37 24 22 37 20 27 22 24 22 34 21 20 28 21 37 23 20 33 29 20 21 29 79 20
leaf_count=31 31 37 24 22 37 20 27 22 24 22 34 21 20 28 21 37 23 20 33 29 20 21 29 79 20
internal_value=-0.00226192 -0.437868 0.861877 1.17916 0.895634 0.324499 1.54024 0.496139 0.154995 -0.5705 -0.422352 0.265182 0.0865729 -0.121591 -0.178723 -0.51193 -0.446186 -0.542553 -0.611745 -0.731239 -0.700569 -0.774524 -0.719487 -0.756456 -0.558313
internal_weight=732 487 245 130 106 57 49 115 89 398 209 84 62 52 42 187 153 116 96 189 73 160 129 108 40
internal_count=732 487 245 130 106 57 49 115 89 398 209 84 62 52 42 187 153 116 96 189 73 160 129 108 40
is_linear=0
shrinkage=0.03


Tree=38
num_leaves=28
num_cat=0
split_feature=28 35 12 3 0 85 100 4 85 16 23 64 71 0 9 62 40 49 99 17 19 0 74 24 12 74 68
split_gain=326987 40580.4 39798.5 35130.9 32817.7 18237.4 17984.5 15173.9 12465.2 15956.4 10309.2 9418.5 8057.85 5949.54 3970.87 3660.23 4273.85 2921.06 1843.86 1549.64 1163 1468.27 855.05 632.924 444.019 269.218 196.433
threshold=154.82495170354761 0.24284972209593572 29.150000000000002 23.441041666666667 151.99645833333338 0.36436271502529799 6.6355684019675536 18.886458333333334 0.54823205508534323 11.293750000000001 3.9086547775492044 61.523762889261434 67.801873188405807 16.511875000000003 57.294630625000003 27.947242572801873 53.727137640713295 31.683750000000003 3.1924682606043056 31.350000000000005 80.354166666666671 25.449375000000007 3.1504456933316036 -22.122468730222348 31.950000000000003 8.3210765130684123 7.6646313856750181
decision_type=2 2 2 2 2 2 2 2 2 2 2 10 10 2 2 8 8 8 2 2 2 2 2 2 2 2 2
left_child=1 10 3 4 6 -5 -2 -3 9 -4 13 -10 -9 18 15 16 -15 19 22 20 21 25 -1 -24 -17 -18 -25
right_child=2 7 8 5 -6 -7 -8 12 11 -11 -12 -13 -14 14 -16 24 17 -19 -20 -21 -22 -23 23 26 -26 -27 -28
leaf_value=-0.5507100057601928 0.56796746257692576 0.63912813857623507 0.23736175440972851 1.2806047537534133 2.2826306907335914 0.2035483073729735 1.6671326048557575 0.22586791877746581 0.41962673372692527 1.2627253225674995 0.100115921156747 -0.42760821035930086 -0.51657451469983373 -0.086748236060142508 -0.10776575228442316 -0.855110806748271 -0.53916212422507148 -0.27214229146639501 -0.46744366950988764 -0.33267719915934973 -0.87125637141141021 -0.37796112343668936 -0.66511089857886818 -0.95482082592357287 -0.5905647298693657 -0.79015143394470211 -0.70212236268179762
leaf_weight=20 31 34 30 22 35 38 25 24 26 25 20 20 27 24 22 31 20 35 24 20 21 27 33 54 23 23 20
leaf_count=20 31 34 30 22 35 38 25 24 26 25 20 20 27 24 22 31 20 35 24 20 21 27 33 54 23 23 20
internal_value=0.00417526 -0.438319 0.8839 1.19136 1.5619 0.612988 1.07931 0.157583 0.417051 0.717662 -0.559872 0.0500032 -0.169565 -0.593289 -0.497993 -0.53567 -0.461922 -0.522585 -0.74424 -0.598418 -0.652572 -0.575619 -0.792487 -0.832162 -0.75522 -0.688319 -0.896796
internal_weight=754 502 252 151 91 60 56 85 101 55 417 46 51 397 246 224 170 146 151 111 91 70 127 107 54 43 74
internal_count=754 502 252 151 91 60 56 85 101 55 417 46 51 397 246 224 170 146 151 111 91 70 127 107 54 43 74
is_linear=0
shrinkage=0.03


Tree=39
num_leaves=28
num_cat=0
split_feature=35 10 83 63 55 83 56 17 42 0 77 93 108 6 0 36 24 76 95 82 102 87 5 102 102 104 79
split_gain=313483 52725.3 31732.3 46745.9 31462.8 29539.7 20440.8 16191.3 17743.1 12817.5 10100.6 8650.19 6827.07 6417.42 4300.8 4173.26 2823.2 1973.74 1957.7 1850.34 1207.28 1186.57 986.773 903.814 292.126 322.336 64.058
threshold=0.25951179706979971 22.212500000000002 22.762500000000003 192.74632094723714 304.34375000000006 20.081250000000004 167.02562500000002 18.550000000000004 170.07796584123642 33.559791666666676 102.09366071428572 63.702380952380963 4.1276204945767514 9.1525000000000016 16.511875000000003 60.537894502969614 -11.4184919866951 19.514823534024512 -8.9156610472054592 30.287500000000005 -18.976351587466858 0.28192489553055122 58.921250000000008 -21.458822542926118 -18.16678121576502 -16.348177741861981 66.555381642512103
decision_type=2 2 10 10 10 10 10 2 10 2 8 2 2 2 2 2 2 2 2 10 2 2 2 2 2 10 10
left_child=9 4 -3 7 5 -2 -7 8 -4 14 12 -9 -11 -13 19 -16 -12 21 -19 20 23 -17 -23 26 -20 -26 -1
right_child=1 2 3 -5 -6 6 -8 11 -10 10 16 13 -14 -15 15 17 -18 18 24 -21 -22 22 -24 -25 25 -27 -28
leaf_value=-0.82753692626953124 0.2041090210487968 -0.48030041858553885 1.1748069573851192 1.8783106694902691 1.9388268989759188 2.0026483676744542 0.80748647236575677 0.51085207855472203 0.13891549010095852 -0.31341540398342266 -0.26569113152367724 0.10696379574862393 0.4026928023781095 -0.56530673137732912 -0.17904733265599898 -0.59251034036278727 -0.7785889299891211 -0.43348544005689948 -0.59514262806285512 -0.42897291728428427 -0.88515263665806165 -0.17134908260650591 -0.463249827003479 -0.44799492835998533 -0.95850630376649937 -0.66090388093675889 -0.60414623997428196
leaf_weight=25 37 31 33 20 35 22 35 25 27 20 20 32 27 20 30 31 21 28 21 20 65 21 24 20 22 20 21
leaf_count=25 37 31 33 20 35 22 35 25 27 20 20 32 27 20 30 31 21 28 21 20 65 21 24 20 22 20 21
internal_value=-0.00739536 0.709223 0.385442 0.558342 1.17449 0.87249 1.29535 0.353432 0.718575 -0.528853 -0.202413 0.06334 0.0977849 -0.157389 -0.610585 -0.512377 -0.540678 -0.570834 -0.669444 -0.734497 -0.777539 -0.445601 -0.333716 -0.659926 -0.765903 -0.835456 -0.740578
internal_weight=753 317 188 157 129 94 57 137 60 436 88 77 47 52 348 197 41 167 91 151 131 76 45 66 63 42 46
internal_count=753 317 188 157 129 94 57 137 60 436 88 77 47 52 348 197 41 167 91 151 131 76 45 66 63 42 46
is_linear=0
shrinkage=0.03


Tree=40
num_leaves=29
num_cat=0
split_feature=69 57 100 70 72 9 30 64 83 56 12 19 80 6 36 15 53 83 94 79 62 1 86 102 82 81 94 17
split_gain=258292 46190.3 28882.5 48396.7 47711.3 31815.9 22944.8 28404.6 21749.2 21732.5 14615.5 8428.1 7668.21 5776.6 5245.13 3435.05 3653.69 3260.6 2511.26 2049.84 1789.48 1659.74 1152.71 775.349 624.923 721.078 426.707 384.556
threshold=98.602202380952392 93.733218298650684 8.6435097061623818 81.511941963361394 70.498195551636286 42.62970437500001 264.50000000000006 45.309236822063099 23.133333333333336 158.23437500000003 25.050000000000004 10.187500000000002 77.023987683185808 9.1525000000000016 121.54542504187607 1009.8145833333334 25.138541666666672 30.585416666666671 2.8067806106405411 51.81633333333334 22.424549866576825 40.46229166666668 28.771428571428576 -22.725990236659431 27.618750000000002 27.193750000000005 2.9826585348843877 26.650000000000002
decision_type=10 2 2 10 10 2 2 10 10 10 2 2 10 2 2 2 8 10 2 10 10 2 2 2 10 2 2 2
left_child=1 15 3 4 9 -5 11 -8 10 -2 -7 -3 13 -9 20 16 -1 19 -19 -18 -13 26 24 -24 25 -23 -21 -26
right_child=2 6 -4 5 -6 8 7 12 -10 -11 -12 14 -14 -15 -16 -17 17 18 -20 21 -22 22 23 -25 27 -27 -28 -29
leaf_value=-0.23163176721996728 1.4063547681272031 0.12736797084510323 1.8157443845959811 1.2571382756336875 2.1074750945397787 0.34672753385135102 1.0174481989656177 0.5417646044492721 0.82049190112522663 0.244975119966727 -0.63393942797183989 -0.51408987402915951 -0.40355104981825268 -0.12657184192262916 -0.91986726249967299 -0.22662460795764267 -0.36176433801651003 -0.13627487450838088 -0.59789418850626264 -0.94829171961004077 -0.11048291138240268 -0.47437169178672456 -0.50748933723994671 -0.78640779135657135 -0.55636539914391259 -0.779455300244418 -0.66487906227941096 -0.34825371265411376
leaf_weight=26 23 24 25 22 34 20 34 23 20 38 39 20 28 22 20 28 23 23 20 32 20 22 20 60 21 21 22 28
leaf_count=26 23 24 25 22 34 20 34 23 20 38 39 20 28 22 20 28 23 23 20 32 20 22 20 60 21 21 22 28
internal_value=0.00546608 -0.349809 0.866422 0.736733 1.21946 0.275179 0.0247389 0.314805 -0.0105746 0.698493 -0.301272 -0.344106 -0.0217808 0.219374 -0.531692 -0.556043 -0.584247 -0.614746 -0.35969 -0.657177 -0.319903 -0.685515 -0.630209 -0.723804 -0.541914 -0.637695 -0.847015 -0.446788
internal_weight=758 537 221 196 95 101 191 107 79 61 59 84 73 45 60 346 318 292 43 249 40 226 172 80 92 43 54 49
internal_count=758 537 221 196 95 101 191 107 79 61 59 84 73 45 60 346 318 292 43 249 40 226 172 80 92 43 54 49
is_linear=0
shrinkage=0.03


Tree=41
num_leaves=27
num_cat=0
split_feature=28 63 30 63 53 45 94 60 80 44 19 24 85 70 79 74 83 79 1 42 23 1 16 71 40 80
split_gain=267141 47415.9 38753.1 38128.5 27098 50530.9 54036.2 32208.8 14156.8 13259.6 14036.1 9441.06 9619.3 7586.54 6719.35 3909.46 3626.78 3389.79 2559.91 3655.76 3227.76 1616.64 1123.49 622.696 212.312 151.745
threshold=154.82495170354761 198.57359942980062 278.50000000000006 217.58430961865204 141.41937500000003 262.16150362318848 12.671335667839104 73.93674416507001 76.763333122153384 27.092500000000001 19.687500000000004 -6.7695088295259689 0.33991718680105526 51.308684979052394 99.802389492753647 47.097574604981858 30.585416666666671 90.934135567632865 39.06270833333334 55.191988555078687 -5.6025609558719713 99.28166666666668 17.581250000000001 24.776013888888894 64.181017525035784 36.067645644121178
decision_type=2 10 2 10 10 10 2 2 10 10 2 2 2 10 10 2 10 8 2 8 2 2 2 8 8 10
left_child=2 11 9 -3 -5 6 7 -6 14 16 -11 -2 -13 -14 -4 17 18 -12 24 20 -20 -19 -21 25 -1 -24
right_child=1 3 8 4 5 -7 -8 -9 -10 10 15 12 13 -15 -16 -17 -18 21 19 22 -22 -23 23 -25 -26 -27
leaf_value=-0.90578636018853431 -0.10264510261601414 2.2730950102329253 1.0130495388167244 -0.047488383225032259 1.6652789058004107 0.064686976713793615 2.8797621481759208 0.084560745784214561 -0.22411190429329872 0.23452016507182269 -0.54346007572638022 0.96620687543600792 0.58381918095052243 -0.085771480928589078 0.23901204488494179 -0.76659612268209454 -0.30169589061396462 0.025309426486492155 -0.5594138288497924 -0.82047663500434476 -0.045619793960026328 -0.31046340138747774 -0.72455550143593228 -0.46107455938450381 -0.66704448509216308 -0.52868720650672907
leaf_weight=37 28 24 20 20 27 27 20 20 29 39 36 29 35 26 21 23 34 23 24 37 20 28 37 36 24 23
leaf_count=37 28 24 20 20 27 27 20 20 29 39 36 29 35 26 21 23 34 23 24 37 20 28 37 36 24 23
internal_value=0.0380486 0.821911 -0.371485 1.19799 0.953848 1.16516 1.60116 1.00841 0.278999 -0.480047 -0.250144 0.375724 0.524042 0.30164 0.631722 -0.422544 -0.604609 -0.323909 -0.646439 -0.580915 -0.332075 -0.161462 -0.660145 -0.590529 -0.824129 -0.659371
internal_weight=747 256 491 138 114 94 67 47 70 421 149 118 90 61 41 110 272 87 238 177 44 51 133 96 61 60
internal_count=747 256 491 138 114 94 67 47 70 421 149 118 90 61 41 110 272 87 238 177 44 51 133 96 61 60
is_linear=0
shrinkage=0.03


Tree=42
num_leaves=26
num_cat=0
split_feature=35 100 19 53 42 106 94 38 9 53 99 30 101 28 42 70 109 77 74 80 78 35 87 108 75
split_gain=265648 47993.9 26071.2 24989.9 33610.4 38293.7 30896.5 22911.2 18824.6 18674.4 8614.88 8116.4 7207.25 5965.42 4522.29 4518.74 3784.29 4473.74 3624.75 1842.73 2471.75 1430.3 906.705 1096.69 348.52
threshold=0.68389408864483059 -0.88930558076417487 24.687500000000004 136.7864764492754 305.5548423423424 6.0674551939425578 8.4192801788252307 256.59232357357365 39.500945000000009 215.06916666666669 2.5849269467343694 277.50000000000006 2.7089972610274784 69.993195636623767 108.78346943048578 60.173487297373072 7.4109230117098486 82.785868918219478 31.621666568129953 20.808314303013038 44.07826965372557 -0.41327860778290426 0.46130372541028153 4.1276204945767514 66.436309523809527
decision_type=2 2 2 10 10 2 2 10 2 10 2 2 2 2 10 10 2 10 2 10 10 2 2 2 2
left_child=1 11 8 -2 5 6 -5 -8 -3 -7 14 13 -10 19 -4 -14 18 -18 22 -1 21 24 23 -15 -21
right_child=3 2 10 4 -6 9 7 -9 12 -11 -12 -13 15 16 -16 -17 17 -19 -20 20 -22 -23 -24 -25 -26
leaf_value=-0.33212418351854595 0.29852415659106696 1.2279980169913987 -0.35718575054948976 0.4362166498767005 2.1426115841335722 0.8189573030038314 2.1291939148536092 0.81827812654631471 -0.14211705696582794 -0.41863421461798928 -0.72326714144812687 -0.050737578241448651 0.75525477865467905 -0.45731974908283779 0.23270382227897646 0.14560360230181527 -0.42995965564573135 0.052960740680044346 -0.83860826906950581 -0.56832625565990325 -0.41182947584560936 -0.88885155473436628 -0.52417505552691801 -0.15347544007576427 -0.73829370158059249
leaf_weight=20 38 21 21 26 26 21 38 20 29 21 26 37 22 20 24 22 36 32 22 61 34 41 30 25 41
