tree
version=v4
num_class=1
num_tree_per_iteration=1
label_index=0
max_feature_idx=109
objective=regression
feature_names=pm2_5_mean pm10_mean co_mean no_mean no2_mean o3_mean so2_mean nh3_mean num_hours o3_8h_max_ppb temp_mean temp_min temp_max humidity_mean dew_point_mean pressure_mean wind_speed_mean wind_speed_max wind_gust_max clouds_mean visibility_mean rain_sum snow_sum wind_u_mean wind_v_mean temp_range is_complete_day imputed aqi_daily day_of_week day_of_year month is_weekend week_of_year doy_sin doy_cos aqi_daily_lag1 aqi_daily_lag2 aqi_daily_lag3 aqi_daily_lag4 aqi_daily_lag5 aqi_daily_lag6 aqi_daily_lag7 pm2_5_mean_lag1 pm2_5_mean_lag2 pm2_5_mean_lag3 pm2_5_mean_lag4 pm2_5_mean_lag5 pm2_5_mean_lag6 pm2_5_mean_lag7 pm10_mean_lag1 pm10_mean_lag2 pm10_mean_lag3 pm10_mean_lag4 pm10_mean_lag5 pm10_mean_lag6 pm10_mean_lag7 aqi_roll_mean_3 aqi_roll_std_3 aqi_roll_mean_7 aqi_roll_std_7 aqi_roll_mean_14 aqi_roll_std_14 aqi_roll_mean_30 aqi_roll_std_30 pm25_roll_mean_3 pm25_roll_std_3 pm25_roll_mean_7 pm25_roll_std_7 pm25_roll_mean_14 pm25_roll_std_14 pm25_roll_mean_30 pm25_roll_std_30 pm10_roll_mean_3 pm10_roll_std_3 pm10_roll_mean_7 pm10_roll_std_7 pm10_roll_mean_14 pm10_roll_std_14 pm10_roll_mean_30 pm10_roll_std_30 temp_mean_lag1 temp_mean_lag2 temp_mean_lag3 temp_mean_roll_mean_3 temp_mean_roll_std_3 temp_mean_roll_mean_7 temp_mean_roll_std_7 humidity_mean_lag1 humidity_mean_lag2 humidity_mean_lag3 humidity_mean_roll_mean_3 humidity_mean_roll_std_3 humidity_mean_roll_mean_7 humidity_mean_roll_std_7 wind_u_mean_lag1 wind_u_mean_lag2 wind_u_mean_lag3 wind_u_mean_roll_mean_3 wind_u_mean_roll_std_3 wind_u_mean_roll_mean_7 wind_u_mean_roll_std_7 wind_v_mean_lag1 wind_v_mean_lag2 wind_v_mean_lag3 wind_v_mean_roll_mean_3 wind_v_mean_roll_std_3 wind_v_mean_roll_mean_7 wind_v_mean_roll_std_7 aqi_change_rate
feature_infos=[3.2025000000000001:616.58416666666665] [7.335:727.84458333333339] [199.15916666666666:8809.7250000000004] [0.14041666666666666:108.66958333333334] [1.5658333333333332:190.92708333333334] [15.069166666666666:145.91041666666666] [0.99124999999999996:68.564583333333331] [0:102.25625000000001] none [14.790267499999999:176.00265625000003] [14.854166666666666:33.404166666666669] [8.9000000000000004:30.5] [19.399999999999999:41.600000000000001] [19.666666666666668:89.916666666666671] [-9.7791666666666668:27.520833333333332] [992.13333333333333:1021.0333333333333] [5.6708333333333334:38.666666666666664] [9.9000000000000004:46.600000000000001] [22:68.400000000000006] [0:100] none [0:69.5] none [-20.75033541925556:24.207842000746769] [-31.955843386774617:32.357982578309056] [1.3000000000000007:15.599999999999998] none none [20.310513888888895:473.69301200800538] [0:6] [1:365] [1:12] [0:1] [1:52] [-0.99999073973619013:0.99999073973619013] [-0.99996295911626554:1] [20.310513888888895:473.69301200800538] [20.310513888888895:473.69301200800538] [20.310513888888895:473.69301200800538] [20.310513888888895:473.69301200800538] [20.310513888888895:473.69301200800538] [20.310513888888895:473.69301200800538] [20.310513888888895:473.69301200800538] [3.2025000000000001:616.58416666666665] [3.2025000000000001:616.58416666666665] [3.2025000000000001:616.58416666666665] [3.2025000000000001:616.58416666666665] [3.2025000000000001:616.58416666666665] [3.2025000000000001:616.58416666666665] [3.2025000000000001:616.58416666666665] [7.335:727.84458333333339] [7.335:727.84458333333339] [7.335:727.84458333333339] [7.335:727.84458333333339] [7.335:727.84458333333339] [7.335:727.84458333333339] [7.335:727.84458333333339] [23.287928240740744:420.38816868068869] [0.36225390695057991:223.01663741237891] [28.7995980489418:330.95011380746035] [1.0051693309337055:143.98224536856443] [34.520902001560238:299.78325252973406] [4.0745779966308149:127.01183900955438] [54.542583670214306:276.27722359370802] [7.5247141395423887:108.03662466088053] [3.6938888888888868:414.78416666666664] [0.17190130270067416:291.14502714030704] [5.703035714285714:331.91726190476186] [0.47796827368254424:215.84586975494693] [8.0616071428571434:279.02226190476188] [1.3003994232156659:174.324293385392] [12.978097222222223:253.39080857487926] [2.2282575530630249:159.67865982247835] [8.9851388888888888:521.65083333333337] [0.93673644856754534:322.32901563701631] [17.508571428571429:426.39926501035188] [2.823271417950711:233.30853092118917] [27.165773809523809:354.93467132505168] [6.3079273066928963:195.26238333156573] [40.605972222222221:328.48638043478257] [13.414903642726479:181.14645426343196] [14.854166666666666:33.404166666666669] [14.854166666666666:33.404166666666669] [14.854166666666666:33.404166666666669] [15.222222222222221:32.720833333333339] [0.004166666601820114:3.9126582620932324] [16.284523809523812:32.294047619047618] [0.058070553236756951:3.293967073406701] [19.666666666666668:89.916666666666671] [19.666666666666668:89.916666666666671] [19.666666666666668:89.916666666666671] [24.958333333333325:87.861111111111086] [0.15023130314661598:28.236671306679963] [33.678571428571431:87.178571428571431] [0.29462782549440319:23.855888636121843] [-20.75033541925556:24.207842000746769] [-20.75033541925556:24.207842000746769] [-20.75033541925556:24.207842000746769] [-16.266592414656426:15.737500711044232] [0.036082192266263739:16.862732605415268] [-13.344778704165803:10.743463918782268] [0.43440262356427911:14.190189193664683] [-31.955843386774617:32.357982578309056] [-31.955843386774617:32.357982578309056] [-31.955843386774617:32.357982578309056] [-29.027156770813885:29.070768265891612] [0.090583250002317123:24.163855168486474] [-27.889031488706546:15.695094555819487] [1.1945871489869737:27.118552654428147] [-296.13176417042041:436.92353799060487]
tree_sizes=558 573 579 577 570 574 577 576 576 582 583 496 581 578 580 581 579 583 582 577 574 578 497 576 579 498 567 577 575 582 575 499 579 583 582 580 500 496 581 582 501 581 578 580 498 583 498 579 582 584 497 576 584 498 578 498 499 582 496 584 576 583 499 495 498

Tree=0
num_leaves=5
num_cat=0
split_feature=35 35 57 100
split_gain=2.43485e+06 191953 129653 15513.9
threshold=0.39752808894539271 0.7987497853924842 91.479998447446846 -4.6987150363929322
decision_type=2 2 2 2
left_child=2 -2 3 -1
right_child=1 -3 -4 -5
leaf_value=128.93139244167014 131.98425062773975 133.4580137776781 130.11905969809538 129.3085700420234
leaf_weight=149 121 114 121 141
leaf_count=149 121 114 121 141
internal_value=130.607 132.699 129.41 129.115
internal_weight=646 235 411 290
internal_count=646 235 411 290
is_linear=0
shrinkage=1


Tree=1
num_leaves=5
num_cat=0
split_feature=35 35 57 28
split_gain=2.4372e+06 201605 165698 20845.1
threshold=0.42110087079608943 0.80898702767051955 93.733218298650684 65.78893955650932
decision_type=2 2 2 2
left_child=2 -2 3 -1
right_child=1 -3 -4 -5
leaf_value=-1.6757448628582792 1.3641618372391069 2.8738644366654711 -0.33196276347880738 -1.2452940086603335
leaf_weight=163 117 118 116 138
leaf_count=163 117 118 116 138
internal_value=0.0233426 2.12224 -1.15949 -1.4784
internal_weight=652 235 417 301
internal_count=652 235 417 301
is_linear=0
shrinkage=0.0257712


Tree=2
num_leaves=5
num_cat=0
split_feature=35 35 65 100
split_gain=1.99633e+06 335487 67437 13933.7
threshold=0.26780438508363441 0.70252747416915695 26.936597222222186 -4.6987150363929322
decision_type=2 2 2 2
left_child=2 -2 3 -1
right_child=1 -3 -4 -5
leaf_value=-1.6712257504353483 0.64954826146595279 2.4973638919009487 -0.75206961581749554 -1.2884619972861133
leaf_weight=136 118 146 120 118
leaf_count=136 118 146 120 118
internal_value=-0.0443767 1.67145 -1.25555 -1.49341
internal_weight=638 264 374 254
internal_count=638 264 374 254
is_linear=0
shrinkage=0.0257712


Tree=3
num_leaves=5
num_cat=0
split_feature=35 35 36 109
split_gain=2.16807e+06 303650 70137 10669.4
threshold=0.26780438508363441 0.70252747416915695 84.713349427753954 1.1498237716359549
decision_type=2 2 2 2
left_child=2 -2 3 -1
right_child=1 -3 -4 -5
leaf_value=-1.6696451729729316 0.73540540357517614 2.4722054879360806 -0.78696636803066911 -1.3367584228399407
leaf_weight=137 117 156 134 120
leaf_count=137 117 156 134 120
internal_value=-0.034488 1.72787 -1.26498 -1.51422
internal_weight=664 273 391 257
internal_count=664 273 391 257
is_linear=0
shrinkage=0.0257712


Tree=4
num_leaves=5
num_cat=0
split_feature=35 35 0 0
split_gain=2.11242e+06 157266 139060 15687.9
threshold=0.39752808894539271 0.80898702767051955 32.254583333333336 19.42229166666667
decision_type=2 2 2 2
left_child=2 -2 3 -1
right_child=1 -3 -4 -5
leaf_value=-1.5393827789286754 1.2206554285177167 2.5221106789710284 -0.3353691362862351 -1.1612215960762626
leaf_weight=188 119 128 113 119
leaf_count=188 119 128 113 119
internal_value=0.0039024 1.8951 -1.10831 -1.3928
internal_weight=667 247 420 307
internal_count=667 247 420 307
is_linear=0
shrinkage=0.0257712


Tree=5
num_leaves=5
num_cat=0
split_feature=100 12 6 0
split_gain=1.82951e+06 375463 116180 23272.6
threshold=0.1519654068422607 29.150000000000002 3.3487500000000003 17.466666666666672
decision_type=2 2 2 2
left_child=2 -2 3 -1
right_child=1 -3 -4 -5
leaf_value=-1.6580021314882458 2.5130720116357139 0.63333338330781985 -0.48018223562485152 -1.1606059717131869
leaf_weight=123 153 131 141 127
leaf_count=123 153 131 141 127
internal_value=0.0717474 1.64602 -1.07171 -1.40533
internal_weight=675 284 391 250
internal_count=675 284 391 250
is_linear=0
shrinkage=0.0257712


Tree=6
num_leaves=5
num_cat=0
split_feature=35 35 57 100
split_gain=1.77558e+06 203537 136292 14816.7
threshold=0.39752808894539271 0.80898702767051955 91.479998447446846 -4.6987150363929322
decision_type=2 2 2 2
left_child=2 -2 3 -1
right_child=1 -3 -4 -5
leaf_value=-1.4653541672128616 1.0924941027232489 2.6033159638651853 -0.27504295469432471 -1.091373949273615
leaf_weight=147 121 116 129 135
leaf_count=147 121 116 129 135
internal_value=0.055485 1.83198 -0.968918 -1.28633
internal_weight=648 237 411 282
internal_count=648 237 411 282
is_linear=0
shrinkage=0.0257712


Tree=7
num_leaves=5
num_cat=0
split_feature=35 35 28 93
split_gain=1.65488e+06 263987 72712.6 8081.46
threshold=0.26780438508363441 0.70252747416915695 82.75843168812591 75.794642857142875
decision_type=2 2 2 2
left_child=2 -2 3 -1
right_child=1 -3 -4 -5
leaf_value=-1.1821595093025092 0.61336453956374259 2.226620276356881 -0.56733966217697551 -1.4706079926169011
leaf_weight=122 118 157 120 137
leaf_count=122 118 157 120 137
internal_value=0.0125053 1.53439 -1.09177 -1.33474
internal_weight=654 275 379 259
internal_count=654 275 379 259
is_linear=0
shrinkage=0.0257712


Tree=8
num_leaves=5
num_cat=0
split_feature=35 35 25 15
split_gain=1.7178e+06 286823 55000.9 8013.91
threshold=0.26780438508363441 0.70860043010605911 5.950000000000002 1002.7812500000001
decision_type=2 2 2 2
left_child=2 -2 3 -1
right_child=1 -3 -4 -5
leaf_value=-1.1885709734265466 0.58951292226685315 2.2811477543968839 -0.71031829768850019 -1.4909762851567592
leaf_weight=114 114 160 150 119
leaf_count=114 114 160 150 119
internal_value=0.0193554 1.57733 -1.09523 -1.34302
internal_weight=657 274 383 233
internal_count=657 274 383 233
is_linear=0
shrinkage=0.0257712


Tree=9
num_leaves=5
num_cat=0
split_feature=35 35 57 100
split_gain=1.49617e+06 245677 68151.3 8702.47
threshold=0.26780438508363441 0.69635043120606444 89.265373017327974 -4.6987150363929322
decision_type=2 2 2 2
left_child=2 -2 3 -1
right_child=1 -3 -4 -5
leaf_value=-1.3973172621830963 0.56072177768612341 2.1074789148367827 -0.51253941217136367 -1.1050907201689053
leaf_weight=145 120 158 115 127
leaf_count=145 120 158 115 127
internal_value=-0.00245362 1.43982 -1.03851 -1.26088
internal_weight=665 278 387 272
internal_count=665 278 387 272
is_linear=0
shrinkage=0.0257712


Tree=10
num_leaves=5
num_cat=0
split_feature=35 35 28 100
split_gain=1.37213e+06 249797 63064.1 15601.7
threshold=0.26780438508363441 0.70252747416915695 87.551528969957104 -4.6987150363929322
decision_type=2 2 2 2
left_child=2 -2 3 -1
right_child=1 -3 -4 -5
leaf_value=-1.3849374503405358 0.50527367879576635 2.0692536456276116 -0.47526096127223988 -0.9963720602905346
leaf_weight=143 120 156 113 132
leaf_count=143 120 156 113 132
internal_value=0.00024765 1.38927 -0.987819 -1.19843
internal_weight=664 276 388 275
internal_count=664 276 388 275
is_linear=0
shrinkage=0.0257712


Tree=11
num_leaves=4
num_cat=0
split_feature=35 35 0
split_gain=1.38729e+06 222766 47354.2
threshold=0.25118075958286767 0.73246693938583607 19.42229166666667
decision_type=2 2 2
left_child=2 -2 -1
right_child=1 -3 -4
leaf_value=-1.3189654087310787 0.57700195497065543 2.0349834236532951 -0.7439511500396816
leaf_weight=176 127 154 207
leaf_count=176 127 154 207
internal_value=0.000800461 1.37604 -1.00819
internal_weight=664 281 383
internal_count=664 281 383
is_linear=0
shrinkage=0.0257712


Tree=12
num_leaves=5
num_cat=0
split_feature=35 107 65 28
split_gain=1.30957e+06 119572 109481 16970.2
threshold=0.42110087079608943 -1.2147441039723137 33.457569444444417 66.177119098712453
decision_type=2 2 2 2
left_child=2 -2 3 -1
right_child=1 -3 -4 -5
leaf_value=-1.2866725950705944 0.94153754920571875 2.1169403329146288 -0.18132831626665263 -0.90973485361960138
leaf_weight=171 113 117 114 148
leaf_count=171 113 117 114 148
internal_value=-0.0320613 1.53947 -0.866824 -1.1118
internal_weight=663 230 433 319
internal_count=663 230 433 319
is_linear=0
shrinkage=0.0257712


Tree=13
num_leaves=5
num_cat=0
split_feature=35 35 57 28
split_gain=1.19679e+06 122411 119368 13847.3
threshold=0.42110087079608943 0.80898702767051955 91.479998447446846 65.78893955650932
decision_type=2 2 2 2
left_child=2 -2 3 -1
right_child=1 -3 -4 -5
leaf_value=-1.2717431867936708 0.868327267627655 2.0549454474009692 -0.20459960105241892 -0.91781788546389731
leaf_weight=176 117 114 136 126
leaf_count=176 117 114 136 126
internal_value=-0.0469936 1.45394 -0.838582 -1.12408
internal_weight=669 231 438 302
internal_count=669 231 438 302
is_linear=0
shrinkage=0.0257712


Tree=14
num_leaves=5
num_cat=0
split_feature=35 24 28 0
split_gain=1.18713e+06 186551 47503.1 10795.3
threshold=0.26780438508363441 -4.6802164353779689 88.526797210300444 16.419791666666669
decision_type=2 2 2 2
left_child=2 -2 3 -1
right_child=1 -3 -4 -5
leaf_value=-1.3002238910049697 0.48598138552551745 1.8173341231593192 -0.50756268943908112 -0.98386658871287103
leaf_weight=134 126 157 113 154
leaf_count=134 126 157 113 154
internal_value=-0.053429 1.22458 -0.955367 -1.13107
internal_weight=684 283 401 288
internal_count=684 283 401 288
is_linear=0
shrinkage=0.0257712


Tree=15
num_leaves=5
num_cat=0
split_feature=35 57 59 28
split_gain=1.18494e+06 87510.7 82604.6 12384.7
threshold=0.39752808894539271 93.733218298650684 202.20319288598401 69.619474248927062
decision_type=2 2 2 2
left_child=1 3 -2 -1
right_child=2 -3 -4 -5
leaf_value=-1.1623364799545257 1.0168667606514357 -0.20859112870880978 1.9917909815482377 -0.82699294764356401
leaf_weight=185 118 120 113 121
leaf_count=185 118 120 113 121
internal_value=0.00751023 -0.798429 1.49379 -1.02974
internal_weight=657 426 231 306
internal_count=657 426 231 306
is_linear=0
shrinkage=0.0257712


Tree=16
num_leaves=5
num_cat=0
split_feature=35 35 65 100
split_gain=981903 201395 37337.6 7821.96
threshold=0.24284972209593572 0.70860043010605911 24.892638888888875 -5.0662410019352393
decision_type=2 2 2 2
left_child=2 -2 3 -1
right_child=1 -3 -4 -5
leaf_value=-1.2150779079985699 0.34338744302537677 1.7316147324341868 -0.54482147730189001 -0.91893334878342514
leaf_weight=119 122 161 147 118
leaf_count=119 122 161 147 118
internal_value=-0.0186425 1.13316 -0.867498 -1.06764
internal_weight=667 283 384 237
internal_count=667 283 384 237
is_linear=0
shrinkage=0.0257712


Tree=17
num_leaves=5
num_cat=0
split_feature=35 12 35 15
split_gain=1.02419e+06 135967 50919.6 13248.9
threshold=0.26780438508363441 29.150000000000002 -0.22610730998347103 1001.3020833333335
decision_type=2 2 2 2
left_child=2 -2 3 -1
right_child=1 -3 -4 -5
leaf_value=-0.82115998119350608 1.7218536891045286 0.56847164543719764 -0.38438516454149763 -1.1729266286717661
leaf_weight=125 150 124 117 165
leaf_count=125 150 124 117 165
internal_value=-0.0181828 1.19989 -0.838213 -1.02131
internal_weight=681 274 407 290
internal_count=681 274 407 290
is_linear=0
shrinkage=0.0257712


Tree=18
num_leaves=5
num_cat=0
split_feature=35 67 0 100
split_gain=1.0819e+06 104684 64258.4 10152.4
threshold=0.42110087079608943 137.89461309523813 32.719791666666673 -4.5983401695104851
decision_type=2 2 2 2
left_child=2 -2 3 -1
right_child=1 -3 -4 -5
leaf_value=-1.1397639171135721 0.85056804466962321 1.9454850960518821 -0.29010318577444039 -0.84111390596664704
leaf_weight=158 117 115 119 145
leaf_count=158 117 115 119 145
internal_value=-0.0203649 1.39331 -0.797555 -0.996849
internal_weight=654 232 422 303
internal_count=654 232 422 303
is_linear=0
shrinkage=0.0257712


Tree=19
num_leaves=5
num_cat=0
split_feature=35 35 37 15
split_gain=938157 103144 88783.7 12560.1
threshold=0.42110087079608943 -0.21772323039653199 182.1005696164014 1001.3020833333335
decision_type=2 2 10 2
left_child=1 3 -2 -1
right_child=2 -3 -4 -5
leaf_value=-0.76375210486251099 0.83697763277437687 -0.12387285517076915 1.8291999431264017 -1.120132939052797
leaf_weight=114 115 149 125 155
leaf_count=114 115 149 125 155
internal_value=0.0695405 -0.667816 1.35377 -0.969105
internal_weight=658 418 240 269
internal_count=658 418 240 269
is_linear=0
shrinkage=0.0257712


Tree=20
num_leaves=5
num_cat=0
split_feature=35 35 0 100
split_gain=904862 86886 81381.4 15128.5
threshold=0.42110087079608943 0.80898702767051955 33.79770833333334 -4.6987150363929322
decision_type=2 2 2 2
left_child=2 -2 3 -1
right_child=1 -3 -4 -5
leaf_value=-1.1272652535120671 0.73230978295652771 1.71139215281002 -0.15471709949044102 -0.77116430846888406
leaf_weight=157 117 124 118 160
leaf_count=157 117 124 118 160
internal_value=-0.030666 1.23608 -0.732471 -0.947533
internal_weight=676 241 435 317
internal_count=676 241 435 317
is_linear=0
shrinkage=0.0257712


Tree=21
num_leaves=5
num_cat=0
split_feature=35 57 35 100
split_gain=802678 92271.5 78061.1 12656
threshold=0.42110087079608943 98.588019890588356 0.80898702767051955 -4.6486449384410422
decision_type=2 2 2 2
left_child=1 3 -2 -1
right_child=2 -3 -4 -5
leaf_value=-1.0287293882479736 0.7718288599096067 -0.019712130540556188 1.7173250855888491 -0.69929712662818833
leaf_weight=165 117 115 115 146
leaf_count=165 117 115 115 146
internal_value=0.0208093 -0.643441 1.24051 -0.874079
internal_weight=658 426 232 311
internal_count=658 426 232 311
is_linear=0
shrinkage=0.0257712


Tree=22
num_leaves=4
num_cat=0
split_feature=100 35 100
split_gain=744501 130283 42033.4
threshold=0.1519654068422607 0.72064045540576316 -4.5983401695104851
decision_type=2 2 2
left_child=2 -2 -1
right_child=1 -3 -4
leaf_value=-0.98511275211155225 0.40998022930711953 1.5652149186195563 -0.45843804653469983
leaf_weight=190 116 147 214
leaf_count=190 116 147 214
internal_value=-0.0114427 1.05569 -0.706134
internal_weight=667 263 404
internal_count=667 263 404
is_linear=0
shrinkage=0.0257712


Tree=23
num_leaves=5
num_cat=0
split_feature=35 35 1 2
split_gain=786964 164603 23639.5 6855.1
threshold=0.69635043120606444 0.10738134666416309 86.419791666666683 310.00375000000003
decision_type=2 2 2 2
left_child=1 2 3 -1
right_child=-2 -3 -4 -5
leaf_value=-1.0944879897015634 1.562354649606601 0.20320700404915368 -0.50940615198878791 -0.81705490304228867
leaf_weight=123 161 151 114 114
leaf_count=123 161 151 114 114
internal_value=-0.00545392 -0.508279 -0.81436 -0.961044
internal_weight=663 502 351 237
internal_count=663 502 351 237
is_linear=0
shrinkage=0.0257712


Tree=24
num_leaves=5
num_cat=0
split_feature=35 37 65 100
split_gain=728804 75057.1 70273.2 9415.54
threshold=0.42110087079608943 182.1005696164014 34.233888888888856 -4.6987150363929322
decision_type=2 10 2 2
left_child=2 -2 3 -1
right_child=1 -3 -4 -5
leaf_value=-0.97138726878195891 0.63645846819405105 1.5419537222684492 -0.10505169478002768 -0.6923923446368202
leaf_weight=168 115 129 119 154
leaf_count=168 115 129 119 154
internal_value=-0.0149159 1.11519 -0.64019 -0.837958
internal_weight=685 244 441 322
internal_count=685 244 441 322
is_linear=0
shrinkage=0.0257712


Tree=25
num_leaves=4
num_cat=0
split_feature=35 35 65
split_gain=731563 161943 17857.9
threshold=0.72064045540576316 0.038722280892174228 22.431111111111079
decision_type=2 2 2
left_child=1 2 -1
right_child=-2 -3 -4
leaf_value=-0.97592152486991612 1.5381241641751597 0.14680351981821876 -0.5981713257957908
leaf_weight=188 156 181 149
leaf_count=188 156 181 149
internal_value=-0.00902349 -0.474962 -0.808907
internal_weight=674 518 337
internal_count=674 518 337
is_linear=0
shrinkage=0.0257712


Tree=26
num_leaves=5
num_cat=0
split_feature=35 100 25 0
split_gain=614463 138068 25472.2 5847.02
threshold=0.70860043010605911 -0.2657376111038286 5.950000000000002 17.98
decision_type=2 2 2 2
left_child=1 2 3 -1
right_child=-2 -3 -4 -5
leaf_value=-0.98927874197713717 1.4327231547100572 0.29498847330903888 -0.43178912357691457 -0.73048804169875636
leaf_weight=117 149 125 152 115
leaf_count=117 149 125 152 115
internal_value=-0.0228493 -0.448942 -0.691108 -0.861003
internal_weight=658 509 384 232
internal_count=658 509 384 232
is_linear=0
shrinkage=0.0257712


Tree=27
num_leaves=5
num_cat=0
split_feature=0 35 35 36
split_gain=591311 103452 40090.4 14325.9
threshold=62.552291666666676 0.021516097436222247 0.82392300575755406 75.18603924713878
decision_type=2 2 2 2
left_child=1 3 -2 -1
right_child=2 -3 -4 -5
leaf_value=-0.94182554089225601 0.69925705239021063 0.08467210694663517 1.3857541672908353 -0.58942652148145336
leaf_weight=206 113 116 113 122
leaf_count=206 113 116 113 122
internal_value=-0.0305927 -0.576813 1.04251 -0.810753
internal_weight=670 444 226 328
internal_count=670 444 226 328
is_linear=0
shrinkage=0.0257712


Tree=28
num_leaves=5
num_cat=0
split_feature=7 12 71 55
split_gain=645763 115268 56398.4 6546.96
threshold=8.4735416666666676 29.250000000000004 32.11502083333334 58.646458333333335
decision_type=2 2 10 10
left_child=2 -2 3 -1
right_child=1 -3 -4 -5
leaf_value=-0.65187540667190669 1.5742242862966138 0.45746277248508926 -0.13107889718757168 -0.90192743629655636
leaf_weight=115 133 114 116 176
leaf_count=115 133 114 116 176
internal_value=0.0192858 1.0588 -0.611576 -0.803112
internal_weight=654 247 407 291
internal_count=654 247 407 291
is_linear=0
shrinkage=0.0257712


Tree=29
num_leaves=5
num_cat=0
split_feature=35 65 97 100
split_gain=589311 55136.1 46800.5 12515.6
threshold=0.42110087079608943 34.233888888888856 3.4801960523606854 -4.6987150363929322
decision_type=2 2 10 2
left_child=1 3 -2 -1
right_child=2 -3 -4 -5
leaf_value=-0.91184621767133522 0.67531075386495143 -0.091383348502727932 1.3869114682875592 -0.5850578836916247
leaf_weight=163 133 113 114 149
leaf_count=163 133 113 114 149
internal_value=0.00266947 -0.579134 1.00375 -0.755786
internal_weight=672 425 247 312
internal_count=672 425 247 312
is_linear=0
shrinkage=0.0257712


Tree=30
num_leaves=5
num_cat=0
split_feature=0 79 15 15
split_gain=514698 98681.9 49237 12882.4
threshold=52.747500000000009 189.23070138888889 1007.6062500000002 1001.6125000000002
decision_type=2 10 2 2
left_child=2 -2 3 -1
right_child=1 -3 -4 -5
leaf_value=-0.5556118617836362 0.39609602148516254 1.4391575831676127 -0.1399541977039723 -0.90650667408179963
leaf_weight=114 122 119 115 178
leaf_count=114 122 119 115 178
internal_value=-0.0327298 0.911139 -0.591631 -0.769516
internal_weight=648 241 407 292
internal_count=648 241 407 292
is_linear=0
shrinkage=0.0257712


Tree=31
num_leaves=4
num_cat=0
split_feature=35 35 35
split_gain=505569 110384 9513.15
threshold=0.70252747416915695 -0.22610730998347103 -0.74979862697202038
decision_type=2 2 2
left_child=1 2 -1
right_child=-2 -3 -4
leaf_value=-0.5847835656284921 1.2729482086306148 0.039602013553418941 -0.88974852269822335
leaf_weight=132 160 215 140
leaf_count=132 160 215 140
internal_value=0.0161201 -0.396803 -0.741754
internal_weight=647 487 272
internal_count=647 487 272
is_linear=0
shrinkage=0.0257712


Tree=32
num_leaves=5
num_cat=0
split_feature=35 52 42 79
split_gain=422032 79245 23031.2 7485.03
threshold=0.25118075958286767 141.41937500000003 59.967122675250366 82.337937500000024
decision_type=2 10 8 8
left_child=2 -2 -1 -4
right_child=1 -3 3 -5
leaf_value=-0.29388517231937988 0.20719787914065757 1.0873787799652537 -0.87540696805063101 -0.59706030220259987
leaf_weight=116 115 166 124 133
leaf_count=116 115 166 124 133
internal_value=-0.0270918 0.727165 -0.595312 -0.731363
internal_weight=654 281 373 257
internal_count=654 281 373 257
is_linear=0
shrinkage=0.0257712


Tree=33
num_leaves=5
num_cat=0
split_feature=35 35 35 35
split_gain=506382 83543.4 24197.1 8880.11
threshold=0.24284972209593572 0.70860043010605911 -0.2511900638848194 -0.73829900574246976
decision_type=2 2 2 2
left_child=2 -2 3 -1
right_child=1 -3 -4 -5
leaf_value=-0.58038474956292052 0.33952518384060459 1.2327755248496741 -0.28026837798816701 -0.87821294294693864
leaf_weight=132 123 160 113 134
leaf_count=132 123 160 113 134
internal_value=0.0197037 0.844546 -0.596208 -0.730422
internal_weight=662 283 379 266
internal_count=662 283 379 266
is_linear=0
shrinkage=0.0257712


Tree=34
num_leaves=5
num_cat=0
split_feature=35 38 35 15
split_gain=458696 42957.7 29590.5 9964.91
threshold=0.42110087079608943 182.1005696164014 -0.22610730998347103 1001.4083333333335
decision_type=2 10 2 2
left_child=2 -2 3 -1
right_child=1 -3 -4 -5
leaf_value=-0.52429221330166242 0.52312281020136431 1.2130863808754186 -0.23993353526674718 -0.84255592566486437
leaf_weight=117 116 124 141 148
leaf_count=117 116 124 141 148
internal_value=-0.0135696 0.879608 -0.541557 -0.702042
internal_weight=646 240 406 265
internal_count=646 240 406 265
is_linear=0
shrinkage=0.0257712


Tree=35
num_leaves=5
num_cat=0
split_feature=36 6 35 15
split_gain=437923 40084.8 39740.5 10002.2
threshold=154.58238277133827 24.579375000000002 -0.012910296075008829 1001.0875000000002
decision_type=2 2 2 2
left_child=2 -2 3 -1
right_child=1 -3 -4 -5
leaf_value=-0.4585026126022439 0.55611412225160695 1.242559169649855 -0.083977752102279424 -0.75635415489981628
leaf_weight=119 113 113 113 202
leaf_count=119 113 113 113 202
internal_value=-0.0205821 0.899341 -0.499621 -0.645938
internal_weight=660 226 434 321
internal_count=660 226 434 321
is_linear=0
shrinkage=0.0257712


Tree=36
num_leaves=4
num_cat=0
split_feature=35 65 55
split_gain=433805 92022.8 10093.9
threshold=0.70252747416915695 34.233888888888856 58.646458333333335
decision_type=2 2 10
left_child=1 2 -1
right_child=-2 -3 -4
leaf_value=-0.45211311753708588 1.1759364806428467 0.09292898575100747 -0.74360308587511093
leaf_weight=133 159 186 194
leaf_count=133 159 186 194
internal_value=-0.000195342 -0.364729 -0.625048
internal_weight=672 513 327
internal_count=672 513 327
is_linear=0
shrinkage=0.0257712


Tree=37
num_leaves=4
num_cat=0
split_feature=100 12 28
split_gain=374557 97583.7 21102.9
threshold=0.40782905079096526 29.150000000000002 69.619474248927062
decision_type=2 2 2
left_child=2 -2 -1
right_child=1 -3 -4
leaf_value=-0.7096231252561952 1.2535341059555403 0.23250494508917122 -0.33806758553676114
leaf_weight=185 129 120 225
leaf_count=185 129 120 225
internal_value=-0.0269173 0.761475 -0.505722
internal_weight=659 249 410
internal_count=659 249 410
is_linear=0
shrinkage=0.0257712


Tree=38
num_leaves=5
num_cat=0
split_feature=0 35 63 34
split_gain=365882 53622.1 47417.3 7068.87
threshold=60.412708333333342 -0.030120304846908235 200.50080207276184 -0.53436760985011611
decision_type=2 2 10 2
left_child=1 3 -2 -1
right_child=2 -3 -4 -5
leaf_value=-0.76715048563118149 0.47247400361893943 0.034726842714957518 1.2109478344700699 -0.5127644070251357
leaf_weight=117 115 119 116 191
leaf_count=117 115 119 116 191
internal_value=0.0170863 -0.42989 0.843313 -0.609401
internal_weight=658 427 231 308
internal_count=658 427 231 308
is_linear=0
shrinkage=0.0257712


Tree=39
num_leaves=5
num_cat=0
split_feature=100 12 0 95
split_gain=369276 87100.4 23221.8 11324.3
threshold=-0.32977726039155464 29.150000000000002 19.068958333333338 -3.9916066017726286
decision_type=2 2 2 2
left_child=2 -2 -1 -4
right_child=1 -3 3 -5
leaf_value=-0.73232039346173705 1.1430762945846293 0.24670147634577788 -0.52237087191596154 -0.15912130481713127
leaf_weight=180 143 145 114 114
leaf_count=180 143 145 114 114
internal_value=-0.0147646 0.691779 -0.513502 -0.340748
internal_weight=696 288 408 228
internal_count=696 288 408 228
is_linear=0
shrinkage=0.0257712


Tree=40
num_leaves=4
num_cat=0
split_feature=97 23 100
split_gain=329876 58707.4 10175.7
threshold=1.9291384657728623 -0.8139993439588401 -4.6987150363929322
decision_type=10 2 2
left_child=1 2 -1
right_child=-2 -3 -4
leaf_value=-0.70221839091420624 0.86191172293223395 0.03111126049631505 -0.40795231188207104
leaf_weight=178 207 161 139
leaf_count=178 207 161 139
internal_value=0.00251701 -0.369649 -0.573189
internal_weight=685 478 317
internal_count=685 478 317
is_linear=0
shrinkage=0.0257712


Tree=41
num_leaves=5
num_cat=0
split_feature=100 35 25 0
split_gain=273527 63289.5 21286.7 11345.7
threshold=0.29588267874696189 0.82873938879806197 6.6000000000000005 18.811041666666672
decision_type=2 2 2 2
left_child=2 -2 3 -1
right_child=1 -3 -4 -5
leaf_value=-0.74776015783171823 0.25946587893068418 1.0682255082951269 -0.20122831268220245 -0.41125609396291035
leaf_weight=145 149 113 140 123
leaf_count=145 149 113 140 123
internal_value=-0.0415101 0.608285 -0.458781 -0.593322
internal_weight=670 262 408 268
internal_count=670 262 408 268
is_linear=0
shrinkage=0.0257712


Tree=42
num_leaves=5
num_cat=0
split_feature=100 12 25 28
split_gain=344490 53328.4 20283 4823.81
threshold=0.29588267874696189 29.150000000000002 6.5499999999999998 65.05902181688127
decision_type=2 2 2 2
left_child=2 -2 3 -1
right_child=1 -3 -4 -5
leaf_value=-0.7266363435549511 1.0621974537756802 0.32792741748197629 -0.23985673327733031 -0.49933313347982256
leaf_weight=136 141 123 145 114
leaf_count=136 141 123 145 114
internal_value=-0.00063872 0.720097 -0.482346 -0.622989
internal_weight=659 264 395 250
internal_count=659 264 395 250
is_linear=0
shrinkage=0.0257712


Tree=43
num_leaves=5
num_cat=0
split_feature=35 79 58 15
split_gain=326489 37172.2 30255.7 7225.54
threshold=0.39752808894539271 189.23070138888889 17.449335311477984 1002.9729166666667
decision_type=2 10 2 2
left_child=2 -2 3 -1
right_child=1 -3 -4 -5
leaf_value=-0.40332280357188754 0.42662374530610692 1.0511082202001749 -0.078333035689106059 -0.66769912036686707
leaf_weight=113 120 134 121 175
leaf_count=113 120 134 121 175
internal_value=0.0303809 0.756079 -0.420298 -0.56397
internal_weight=663 254 409 288
internal_count=663 254 409 288
is_linear=0
shrinkage=0.0257712


Tree=44
num_leaves=4
num_cat=0
split_feature=38 35 15
split_gain=271151 58051.3 7016.11
threshold=166.84927116262736 0.038722280892174228 1001.4083333333335
decision_type=10 2 2
left_child=1 2 -1
right_child=-2 -3 -4
leaf_value=-0.38203204018917752 0.817175246452021 0.078441616480506002 -0.63353662773180863
leaf_weight=115 185 145 205
leaf_count=115 185 145 205
internal_value=-0.017319 -0.349323 -0.543154
internal_weight=650 465 320
internal_count=650 465 320
is_linear=0
shrinkage=0.0257712


Tree=45
num_leaves=5
num_cat=0
split_feature=105 79 35 79
split_gain=198687 44554.8 26751 9183.52
threshold=-7.9747428499451258 189.23070138888889 0.038722280892174228 78.744302234299525
decision_type=2 10 2 8
left_child=2 -2 3 -1
right_child=1 -3 -4 -5
leaf_value=-0.62937252477975258 0.19300552622945857 0.91038458665629862 -0.058884579116695264 -0.35148492898008626
leaf_weight=178 115 115 123 142
leaf_count=178 115 115 123 142
internal_value=-0.062841 0.551698 -0.381902 -0.506062
internal_weight=673 230 443 320
internal_count=673 230 443 320
is_linear=0
shrinkage=0.0257712


Tree=46
num_leaves=4
num_cat=0
split_feature=15 35 30
split_gain=318234 50976.9 9023.34
threshold=1013.0666666666668 0.055916990100603255 225.50000000000003
decision_type=2 2 2
left_child=1 2 -1
right_child=-2 -3 -4
leaf_value=-0.40754035933508775 0.89467339502730592 0.11440866172864556 -0.68491921712510295
leaf_weight=222 196 119 120
leaf_count=222 196 119 120
internal_value=0.0248192 -0.345012 -0.504868
internal_weight=657 461 342
internal_count=657 461 342
is_linear=0
shrinkage=0.0257712


Tree=47
num_leaves=5
num_cat=0
split_feature=100 79 23 79
split_gain=259416 65388.6 19298.1 7642.25
threshold=0.1519654068422607 189.23070138888889 -2.609102357723017 78.744302234299525
decision_type=2 10 2 8
left_child=2 -2 3 -1
right_child=1 -3 -4 -5
leaf_value=-0.6723247031758719 0.29289197670352574 1.1229240681699388 -0.15350993309010563 -0.38916545803154562
leaf_weight=120 141 114 149 134
leaf_count=120 141 114 149 134
internal_value=0.0206857 0.663968 -0.386355 -0.522944
internal_weight=658 255 403 254
internal_count=658 255 403 254
is_linear=0
shrinkage=0.0257712


Tree=48
num_leaves=5
num_cat=0
split_feature=6 35 79 54
split_gain=284845 54685.6 7964.3 4487.96
threshold=17.964166666666667 0.038722280892174228 85.780982789855088 61.999375000000008
decision_type=2 2 8 10
left_child=1 2 3 -1
right_child=-2 -3 -4 -5
leaf_value=-0.46525360715234693 0.88672723822834987 0.10488814041246115 -0.30938995967709582 -0.68980119432697384
leaf_weight=124 179 147 113 113
leaf_count=124 179 147 113 113
internal_value=0.00523987 -0.312239 -0.487432 -0.572319
internal_weight=676 497 350 237
internal_count=676 497 350 237
is_linear=0
shrinkage=0.0257712


Tree=49
num_leaves=5
num_cat=0
split_feature=100 52 25 35
split_gain=226037 51597.5 16128.7 6792.24
threshold=-0.32977726039155464 141.41937500000003 6.6000000000000005 -0.73829900574246976
decision_type=2 10 2 2
left_child=2 -2 3 -1
right_child=1 -3 -4 -5
leaf_value=-0.38910126862335986 0.12311776303377257 0.82975432494702062 -0.18198968218018058 -0.65368446091466981
leaf_weight=116 117 166 127 145
leaf_count=116 117 166 127 145
internal_value=-0.016228 0.537613 -0.42019 -0.536094
internal_weight=671 283 388 261
internal_count=671 283 388 261
is_linear=0
shrinkage=0.0257712


Tree=50
num_leaves=4
num_cat=0
split_feature=6 35 15
split_gain=233408 38229.3 10776.4
threshold=17.218958333333337 0.038722280892174228 1001.4083333333335
decision_type=2 2 2
left_child=1 2 -1
right_child=-2 -3 -4
leaf_value=-0.25734766022300065 0.76581223309521929 0.041461643035026731 -0.56973464949131103
leaf_weight=113 191 147 209
leaf_count=113 191 147 209
internal_value=0.006379 -0.302901 -0.460109
internal_weight=660 469 322
internal_count=660 469 322
is_linear=0
shrinkage=0.0257712


Tree=51
num_leaves=5
num_cat=0
split_feature=7 97 67 49
split_gain=241330 43712.3 24759 9860.41
threshold=8.1047916666666691 3.4801960523606854 28.488154761904767 16.419791666666669
decision_type=2 10 2 10
left_child=2 -2 3 -1
right_child=1 -3 -4 -5
leaf_value=-0.31832871568574922 0.34859267511653502 1.032798462769482 -0.063590857059831654 -0.6301210287952077
leaf_weight=118 136 114 129 157
leaf_count=118 136 114 129 157
internal_value=0.0312737 0.660594 -0.358158 -0.496336
internal_weight=654 250 404 275
internal_count=654 250 404 275
is_linear=0
shrinkage=0.0257712


Tree=52
num_leaves=5
num_cat=0
split_feature=35 37 65 80
split_gain=211427 46603.7 27377.6 5854.26
threshold=0.42110087079608943 182.1005696164014 34.233888888888856 33.856740005829963
decision_type=2 10 2 8
left_child=2 -2 3 -1
right_child=1 -3 -4 -5
leaf_value=-0.58725172096137734 0.23575984028267835 0.94539960218429508 -0.0042023796732041634 -0.36782000232275769
leaf_weight=141 120 126 118 189
leaf_count=141 120 126 118 189
internal_value=-0.00778756 0.599237 -0.341109 -0.461579
internal_weight=694 246 448 330
internal_count=694 246 448 330
is_linear=0
shrinkage=0.0257712


Tree=53
num_leaves=4
num_cat=0
split_feature=97 98 109
split_gain=204948 37230.4 8331.06
threshold=1.5908971680823381 -0.70532186476568903 2.14829494193765
decision_type=10 2 2
left_child=1 2 -1
right_child=-2 -3 -4
leaf_value=-0.54862417737715374 0.66645293958692509 0.095390908519380813 -0.28752159097322455
leaf_weight=186 220 120 144
leaf_count=186 220 120 144
internal_value=0.0218198 -0.293335 -0.43469
internal_weight=670 450 330
internal_count=670 450 330
is_linear=0
shrinkage=0.0257712


Tree=54
num_leaves=5
num_cat=0
split_feature=28 12 25 0
split_gain=168137 47309 16631.5 3660.21
threshold=143.46871859296485 29.250000000000004 5.9000000000000012 17.694375000000004
decision_type=2 2 2 2
left_child=2 -2 3 -1
right_child=1 -3 -4 -5
leaf_value=-0.56440647117165288 0.86721693444110148 0.14925348445508116 -0.13860236223518924 -0.35922630459442878
leaf_weight=116 131 114 194 115
leaf_count=116 131 114 194 115
internal_value=-0.00455338 0.533146 -0.314522 -0.462263
internal_weight=670 245 425 231
internal_count=670 245 425 231
is_linear=0
shrinkage=0.0257712


Tree=55
num_leaves=4
num_cat=0
split_feature=97 98 109
split_gain=196192 26808.5 6545.59
threshold=1.5908971680823381 -0.50909715166261282 2.14829494193765
decision_type=8 2 2
left_child=1 2 -1
right_child=-2 -3 -4
leaf_value=-0.5333663535908687 0.65860514274475968 0.024367498312490583 -0.29362827634326111
leaf_weight=179 208 118 131
leaf_count=179 208 118 131
internal_value=0.00931947 -0.306222 -0.432059
internal_weight=636 428 310
internal_count=636 428 310
is_linear=0
shrinkage=0.0257712


Tree=56
num_leaves=4
num_cat=0
split_feature=6 35 79
split_gain=171423 33844.6 7734.18
threshold=17.218958333333337 0.038722280892174228 80.609407004830928
decision_type=2 2 8
left_child=1 2 -1
right_child=-2 -3 -4
leaf_value=-0.51502944240811022 0.64123634708742283 0.059586842143993332 -0.26369206823035651
leaf_weight=194 194 147 140
leaf_count=194 194 147 140
internal_value=-0.00544232 -0.266266 -0.40968
internal_weight=675 481 334
internal_count=675 481 334
is_linear=0
shrinkage=0.0257712


Tree=57
num_leaves=5
num_cat=0
split_feature=35 33 79 76
split_gain=123433 31912.8 8149.08 6473.98
threshold=0.69635043120606444 37.500000000000007 99.037083333333342 19.566447124122814
decision_type=2 2 8 2
left_child=1 2 3 -1
right_child=-2 -3 -4 -5
leaf_value=-0.33213104790124409 0.59007614924012008 0.090391391063537121 -0.20469966730462594 -0.60119528408584033
leaf_weight=124 153 136 126 114
leaf_count=124 153 136 126 114
internal_value=-0.0504414 -0.246441 -0.37229 -0.461013
internal_weight=653 500 364 238
internal_count=653 500 364 238
is_linear=0
shrinkage=0.0257712


Tree=58
num_leaves=4
num_cat=0
split_feature=6 35 69
split_gain=158607 39748.1 12070.2
threshold=17.218958333333337 0.038722280892174228 20.33102678571429
decision_type=2 2 8
left_child=1 2 -1
right_child=-2 -3 -4
leaf_value=-0.60185518139753003 0.64722547037568612 0.11286606588909132 -0.27698472901646148
leaf_weight=119 188 149 210
leaf_count=119 188 149 210
internal_value=0.0130747 -0.236341 -0.394493
internal_weight=666 478 329
internal_count=666 478 329
is_linear=0
shrinkage=0.0257712


Tree=59
num_leaves=5
num_cat=0
split_feature=97 16 25 87
split_gain=154172 52626.6 14635.2 6007.83
threshold=0.31092508337557173 11.622916666666667 6.6499999999999995 0.27065387470196606
decision_type=10 2 2 2
left_child=2 -2 3 -1
right_child=1 -3 -4 -5
leaf_value=-0.31998478775048422 0.88849344446287137 0.16482710017365038 -0.12855697837047564 -0.57783583730759858
leaf_weight=113 114 161 144 128
leaf_count=113 114 161 144 128
internal_value=-0.00122428 0.464822 -0.334115 -0.456937
internal_weight=660 275 385 241
internal_count=660 275 385 241
is_linear=0
shrinkage=0.0257712


Tree=60
num_leaves=5
num_cat=0
split_feature=100 12 56 0
split_gain=125541 36062.6 16085 5152.74
threshold=0.1519654068422607 29.150000000000002 58.145208333333343 25.751666666666672
decision_type=2 2 8 2
left_child=2 -2 -1 -4
right_child=1 -3 3 -5
leaf_value=-0.02424550363074441 0.711824932947416 0.10456866183707952 -0.48510872742878247 -0.26396807868222755
leaf_weight=113 146 117 159 125
leaf_count=113 146 117 159 125
internal_value=0.00498936 0.441678 -0.284304 -0.387777
internal_weight=660 263 397 284
internal_count=660 263 397 284
is_linear=0
shrinkage=0.0257712


Tree=61
num_leaves=5
num_cat=0
split_feature=24 30 34 92
split_gain=102731 33851.5 8962.74 13684.1
threshold=-4.1736198907273119 272.50000000000006 -0.53436760985011611 3.1115402713524709
decision_type=2 2 2 2
left_child=1 2 -1 -4
right_child=-2 -3 3 -5
leaf_value=-0.51779757881995103 0.5051090732139949 0.16767075801748194 -0.075384308865223446 -0.44827177992335554
leaf_weight=126 172 113 137 125
leaf_count=126 172 113 137 125
internal_value=-0.0383045 -0.224866 -0.339188 -0.25329
internal_weight=673 501 388 262
internal_count=673 501 388 262
is_linear=0
shrinkage=0.0257712


Tree=62
num_leaves=4
num_cat=0
split_feature=97 98 16
split_gain=124589 23840.9 6792.09
threshold=1.4947607760831205 -0.7351408885415599 18.283333333333339
decision_type=10 2 2
left_child=1 2 -1
right_child=-2 -3 -4
leaf_value=-0.53708958007050756 0.48121405362385111 0.03212059433510308 -0.29597737159907445
leaf_weight=126 214 123 202
leaf_count=126 214 123 202
internal_value=-0.0308728 -0.273859 -0.388601
internal_weight=665 451 328
internal_count=665 451 328
is_linear=0
shrinkage=0.0257712


Tree=63
num_leaves=4
num_cat=0
split_feature=35 98 42
split_gain=197498 26975.2 6706.94
threshold=0.70252747416915695 -1.5483864034104726 65.05902181688127
decision_type=2 2 8
left_child=1 2 -1
right_child=-2 -3 -4
leaf_value=-0.226584077364687 0.83214261027433944 0.01682636849603434 -0.47101259092776471
leaf_weight=124 153 189 187
leaf_count=124 153 189 187
internal_value=0.0219332 -0.225992 -0.373557
internal_weight=653 500 311
internal_count=653 500 311
is_linear=0
shrinkage=0.0257712


Tree=64
num_leaves=4
num_cat=0
split_feature=36 35 15
split_gain=188267 18587.5 6513.91
threshold=154.7621311907271 0.021516097436222247 1001.3020833333335
decision_type=2 2 2
left_child=1 2 -1
right_child=-2 -3 -4
leaf_value=-0.19368260812705654 0.68360649425010311 0.032845693068373538 -0.43655408834462506
leaf_weight=113 213 113 209
leaf_count=113 213 113 209
internal_value=0.0558547 -0.251528 -0.351324
internal_weight=648 435 322
internal_count=648 435 322
is_linear=0
shrinkage=0.0257712


end of trees

feature_importances:
doy_cos=75
wind_u_mean_roll_mean_7=23
pm2_5_mean=15
pressure_mean=12
aqi_daily=10
pm10_roll_mean_30=10
temp_max=8
pm25_roll_mean_3=8
temp_range=7
aqi_roll_mean_3=7
wind_u_mean_lag3=7
so2_mean=6
aqi_daily_lag1=4
wind_u_mean_roll_mean_3=4
aqi_daily_lag2=3
aqi_change_rate=3
nh3_mean=2
wind_speed_mean=2
wind_u_mean=2
wind_v_mean=2
day_of_year=2
doy_sin=2
aqi_daily_lag3=2
aqi_daily_lag7=2
pm10_mean_lag3=2
pm10_mean_lag6=2
pm25_roll_mean_7=2
pm10_mean=1
co_mean=1
week_of_year=1
pm2_5_mean_lag7=1
pm10_mean_lag5=1
pm10_mean_lag7=1
aqi_roll_std_3=1
aqi_roll_mean_7=1
aqi_roll_mean_30=1
pm25_roll_mean_14=1
pm25_roll_mean_30=1
pm10_roll_std_7=1
pm10_roll_std_30=1
temp_mean_roll_std_7=1
humidity_mean_roll_std_3=1
humidity_mean_roll_mean_7=1
wind_u_mean_lag1=1
wind_v_mean_roll_mean_3=1
wind_v_mean_roll_mean_7=1

parameters:
[boosting: gbdt]
[objective: regression]
[metric: rmse]
[tree_learner: serial]
[device_type: cpu]
[data_sample_strategy: bagging]
[data: ]
[valid: ]
[num_iterations: 3000]
[learning_rate: 0.0257712]
[num_leaves: 143]
[num_threads: 0]
[seed: 42]
[deterministic: 0]
[force_col_wise: 0]
[force_row_wise: 1]
[histogram_pool_size: -1]
[max_depth: -1]
[min_data_in_leaf: 113]
[min_sum_hessian_in_leaf: 0.001]
[bagging_fraction: 0.795875]
[pos_bagging_fraction: 1]
[neg_bagging_fraction: 1]
[bagging_freq: 1]
[bagging_seed: 400]
[bagging_by_query: 0]
[feature_fraction: 0.924792]
[feature_fraction_bynode: 1]
[feature_fraction_seed: 30056]
[extra_trees: 0]
[extra_seed: 12879]
[early_stopping_round: 0]
[early_stopping_min_delta: 0]
[first_metric_only: 0]
[max_delta_step: 0]
[lambda_l1: 0]
[lambda_l2: 0.00111424]
[linear_lambda: 0]
[min_gain_to_split: 0]
[drop_rate: 0.1]
[max_drop: 50]
[skip_drop: 0.5]
[xgboost_dart_mode: 0]
[uniform_drop: 0]
[drop_seed: 17869]
[top_rate: 0.2]
[other_rate: 0.1]
[min_data_per_group: 100]
[max_cat_threshold: 32]
[cat_l2: 10]
[cat_smooth: 10]
[max_cat_to_onehot: 4]
[top_k: 20]
[monotone_constraints: ]
[monotone_constraints_method: basic]
[monotone_penalty: 0]
[feature_contri: ]
[forcedsplits_filename: ]
[refit_decay_rate: 0.9]
[cegb_tradeoff: 1]
[cegb_penalty_split: 0]
[cegb_penalty_feature_lazy: ]
[cegb_penalty_feature_coupled: ]
[path_smooth: 0]
[interaction_constraints: ]
[verbosity: -1]
[saved_feature_importance_type: 0]
[use_quantized_grad: 0]
[num_grad_quant_bins: 4]
[quant_train_renew_leaf: 0]
[stochastic_rounding: 1]
[linear_tree: 0]
[max_bin: 255]
[max_bin_by_feature: ]
[min_data_in_bin: 3]
[bin_construct_sample_cnt: 200000]
[data_random_seed: 175]
[is_enable_sparse: 1]
[enable_bundle: 1]
[use_missing: 1]
[zero_as_missing: 0]
[feature_pre_filter: 1]
[pre_partition: 0]
[two_round: 0]
[header: 0]
[label_column: ]
[weight_column: ]
[group_column: ]
[ignore_column: ]
[categorical_feature: ]
[forcedbins_filename: ]
[precise_float_parser: 0]
[parser_config_file: ]
[objective_seed: 16083]
[num_class: 1]
[is_unbalance: 0]
[scale_pos_weight: 1]
[sigmoid: 1]
[boost_from_average: 1]
[reg_sqrt: 0]
[alpha: 0.9]
[fair_c: 1]
[poisson_max_delta_step: 0.7]
[tweedie_variance_power: 1.5]
[lambdarank_truncation_level: 30]
[lambdarank_norm: 1]
[label_gain: ]
[lambdarank_position_bias_regularization: 0]
[eval_at: ]
[multi_error_top_k: 1]
[auc_mu_weights: ]
[num_machines: 1]
[local_listen_port: 12400]
[time_out: 120]
[machine_list_filename: ]
[machines: ]
[gpu_platform_id: -1]
[gpu_device_id: -1]
[gpu_use_dp: 0]
[num_gpu: 1]

end of parameters

pandas_categorical:[]
