tree
version=v4
num_class=1
num_tree_per_iteration=1
label_index=0
max_feature_idx=109
objective=regression
feature_names=pm2_5_mean pm10_mean co_mean no_mean no2_mean o3_mean so2_mean nh3_mean num_hours o3_8h_max_ppb temp_mean temp_min temp_max humidity_mean dew_point_mean pressure_mean wind_speed_mean wind_speed_max wind_gust_max clouds_mean visibility_mean rain_sum snow_sum wind_u_mean wind_v_mean temp_range is_complete_day imputed aqi_daily day_of_week day_of_year month is_weekend week_of_year doy_sin doy_cos aqi_daily_lag1 aqi_daily_lag2 aqi_daily_lag3 aqi_daily_lag4 aqi_daily_lag5 aqi_daily_lag6 aqi_daily_lag7 pm2_5_mean_lag1 pm2_5_mean_lag2 pm2_5_mean_lag3 pm2_5_mean_lag4 pm2_5_mean_lag5 pm2_5_mean_lag6 pm2_5_mean_lag7 pm10_mean_lag1 pm10_mean_lag2 pm10_mean_lag3 pm10_mean_lag4 pm10_mean_lag5 pm10_mean_lag6 pm10_mean_lag7 aqi_roll_mean_3 aqi_roll_std_3 aqi_roll_mean_7 aqi_roll_std_7 aqi_roll_mean_14 aqi_roll_std_14 aqi_roll_mean_30 aqi_roll_std_30 pm25_roll_mean_3 pm25_roll_std_3 pm25_roll_mean_7 pm25_roll_std_7 pm25_roll_mean_14 pm25_roll_std_14 pm25_roll_mean_30 pm25_roll_std_30 pm10_roll_mean_3 pm10_roll_std_3 pm10_roll_mean_7 pm10_roll_std_7 pm10_roll_mean_14 pm10_roll_std_14 pm10_roll_mean_30 pm10_roll_std_30 temp_mean_lag1 temp_mean_lag2 temp_mean_lag3 temp_mean_roll_mean_3 temp_mean_roll_std_3 temp_mean_roll_mean_7 temp_mean_roll_std_7 humidity_mean_lag1 humidity_mean_lag2 humidity_mean_lag3 humidity_mean_roll_mean_3 humidity_mean_roll_std_3 humidity_mean_roll_mean_7 humidity_mean_roll_std_7 wind_u_mean_lag1 wind_u_mean_lag2 wind_u_mean_lag3 wind_u_mean_roll_mean_3 wind_u_mean_roll_std_3 wind_u_mean_roll_mean_7 wind_u_mean_roll_std_7 wind_v_mean_lag1 wind_v_mean_lag2 wind_v_mean_lag3 wind_v_mean_roll_mean_3 wind_v_mean_roll_std_3 wind_v_mean_roll_mean_7 wind_v_mean_roll_std_7 aqi_change_rate
feature_infos=[3.2025000000000001:616.58416666666665] [7.335:727.84458333333339] [199.15916666666666:8809.7250000000004] [0.14041666666666666:108.66958333333334] [1.5658333333333332:190.92708333333334] [15.069166666666666:145.91041666666666] [0.99124999999999996:68.564583333333331] [0:102.25625000000001] none [14.790267499999999:176.00265625000003] [14.854166666666666:33.404166666666669] [8.9000000000000004:30.5] [19.399999999999999:41.600000000000001] [19.666666666666668:89.916666666666671] [-9.7791666666666668:27.520833333333332] [992.13333333333333:1021.0333333333333] [5.6708333333333334:38.666666666666664] [9.9000000000000004:46.600000000000001] [22:68.400000000000006] [0:100] none [0:69.5] none [-20.75033541925556:24.207842000746769] [-31.955843386774617:32.357982578309056] [1.3000000000000007:15.599999999999998] none none [20.310513888888895:473.69301200800538] [0:6] [1:365] [1:12] [0:1] [1:52] [-0.99999073973619013:0.99999073973619013] [-0.99996295911626554:1] [20.310513888888895:473.69301200800538] [20.310513888888895:473.69301200800538] [20.310513888888895:473.69301200800538] [20.310513888888895:473.69301200800538] [20.310513888888895:473.69301200800538] [20.310513888888895:473.69301200800538] [20.310513888888895:473.69301200800538] [3.2025000000000001:616.58416666666665] [3.2025000000000001:616.58416666666665] [3.2025000000000001:616.58416666666665] [3.2025000000000001:616.58416666666665] [3.2025000000000001:616.58416666666665] [3.2025000000000001:616.58416666666665] [3.2025000000000001:616.58416666666665] [7.335:727.84458333333339] [7.335:727.84458333333339] [7.335:727.84458333333339] [7.335:727.84458333333339] [7.335:727.84458333333339] [7.335:727.84458333333339] [7.335:727.84458333333339] [23.287928240740744:420.38816868068869] [0.36225390695057991:223.01663741237891] [28.7995980489418:330.95011380746035] [1.0051693309337055:143.98224536856443] [34.520902001560238:299.78325252973406] [4.0745779966308149:127.01183900955438] [54.542583670214306:276.27722359370802] [7.5247141395423887:108.03662466088053] [3.6938888888888868:414.78416666666664] [0.17190130270067416:291.14502714030704] [5.703035714285714:331.91726190476186] [0.47796827368254424:215.84586975494693] [8.0616071428571434:279.02226190476188] [1.3003994232156659:174.324293385392] [12.978097222222223:253.39080857487926] [2.2282575530630249:159.67865982247835] [8.9851388888888888:521.65083333333337] [0.93673644856754534:322.32901563701631] [17.508571428571429:426.39926501035188] [2.823271417950711:233.30853092118917] [27.165773809523809:354.93467132505168] [6.3079273066928963:195.26238333156573] [40.605972222222221:328.48638043478257] [13.414903642726479:181.14645426343196] [14.854166666666666:33.404166666666669] [14.854166666666666:33.404166666666669] [14.854166666666666:33.404166666666669] [15.222222222222221:32.720833333333339] [0.004166666601820114:3.9126582620932324] [16.284523809523812:32.294047619047618] [0.058070553236756951:3.293967073406701] [19.666666666666668:89.916666666666671] [19.666666666666668:89.916666666666671] [19.666666666666668:89.916666666666671] [24.958333333333325:87.861111111111086] [0.15023130314661598:28.236671306679963] [33.678571428571431:87.178571428571431] [0.29462782549440319:23.855888636121843] [-20.75033541925556:24.207842000746769] [-20.75033541925556:24.207842000746769] [-20.75033541925556:24.207842000746769] [-16.266592414656426:15.737500711044232] [0.036082192266263739:16.862732605415268] [-13.344778704165803:10.743463918782268] [0.43440262356427911:14.190189193664683] [-31.955843386774617:32.357982578309056] [-31.955843386774617:32.357982578309056] [-31.955843386774617:32.357982578309056] [-29.027156770813885:29.070768265891612] [0.090583250002317123:24.163855168486474] [-27.889031488706546:15.695094555819487] [1.1945871489869737:27.118552654428147] [-296.13176417042041:436.92353799060487]
tree_sizes=863 812 893 1051 965 883 886 888 805 964 894 889 964 895 1049 887 1042 963 891 962 963 882 962 890 886 973 896 892 891 970 1055 901 1053 894 815 823 820 898 898 982

Tree=0
num_leaves=9
num_cat=0
split_feature=35 35 57 95 62 28 100 54
split_gain=2.6663e+06 331812 230541 50930.8 45754.9 30007.3 8244.26 5311.25
threshold=0.3896304495307879 0.70252747416915695 93.733218298650684 5.1572582795310344 39.453040765183026 65.78893955650932 -5.0662410019352393 57.622916666666676
decision_type=2 2 2 2 10 2 2 10
left_child=2 -2 5 -3 -4 6 -1 -7
right_child=1 3 4 -5 -6 7 -8 -9
leaf_value=127.80611482020032 131.76942290241979 133.83908520844076 129.56398349506426 135.14373130085943 130.94729679714007 129.05059389439373 128.34494495681824 128.58034135283529
leaf_weight=93 99 95 68 79 61 65 89 87
leaf_count=93 99 95 68 79 61 65 89 87
internal_value=130.595 133.473 128.896 134.439 130.217 128.387 128.065 128.778
internal_weight=736 273 463 174 129 334 182 152
internal_count=736 273 463 174 129 334 182 152
is_linear=0
shrinkage=1


Tree=1
num_leaves=8
num_cat=0
split_feature=35 35 65 25 28 109 87
split_gain=2.52244e+06 261459 189032 67934.1 36973.7 8206.76 6925.29
threshold=0.3896304495307879 0.72064045540576316 34.233888888888856 10.350000000000001 65.78893955650932 9.9099788173955279 0.31982938733078231
decision_type=2 2 2 2 2 2 2
left_child=2 -2 4 -3 6 -6 -1
right_child=1 3 -4 -5 5 -7 -8
leaf_value=-2.6768297480020049 1.3147812859351322 2.7569367947084671 -0.34037293887146264 4.3171801881861604 -1.9028391602133612 -1.3463377273322117 -2.1746667724201414
leaf_weight=106 99 65 107 100 106 61 78
leaf_count=106 99 65 107 100 106 61 78
internal_value=-0.045063 2.81414 -1.69401 3.70931 -2.10594 -1.70264 -2.46826
internal_weight=722 264 458 165 351 167 184
internal_count=722 264 458 165 351 167 184
is_linear=0
shrinkage=0.0367523


Tree=2
num_leaves=9
num_cat=0
split_feature=35 35 28 92 100 28 100 100
split_gain=2.22419e+06 306301 108084 55162.6 32602.1 22226.3 5452.73 2746.7
threshold=0.25951179706979971 0.68389408864483059 92.863367310443508 7.9865682456265841 1.1871408982380711 65.78893955650932 -5.0662410019352393 -5.1556594716988577
decision_type=2 2 2 2 2 2 2 2
left_child=2 4 5 -3 -2 6 -1 -7
right_child=1 3 -4 -5 -6 7 -8 -9
leaf_value=-2.5936535788345036 0.34380078372242129 3.875093930174939 -0.76454977756037079 2.5224880406056007 1.5269583763339294 -1.9264760004632506 -2.1586018221313523 -1.5416172482572228
leaf_weight=100 63 102 103 73 63 66 95 61
leaf_count=100 63 102 103 73 63 66 95 61
internal_value=-0.0927209 2.32304 -1.80412 3.31671 0.937839 -2.13553 -2.38574 -1.74613
internal_weight=726 301 425 175 126 322 195 127
internal_count=726 301 425 175 126 322 195 127
is_linear=0
shrinkage=0.0367523


Tree=3
num_leaves=11
num_cat=0
split_feature=35 57 35 100 7 28 96 70 66 12
split_gain=2.16495e+06 220153 207652 61431.8 53279.4 30297.3 25018.7 8136.05 4357.37 2127.37
threshold=0.42110087079608943 98.588019890588356 0.83824865459667641 -0.81572586736747099 16.938958333333336 67.105069742489292 4.9945230601523045 8.2279939185221078 3.8149623665267076 31.950000000000003
decision_type=2 2 2 2 2 2 10 10 2 2
left_child=1 5 4 -3 -2 7 -4 9 -7 -1
right_child=2 3 6 -5 -6 8 -8 -9 -10 -11
leaf_value=-2.6643798715230171 0.84929961699178369 -1.0355231374763341 3.1252277946260434 0.58418255377079131 2.2735811627475093 -1.7846408692319427 4.2253205174358159 -1.9633255940766006 -1.3480710288288262 -2.2725439231655074
leaf_weight=63 64 61 62 65 81 70 64 79 70 64
leaf_count=63 64 61 62 65 81 70 64 79 70 64
internal_value=-0.0137086 -1.51666 2.60263 -0.200622 1.64831 -1.99526 3.69364 -2.28124 -1.57006 -2.47336
internal_weight=743 472 271 126 145 346 126 206 140 127
internal_count=743 472 271 126 145 346 126 206 140 127
is_linear=0
shrinkage=0.0367523


Tree=4
num_leaves=10
num_cat=0
split_feature=35 35 65 35 100 0 109 100 56
split_gain=2.04565e+06 301406 116316 54911.1 47624 24706.4 10132.6 5380.09 2459.95
threshold=0.25951179706979971 0.72660752476856549 34.49097222222219 0.8977101403255705 1.5234737517452319 16.518750000000004 7.4109230117098486 -5.0662410019352393 65.704791666666679
decision_type=2 2 2 2 2 2 2 2 10
left_child=2 4 5 -3 -2 7 8 -1 -7
right_child=1 3 -4 -5 -6 6 -8 -9 -10
leaf_value=-2.4997849395052754 0.37629901297376889 2.5891163700841484 -0.38106781892768365 3.9464771188949221 1.7357847454777853 -1.6289274710051287 -1.2524769713995774 -2.0175279175059431 -1.9899271483851653
leaf_weight=80 75 79 82 90 65 63 65 74 73
leaf_count=80 75 79 82 90 65 63 65 74 73
internal_value=-0.0126306 2.27472 -1.6305 3.31829 1.0101 -1.91848 -1.64363 -2.27289 -1.82707
internal_weight=746 309 437 169 140 355 201 154 136
internal_count=746 309 437 169 140 355 201 154 136
is_linear=0
shrinkage=0.0367523


Tree=5
num_leaves=9
num_cat=0
split_feature=0 65 12 100 7 3 0 30
split_gain=1.87697e+06 237899 197663 45144.7 34076.8 27579.1 14430.5 4841.84
threshold=62.907916666666672 34.49097222222219 29.150000000000002 -0.66882256166639364 2.388958333333334 13.502708333333336 23.34833333333334 216.50000000000003
decision_type=2 2 2 2 2 2 2 2
left_child=1 4 5 -3 6 -2 7 -1
right_child=2 3 -4 -5 -6 -7 -8 -9
leaf_value=-1.9153506897979544 4.0203987797207725 -0.69999511647861312 1.3395854912314236 0.65981989660890872 -1.072117773398352 2.9696368594823315 -1.4573530764442872 -2.2935257586527831
leaf_weight=108 63 61 106 71 72 90 61 116
leaf_count=108 63 61 106 71 72 90 61 116
internal_value=0.0377015 -1.30198 2.56549 0.0312408 -1.79451 3.41007 -1.97555 -2.1143
internal_weight=748 489 259 132 357 153 285 224
internal_count=748 489 259 132 357 153 285 224
is_linear=0
shrinkage=0.0367523


Tree=6
num_leaves=9
num_cat=0
split_feature=35 35 57 59 97 0 100 48
split_gain=1.66664e+06 187958 160686 59735.7 33310.9 21939.2 6836.13 5532.5
threshold=0.3896304495307879 0.70252747416915695 93.733218298650684 215.28901361093145 -1.4966778427229659 19.42229166666667 -5.0662410019352393 18.528333333333336
decision_type=2 2 2 2 10 2 2 10
left_child=2 -2 5 -3 -4 6 -1 -7
right_child=1 3 4 -5 -6 7 -8 -9
leaf_value=-2.2426292164312414 0.9222957234194632 2.181499582994114 -0.88081076640699629 3.5562512010872931 0.29934576848203287 -1.1425739385991538 -1.789766959863401 -1.632388760556174
leaf_weight=105 96 80 61 98 68 62 101 74
leaf_count=105 96 80 61 98 68 62 101 74
internal_value=-0.0401457 2.23738 -1.36572 2.9436 -0.259542 -1.7823 -2.02383 -1.41242
internal_weight=745 274 471 178 129 342 206 136
internal_count=745 274 471 178 129 342 206 136
is_linear=0
shrinkage=0.0367523


Tree=7
num_leaves=9
num_cat=0
split_feature=35 35 28 38 94 76 28 87
split_gain=1.55654e+06 251904 94021 48488.7 33943.2 26948.4 18630.9 3406.42
threshold=0.25951179706979971 0.68389408864483059 92.863367310443508 182.1005696164014 8.9388369121572975 89.017772344361873 67.105069742489292 0.30331065630766446
decision_type=2 2 2 10 2 2 2 2
left_child=2 4 6 -3 -2 -5 7 -1
right_child=1 3 -4 5 -6 -7 -8 -9
leaf_value=-2.1696643686824681 0.11282495693817425 1.9915751361581846 -0.49389053254483861 3.8180272440787304 1.3089867334626979 2.6771853194186712 -1.3989382976298699 -1.8239888438334584
leaf_weight=101 65 65 101 61 63 61 112 97
leaf_count=101 65 65 101 61 63 61 112 97
internal_value=0.0195075 1.96222 -1.46981 2.82108 0.703425 3.25642 -1.78691 -2.00366
internal_weight=726 315 411 187 128 122 310 198
internal_count=726 315 411 187 128 122 310 198
is_linear=0
shrinkage=0.0367523


Tree=8
num_leaves=8
num_cat=0
split_feature=35 35 65 25 25 28 67
split_gain=1.56411e+06 184780 111781 56649.3 16673 11558.3 3116.28
threshold=0.3896304495307879 0.70252747416915695 34.233888888888856 10.350000000000001 6.200000000000002 65.382696836028387 17.140892857142862
decision_type=2 2 2 2 2 2 2
left_child=2 -2 4 -3 5 6 -1
right_child=1 3 -4 -5 -6 -7 -8
leaf_value=-2.1625531125221689 0.88955249695792116 2.0796251786264444 -0.30250918890193818 3.4311538866985662 -1.2146927003963177 -1.4684401010593862 -1.7856859239023712
leaf_weight=87 97 73 111 106 93 95 70
leaf_count=87 97 73 111 106 93 95 70
internal_value=0.00332835 2.18551 -1.3181 2.88484 -1.64425 -1.80096 -1.99865
internal_weight=732 276 456 179 345 252 157
internal_count=732 276 456 179 345 252 157
is_linear=0
shrinkage=0.0367523


Tree=9
num_leaves=10
num_cat=0
split_feature=0 35 12 0 35 38 10 68 0
split_gain=1.35342e+06 177506 157491 51468.6 34453.9 26977.1 7804.14 6145.83 3174.36
threshold=65.90229166666667 0.25118075958286767 29.150000000000002 19.42229166666667 -0.26781430516217447 197.20868238496666 30.506250000000005 7.4725765636058643 13.27604166666667
decision_type=2 2 2 2 2 10 2 2 2
left_child=1 3 5 7 6 -2 -5 8 -1
right_child=2 -3 -4 4 -6 -7 -8 -9 -10
leaf_value=-2.2028177943934275 2.4561498571564355 0.41053336601959506 1.1423745114246511 -1.5714160157097674 -0.30191534976749779 3.531019752136745 -1.0114216072320206 -1.5248936661296431 -1.8074401437900003
leaf_weight=65 63 84 104 84 62 74 61 62 79
leaf_count=65 63 84 104 84 62 74 61 62 79
internal_value=-0.0323652 -1.12823 2.22601 -1.44127 -1.02913 3.04387 -1.33868 -1.85309 -1.99057
internal_weight=738 497 241 413 207 137 145 206 144
internal_count=738 497 241 413 207 137 145 206 144
is_linear=0
shrinkage=0.0367523


Tree=10
num_leaves=9
num_cat=0
split_feature=35 35 65 59 23 0 70 15
split_gain=1.39067e+06 173347 124803 40169.7 18260.7 12116.7 2633.01 1658.77
threshold=0.3896304495307879 0.70252747416915695 34.233888888888856 215.28901361093145 -0.72204292375412849 18.811041666666672 8.0371865617136447 1001.3020833333335
decision_type=2 2 2 2 2 2 10 2
left_child=2 -2 4 -3 5 6 -1 -7
right_child=1 3 -4 -5 -6 7 -8 -9
leaf_value=-1.9730045904782874 0.83289569979089761 2.1579021922401558 -0.14660683457621729 3.2969091818081648 -0.94489137271939028 -1.2061330333925973 -1.6369924905380357 -1.5075856684546696
leaf_weight=108 95 80 117 96 62 62 67 63
leaf_count=108 95 80 117 96 62 62 67 63
internal_value=-0.000494869 2.10203 -1.19066 2.78422 -1.52765 -1.64691 -1.8477 -1.36166
internal_weight=750 271 479 176 362 300 175 125
internal_count=750 271 479 176 362 300 175 125
is_linear=0
shrinkage=0.0367523


Tree=11
num_leaves=9
num_cat=0
split_feature=35 35 1 9 94 28 35 70
split_gain=1.18021e+06 204501 57424.9 44500.8 25602.7 21263.7 8727.46 2853.11
threshold=0.21771516573566849 0.72064045540576316 119.08895833333334 52.106648125000014 8.9388369121572975 65.78893955650932 -0.38168922026665864 6.5283472140335759
decision_type=2 2 2 10 2 2 2 10
left_child=2 4 5 -3 -2 7 -7 -1
right_child=1 3 -4 -5 -6 6 -8 -9
leaf_value=-1.9070917772515972 0.21024060905948058 1.7070266945129795 -0.25390012375596821 2.9507357389355997 1.1649212248262388 -1.3955253941147368 -0.85572048688749514 -1.5832783374447146
leaf_weight=89 79 62 62 113 73 98 73 96
leaf_count=89 79 62 62 113 73 98 73 96
internal_value=0.00567894 1.65862 -1.2877 2.51418 0.670279 -1.46734 -1.16719 -1.7422
internal_weight=745 327 418 175 152 356 171 185
internal_count=745 327 418 175 152 356 171 185
is_linear=0
shrinkage=0.0367523


Tree=12
num_leaves=10
num_cat=0
split_feature=35 35 1 7 9 28 35 107 108
split_gain=1.14328e+06 164553 62255.8 37928 36470.2 21765.1 10856.5 3718.81 1361.19
threshold=0.25951179706979971 0.80898702767051955 120.83312500000001 17.311250000000005 54.42800625000001 65.78893955650932 -0.28435918728100346 -16.9768606318612 3.438051242847266
decision_type=2 2 2 2 10 2 2 2 2
left_child=2 3 5 -2 -3 7 -7 8 -1
right_child=1 4 -4 -5 -6 6 -8 -9 -10
leaf_value=-1.6193052659665743 0.46575665687277928 2.0397160808407673 -0.1207522169111032 1.5407007783434852 3.2797615557438449 -1.2943375122910077 -0.68257453636981857 -1.3970197650512937 -1.9160774607457458
leaf_weight=66 92 64 62 86 70 113 62 63 64
leaf_count=66 92 64 62 86 70 113 62 63 64
internal_value=0.0296249 1.72223 -1.19888 0.987014 2.69401 -1.38025 -1.0793 -1.6508 -1.76992
internal_weight=742 312 430 178 134 368 175 193 130
internal_count=742 312 430 178 134 368 175 193 130
is_linear=0
shrinkage=0.0367523


Tree=13
num_leaves=9
num_cat=0
split_feature=35 35 57 85 24 0 70 34
split_gain=1.0015e+06 159620 71852.3 41636.1 19136.1 16028.8 5880.96 3125.68
threshold=0.24284972209593572 0.68389408864483059 93.733218298650684 0.39611099647086051 -8.7719763782052684 16.518750000000004 6.7694568526131045 -0.59125596962661853
decision_type=2 2 2 2 2 2 10 2
left_child=2 4 5 -3 -2 7 -7 -1
right_child=1 3 -4 -5 -6 6 -8 -9
leaf_value=-1.8946477560807926 0.16462160678821275 2.9266479533506859 -0.26718495384159741 1.7866526815441393 1.0463477512282171 -0.92091443279879681 -1.3578155532246434 -1.5054290223804061
leaf_weight=78 68 77 93 105 65 69 121 61
leaf_count=78 68 77 93 105 65 69 121 61
internal_value=-0.000204238 1.567 -1.17035 2.27341 0.597073 -1.42512 -1.20104 -1.72784
internal_weight=737 315 422 182 133 329 190 139
internal_count=737 315 422 182 133 329 190 139
is_linear=0
shrinkage=0.0367523


Tree=14
num_leaves=11
num_cat=0
split_feature=28 35 79 64 28 35 100 10 15 30
split_gain=1.05573e+06 151637 140782 73626.7 31190.6 25129.4 21022.9 7534.59 6499.39 2779.64
threshold=154.82495170354761 0.24284972209593572 193.0095323067633 86.393936443190171 66.177119098712453 -0.2093068927635835 2.2094153126872191 30.691666666666666 1002.9729166666667 241.50000000000003
decision_type=2 2 10 10 2 2 2 2 2 2
left_child=1 4 6 -4 8 7 -2 -6 -1 -10
right_child=2 -3 3 -5 5 -7 -8 -9 9 -11
leaf_value=-1.2123166012637008 0.65126994100628455 0.44603016555550234 3.7449576827024584 1.9559526862283849 -1.3540317950451104 -0.2664083281297242 1.5978120750955027 -0.82075094858285069 -1.5064277567939426 -1.8750285722245748
leaf_weight=62 65 91 63 64 95 61 63 61 73 65
leaf_count=62 65 91 63 64 95 61 63 61 73 65
internal_value=0.05658 -0.911922 1.98466 2.85086 -1.20838 -0.900744 1.12008 -1.14769 -1.54012 -1.68413
internal_weight=763 508 255 127 417 217 128 156 200 138
internal_count=763 508 255 127 417 217 128 156 200 138
is_linear=0
shrinkage=0.0367523


Tree=15
num_leaves=9
num_cat=0
split_feature=35 35 65 42 88 11 15 99
split_gain=837740 102346 92001.9 27132 21122.2 14478.9 8388.23 1921.49
threshold=0.3896304495307879 0.83824865459667641 34.49097222222219 170.76447356866882 47.937500000000007 25.250000000000004 1001.3020833333335 1.8686460145919079
decision_type=2 2 2 10 2 2 2 2
left_child=2 3 5 -2 -3 -1 -7 -8
right_child=1 4 -4 -5 -6 6 7 -9
leaf_value=-0.81887895223589191 1.3591082628827098 2.8563299363043475 -0.068883621224802349 0.34603939074500428 1.8727765473955065 -1.1294206919373697 -1.6679645315863396 -1.3802237145180474
leaf_weight=76 83 61 113 63 64 104 105 67
leaf_count=76 83 61 113 63 64 104 105 67
internal_value=-0.0352215 1.58786 -0.981604 0.92374 2.35905 -1.27427 -1.39853 -1.55876
internal_weight=736 271 465 146 125 352 276 172
internal_count=736 271 465 146 125 352 276 172
is_linear=0
shrinkage=0.0367523


Tree=16
num_leaves=11
num_cat=0
split_feature=28 35 35 2 28 85 35 10 68 1
split_gain=879035 106277 98892.6 37724.8 25376.1 20429.5 19174.2 6688.47 4969.75 2660.86
threshold=154.82495170354761 0.81898454963288581 0.25118075958286767 2873.3418750000005 66.177119098712453 0.54862779351342694 -0.21772323039653199 30.477083333333336 7.4725765636058643 47.380625000000002
decision_type=2 2 2 2 2 2 2 2 2 2
left_child=2 5 4 -3 8 -2 7 -6 9 -1
right_child=1 3 -4 -5 6 -7 -8 -9 -10 -11
leaf_value=-1.7569176535692634 1.5064256277257055 3.1732731473612059 0.25147354865660682 1.872793233491064 -1.27718184563601 0.56304040167129188 -0.30170922395957622 -0.7731692871882323 -1.1444345735683543 -1.3902190619993275
leaf_weight=61 61 64 85 61 89 64 62 63 61 70
leaf_count=61 61 64 85 61 89 64 62 63 61 70
internal_value=0.0154981 1.7881 -0.887649 2.54528 -1.12615 1.02618 -0.848524 -1.07042 -1.43358 -1.56498
internal_weight=741 250 491 125 406 125 214 152 192 131
internal_count=741 250 491 125 406 125 214 152 192 131
is_linear=0
shrinkage=0.0367523


Tree=17
num_leaves=10
num_cat=0
split_feature=35 24 53 1 106 28 35 15 94
split_gain=711990 100844 71406.2 48396.9 29786.2 13370 6515.23 4444.67 1427.2
threshold=0.25951179706979971 -8.7719763782052684 137.47250000000003 119.08895833333334 4.472906262931315 65.78893955650932 -0.28435918728100346 1002.8437500000001 2.9222586374315216
decision_type=2 2 10 2 2 2 2 2 2
left_child=3 -2 -3 5 -4 7 -7 -1 -9
right_child=1 2 4 -5 -6 6 -8 8 -10
leaf_value=-1.09733782128062 0.14384059780293884 0.7609365973154496 2.6372203514147747 -0.13312997239274343 1.5994733885889723 -1.0934318091760284 -0.61186820595169411 -1.6192321446033247 -1.3378921969871134
leaf_weight=61 74 74 82 74 73 108 61 73 62
leaf_count=61 74 74 82 74 73 108 61 73 62
internal_value=-0.045316 1.32421 1.70488 -0.990854 2.15294 -1.16447 -0.921154 -1.37236 -1.49362
internal_weight=742 303 229 439 155 365 169 196 135
internal_count=742 303 229 439 155 365 169 196 135
is_linear=0
shrinkage=0.0367523


Tree=18
num_leaves=9
num_cat=0
split_feature=35 84 35 30 0 74 15 33
split_gain=757321 91700.2 76945.4 51541.8 13826.7 4997.25 4691.41 747.527
threshold=0.45207220393230413 21.647222222222226 0.038722280892174228 311.50000000000006 19.802708333333339 17.609729391759242 1002.8437500000001 33.500000000000007
decision_type=2 2 2 2 2 2 2 2
left_child=2 -2 4 -3 6 -6 -1 -8
right_child=1 3 -4 -5 5 -7 7 -9
leaf_value=-1.0978041678080372 2.4521408581832316 0.27564163923491775 -0.023751278808021505 1.6685976444431847 -0.69774470537462208 -1.0922146694401358 -1.3703391391941726 -1.6073130891395295
leaf_weight=68 103 68 108 76 87 93 61 63
leaf_count=68 103 68 108 76 87 93 61 63
internal_value=-0.0367304 1.61559 -0.887517 1.01296 -1.13804 -0.90319 -1.35628 -1.49471
internal_weight=727 247 480 144 372 180 192 124
internal_count=727 247 480 144 372 180 192 124
is_linear=0
shrinkage=0.0367523


Tree=19
num_leaves=10
num_cat=0
split_feature=28 35 12 2 28 35 60 84 4
split_gain=695504 102382 78619.9 32440 17946.9 18182.5 6284.01 3172.91 869.066
threshold=154.82495170354761 0.25118075958286767 29.050000000000004 2900.3225000000007 65.78893955650932 -0.20089055513063514 15.52218566443352 29.372916666666672 5.9793750000000001
decision_type=2 2 2 2 2 2 2 2 2
left_child=1 4 3 -2 7 6 -6 8 -1
right_child=2 -3 -4 -5 5 -7 -8 -9 -10
leaf_value=-1.4941577430015183 2.6873576264861851 0.39433997102124607 0.85850059277998392 1.5537203338751562 -0.78739839921297405 -0.24256884271416193 -1.2662096371551987 -1.0457942529109951 -1.2543662295624676
leaf_weight=64 78 85 107 64 93 62 65 65 61
leaf_count=64 78 85 107 64 93 62 65 65 61
internal_value=0.0316288 -0.76527 1.61473 2.18124 -1.0058 -0.777615 -0.986621 -1.2682 -1.38077
internal_weight=744 495 249 142 410 220 158 190 125
internal_count=744 495 249 142 410 220 158 190 125
is_linear=0
shrinkage=0.0367523


Tree=20
num_leaves=10
num_cat=0
split_feature=28 35 35 2 12 76 0 54 19
split_gain=593534 84704 66375 29967.7 15340.4 12190.4 9940.36 6074.47 1042.93
threshold=154.82495170354761 0.24284972209593572 0.81898454963288581 2900.3225000000007 33.750000000000007 62.096732793348792 16.518750000000004 60.436041666666675 33.791666666666679
decision_type=2 2 2 2 2 2 2 10 2
left_child=1 4 5 -4 6 -2 8 -8 -1
right_child=2 -3 3 -5 -6 -7 7 -9 -10
leaf_value=-1.5076082598625771 1.1567971487135398 0.22366002197579807 2.5856943572029985 1.4180080569267752 -0.58804096974717457 0.42235584830666717 -0.69511600745651525 -1.1328434081611523 -1.2670908692292855
leaf_weight=61 62 89 61 61 87 61 74 110 82
leaf_count=61 62 89 61 61 87 61 74 110 82
internal_value=-0.0818557 -0.804281 1.40041 2.00729 -1.02527 0.79468 -1.14088 -0.95837 -1.37294
internal_weight=748 503 245 122 414 123 327 184 143
internal_count=748 503 245 122 414 123 327 184 143
is_linear=0
shrinkage=0.0367523


Tree=21
num_leaves=9
num_cat=0
split_feature=35 35 57 56 19 25 28 57
split_gain=593715 110642 67748.1 54557 32535.7 7335.85 4511.93 2783.98
threshold=0.42110087079608943 0.8977101403255705 93.733218298650684 167.02562500000002 19.687500000000004 6.200000000000002 69.619474248927062 53.18651200849699
decision_type=2 2 2 10 2 2 2 2
left_child=2 3 5 -2 -4 6 7 -1
right_child=1 -3 4 -5 -6 -7 -8 -9
leaf_value=-1.4487905613181049 1.4613160094501174 2.495293759561608 0.57262471016257921 0.13441535473986885 -0.55149720753016995 -0.74067992561849016 -0.88170922880335934 -1.1180017753371785
leaf_weight=61 98 89 61 73 80 91 72 107
leaf_count=61 98 89 61 73 80 91 72 107
internal_value=0.0368683 1.44608 -0.739864 0.89622 -0.0649722 -1.027 -1.13439 -1.24073
internal_weight=732 260 472 171 141 331 240 168
internal_count=732 260 472 171 141 331 240 168
is_linear=0
shrinkage=0.0367523


Tree=22
num_leaves=10
num_cat=0
split_feature=28 30 40 62 84 86 0 62 0
split_gain=544787 66797.6 64590.1 27638 27545.7 11390 6982.42 3176.64 1816.52
threshold=154.82495170354761 278.50000000000006 170.4974863891816 38.67213930100062 21.647222222222226 30.694345238095242 18.811041666666672 18.356346284595642 12.639583333333336
decision_type=2 2 10 8 2 2 2 10 2
left_child=1 3 -2 5 -4 6 8 -8 -1
right_child=2 -3 4 -5 -6 -7 7 -9 -10
leaf_value=-1.4271171281505197 0.62230676072220115 0.34651240246703607 2.3538394865388592 -0.19553785018541647 1.3546102270439171 -0.58955974451006266 -0.70223650628471623 -1.0816567764856204 -1.1560064025998276
leaf_weight=67 91 69 77 67 76 72 62 64 102
leaf_count=67 91 69 77 67 76 72 62 64 102
internal_value=-0.0231034 -0.7143 1.40082 -0.883091 1.8615 -1.00832 -1.10975 -0.897295 -1.26608
internal_weight=747 503 244 434 153 367 295 126 169
internal_count=747 503 244 434 153 367 295 126 169
is_linear=0
shrinkage=0.0367523


Tree=23
num_leaves=9
num_cat=0
split_feature=0 12 35 92 44 0 56 101
split_gain=491443 77891.6 63967.6 28876.4 16157.2 5959.61 5170.27 1643.59
threshold=62.907916666666672 29.050000000000004 0.24284972209593572 7.2107746140288596 28.131041666666672 16.518750000000004 56.589791666666677 2.3970806273581799
decision_type=2 2 2 2 10 2 10 2
left_child=2 3 4 -2 5 7 -7 -1
right_child=1 -3 -4 -5 -6 6 -8 -9
leaf_value=-1.3650564192508314 2.3779747053879494 0.53734248193054568 0.2003326546614535 1.316875193137391 -0.52344768734760205 -0.65062456667349966 -1.0726455218303104 -1.0799153143075881
leaf_weight=66 72 105 87 70 115 73 91 67
leaf_count=66 72 105 87 70 115 73 91 67
internal_value=-0.0409893 1.29875 -0.704568 1.85919 -0.895659 -1.03904 -0.886489 -1.22446
internal_weight=746 247 499 142 412 297 164 133
internal_count=746 247 499 142 412 297 164 133
is_linear=0
shrinkage=0.0367523


Tree=24
num_leaves=9
num_cat=0
split_feature=28 35 53 12 12 0 5 109
split_gain=544681 71356.7 67520 45687.4 14494.2 6436.35 2407.97 1062.12
threshold=156.7016069546892 0.24284972209593572 137.47250000000003 28.650000000000002 33.45000000000001 18.811041666666672 47.917708333333344 -2.1620567129629609
decision_type=2 2 10 2 2 2 2 2
left_child=1 4 -2 -4 5 7 -7 -1
right_child=2 -3 3 -5 -6 6 -8 -9
leaf_value=-1.2937143071228183 0.53146920071722725 0.2272229679997774 2.317917188467653 1.0627093810816595 -0.53715181443281157 -0.99171138111719415 -0.6664537461037453 -1.0826539694397748
leaf_weight=78 80 93 102 65 111 66 65 93
leaf_count=78 80 93 102 65 111 66 65 93
internal_value=-0.00130552 -0.691846 1.41235 1.83244 -0.89882 -1.03101 -0.832417 -1.18125
internal_weight=753 506 247 167 413 302 131 171
internal_count=753 506 247 167 413 302 131 171
is_linear=0
shrinkage=0.0367523


Tree=25
num_leaves=10
num_cat=0
split_feature=28 35 35 97 28 35 68 15 100
split_gain=474762 73536.4 56734 22759.2 12044.3 16095.1 5712.03 3521.88 1685.51
threshold=156.37104627678261 0.84750952922804634 0.25118075958286767 1.9702058715964326 66.177119098712453 -0.21772323039653199 6.730310338779284 1002.8437500000001 -4.5983401695104851
decision_type=2 2 2 10 2 2 2 2 2
left_child=2 3 4 -2 7 6 -6 -1 -9
right_child=1 -3 -4 -5 5 -7 -8 8 -10
leaf_value=-0.80566076604097125 0.3000008891185329 2.0301047715355036 0.21694035698292985 1.2499735432358734 -0.64575310568152089 -0.13349046035817733 -1.1100072976419497 -1.2652984686869326 -0.9851088761414748
leaf_weight=66 73 108 83 64 88 61 63 77 62
leaf_count=66 73 108 83 64 88 61 63 77 62
internal_value=-0.01047 1.31389 -0.659846 0.745733 -0.834396 -0.638279 -0.84146 -1.03585 -1.14297
internal_weight=745 245 500 137 417 212 151 205 139
internal_count=745 245 500 137 417 212 151 205 139
is_linear=0
shrinkage=0.0367523


Tree=26
num_leaves=9
num_cat=0
split_feature=35 100 19 106 28 100 107 105
split_gain=403861 85461.8 53763.6 34271 13225.8 5642.02 4266.48 1948.74
threshold=0.70860043010605911 -0.88930558076417487 22.083333333333339 4.4396564507013432 69.619474248927062 -5.0223502959307309 -16.9768606318612 -19.84607070714944
decision_type=2 2 2 2 2 2 2 2
left_child=1 4 -3 -2 6 -6 7 -1
right_child=3 2 -4 -5 5 -7 -8 -9
leaf_value=-0.97262827212841174 2.0840090013502519 0.80393206806745721 -0.49541210426040211 1.02716308156188 -0.79526418212462535 -0.39021536762337566 -0.73563326777581606 -1.2668298038601327
leaf_weight=77 84 91 81 84 83 108 63 64
leaf_count=77 84 91 81 84 83 108 63 64
internal_value=-0.022225 -0.491272 0.192256 1.55866 -0.788821 -0.567306 -0.994961 -1.10883
internal_weight=735 567 172 168 395 191 204 141
internal_count=735 567 172 168 395 191 204 141
is_linear=0
shrinkage=0.0367523


Tree=27
num_leaves=9
num_cat=0
split_feature=28 79 78 30 70 86 90 79
split_gain=384500 49412.8 55308 38625.2 15333.7 10220.9 3576.93 2926.81
threshold=154.82495170354761 193.0095323067633 107.57232756976892 277.50000000000006 17.224677563891028 30.608333333333338 77.645833333333357 66.196291666666681
decision_type=2 10 10 2 8 2 10 10
left_child=3 -2 -3 4 5 6 -1 -8
right_child=1 2 -4 -5 -6 -7 7 -9
leaf_value=-1.1684978930702288 0.56768451305116685 2.3475470530442104 0.83198812030423897 0.13377940759000567 -0.34690237322012196 -0.52339451728509045 -0.6848724630855636 -1.0276944188197714
leaf_weight=113 116 67 64 72 86 77 62 84
leaf_count=113 116 67 64 72 86 77 62 84
internal_value=-0.0605723 1.12249 1.6111 -0.652462 -0.786607 -0.898697 -1.00946 -0.883997
internal_weight=741 247 131 494 422 336 259 146
internal_count=741 247 131 494 422 336 259 146
is_linear=0
shrinkage=0.0367523


Tree=28
num_leaves=9
num_cat=0
split_feature=28 12 30 95 97 25 7 109
split_gain=377970 53505.6 41431 30198.2 17555 7723.54 6894.66 1952.89
threshold=154.82495170354761 29.150000000000002 277.50000000000006 5.1572582795310344 0.85223579558129725 6.200000000000002 0.57437500000000019 -1.7581738212499862
decision_type=2 2 2 2 8 2 2 2
left_child=2 3 4 -2 5 6 -1 -8
right_child=1 -3 -4 -5 -6 -7 7 -9
leaf_value=-0.72117423196984332 1.1128136163141806 0.54961664988745285 0.21172219237802678 2.1903764873496474 -0.15453552894311998 -0.57270863052890886 -1.2791251350401105 -0.97195161147022247
leaf_weight=108 73 105 76 70 63 116 63 66
leaf_count=108 73 105 76 70 63 116 63 66
internal_value=0.013093 1.18209 -0.576558 1.64415 -0.720624 -0.821414 -0.942172 -1.12487
internal_weight=740 248 492 143 416 353 237 129
internal_count=740 248 492 143 416 353 237 129
is_linear=0
shrinkage=0.0367523


Tree=29
num_leaves=10
num_cat=0
split_feature=0 79 78 30 28 74 23 65 56
split_gain=349061 54095.8 42510.9 39686.7 15781 18076.7 15502.4 3531.96 3676.66
threshold=65.90229166666667 193.0095323067633 105.924842710975 277.50000000000006 77.860622317596594 16.363565438828825 2.4085122142436535 14.595208333333298 61.201666666666675
decision_type=2 10 10 2 2 2 2 2 8
left_child=3 6 -3 4 7 -6 -2 -1 -9
right_child=1 2 -4 -5 5 -7 -8 8 -10
leaf_value=-1.0676390904259925 0.18113005587551334 2.3339831794319141 0.97139787697511615 0.20953294283870777 0.069984605333420352 -0.72203593600412652 0.9938458524310233 -0.55452706474282509 -0.92150528060168568
leaf_weight=96 66 62 63 75 62 104 61 63 97
leaf_count=96 66 62 63 75 62 104 61 63 97
internal_value=-0.00383255 1.10954 1.65163 -0.568723 -0.707094 -0.426672 0.573064 -0.888142 -0.778456
internal_weight=749 252 125 497 422 166 127 256 160
internal_count=749 252 125 497 422 166 127 256 160
is_linear=0
shrinkage=0.0367523


Tree=30
num_leaves=11
num_cat=0
split_feature=0 79 76 67 23 84 11 58 34 3
split_gain=329632 54113.3 45537.9 29390.3 22452 8898.28 6708.55 3423.78 2247.06 1635.42
threshold=52.747500000000009 193.0095323067633 93.440319117491867 43.465327380952395 2.4085122142436535 30.533333333333335 25.650000000000002 9.0478349855253217 -0.83827194252655735 0.60145833333333343
decision_type=2 10 2 2 2 2 2 2 2 2
left_child=3 4 -3 5 -2 6 7 -1 -8 -10
right_child=1 2 -4 -5 -6 -7 8 -9 9 -11
leaf_value=-0.81635894300802925 0.096737460565741201 2.2409399257491454 0.86819260708501778 0.057084599057002056 1.0220988188415328 -0.38904871835067878 -1.1520825502226213 -0.42269204248344194 -0.73450258085440689 -1.0156414919459034
leaf_weight=61 84 62 70 72 61 75 67 61 63 61
leaf_count=61 84 62 70 72 61 75 67 61 63 61
internal_value=-0.0216507 0.979295 1.51697 -0.624666 0.487474 -0.751117 -0.83737 -0.621207 -0.974124 -0.875148
internal_weight=737 277 132 460 145 388 313 122 191 124
internal_count=737 277 132 460 145 388 313 122 191 124
is_linear=0
shrinkage=0.0367523


Tree=31
num_leaves=9
num_cat=0
split_feature=35 100 19 25 109 100 76 7
split_gain=293665 59997.6 34632.8 30228.2 11865.5 5889.01 3967.54 3931.92
threshold=0.68389408864483059 -0.41115974704090169 22.083333333333339 10.350000000000001 9.3157176121691183 -5.0662410019352393 19.354362333052759 0.63916666666666677
decision_type=2 2 2 2 2 2 2 2
left_child=1 4 -3 -2 5 7 -7 -1
right_child=3 2 -4 -5 -6 6 -8 -9
leaf_value=-0.74991505545200876 0.75078048132477004 0.78432075820988623 -0.35785119527303999 1.6998453142992969 -0.28121616511774483 -0.3805916094530653 -0.75691385534207734 -1.1302611781437935
leaf_weight=94 83 74 69 102 96 71 84 65
leaf_count=94 83 74 69 102 96 71 84 65
internal_value=0.00995271 -0.414154 0.233651 1.27616 -0.640101 -0.749411 -0.585716 -0.907434
internal_weight=738 553 143 185 410 314 155 159
internal_count=738 553 143 185 410 314 155 159
is_linear=0
shrinkage=0.0367523


Tree=32
num_leaves=11
num_cat=0
split_feature=100 24 85 39 35 0 55 108 12 64
split_gain=253926 62196 63722.1 23170 19977.3 12014.5 7262.43 3440.91 3208.8 1287.97
threshold=0.29588267874696189 -8.5829318312789145 0.34473546558936113 193.75011195995788 0.25118075958286767 19.42229166666667 57.622916666666676 3.8355451384944672 32.250000000000007 25.063827123815887
decision_type=2 2 2 10 2 2 8 2 2 8
left_child=4 -2 -3 -4 5 8 -7 -8 9 -1
right_child=1 2 3 -5 -6 6 7 -9 -10 -11
leaf_value=-0.83056653834749405 -0.1587846201210685 2.1717758800582909 0.37139150572047003 1.2975523506360178 0.050414026200487377 -0.10753918439153648 -0.78337718209453555 -0.39700142477145156 -0.6314106916801332 -1.0788057657193919
leaf_weight=69 61 61 87 63 65 62 64 63 67 63
leaf_count=69 61 61 87 63 65 62 64 63 67 63
internal_value=-0.01282 0.874198 1.17261 0.762386 -0.545673 -0.64549 -0.434382 -0.593246 -0.844933 -0.951454
internal_weight=725 272 211 150 453 388 189 127 199 132
internal_count=725 272 211 150 453 388 189 127 199 132
is_linear=0
shrinkage=0.0367523


Tree=33
num_leaves=9
num_cat=0
split_feature=100 24 29 17 100 47 77 7
split_gain=261316 70358.1 35641.1 28242.5 15336.3 9719.2 14428.7 4974.41
threshold=-0.36940130006634647 -8.6974921571365158 2.5000000000000004 18.750000000000004 -5.0662410019352393 15.945625000000001 88.714946299171871 0.63916666666666677
decision_type=2 2 2 2 2 8 8 2
left_child=4 -2 -3 -4 7 -6 -7 -1
right_child=1 2 3 -5 5 6 -8 -9
leaf_value=-0.64221587730055185 -0.09370799326223668 1.7009010878765902 1.3374404267991773 0.2683059570629362 0.037902515246834377 -0.82371352545810728 -0.16724226274218723 -1.0298484691384473
leaf_weight=110 81 97 63 71 61 91 90 79
leaf_count=110 81 97 63 71 61 91 90 79
internal_value=0.028522 0.838123 1.16453 0.773023 -0.55774 -0.363197 -0.498196 -0.805764
internal_weight=743 312 231 134 431 242 181 189
internal_count=743 312 231 134 431 242 181 189
is_linear=0
shrinkage=0.0367523


Tree=34
num_leaves=8
num_cat=0
split_feature=100 1 3 35 28 108 109
split_gain=248113 65662.2 51403.3 13893.7 6949.96 3878.55 3874.49
threshold=-0.88930558076417487 132.73395833333336 14.784791666666669 0.41326329957804331 69.619474248927062 3.438051242847266 4.242373032904152
decision_type=2 2 2 2 2 2 2
left_child=4 3 -3 -2 5 -1 -6
right_child=1 2 -4 -5 6 -7 -8
leaf_value=-0.5816790316030036 -0.30407502351545501 1.7813623491036241 0.62547522163668123 0.46888323431538453 -0.61456440513527522 -0.91345019456896515 -0.28262689164057919
leaf_weight=89 63 94 117 62 99 110 93
leaf_count=89 63 94 117 62 99 110 93
internal_value=0.015436 0.747466 1.14241 0.0795388 -0.613723 -0.766287 -0.454548
internal_weight=727 336 211 125 391 199 192
internal_count=727 336 211 125 391 199 192
is_linear=0
shrinkage=0.0367523


Tree=35
num_leaves=8
num_cat=0
split_feature=100 53 94 100 78 47 15
split_gain=245682 56660.2 50270 10161.7 8413.49 5952.09 4397.32
threshold=-0.36940130006634647 137.47250000000003 12.203274685692671 -5.0662410019352393 57.318836331856538 15.945625000000001 1000.7645833333335
decision_type=2 10 2 2 10 8 2
left_child=3 -2 -3 6 5 -5 -1
right_child=1 2 -4 4 -6 -7 -8
leaf_value=-0.54446738213646084 0.16856603011463425 0.72288932941019846 1.9530784157403422 -0.223463661757276 -0.025244903879502525 -0.67271453839779283 -0.89798919556911716
leaf_weight=86 120 120 72 61 63 117 113
leaf_count=86 120 120 72 61 63 117 113
internal_value=0.00734999 0.795759 1.18679 -0.551882 -0.39048 -0.519461 -0.746373
internal_weight=752 312 192 440 241 178 199
internal_count=752 312 192 440 241 178 199
is_linear=0
shrinkage=0.0367523


Tree=36
num_leaves=8
num_cat=0
split_feature=35 57 106 19 71 56 107
split_gain=245409 41356.9 29318.1 26236 4046.51 3892.21 3674.59
threshold=0.68389408864483059 93.733218298650684 4.472906262931315 21.104166666666668 32.009251509661844 48.009375000000013 -19.160184435588313
decision_type=2 2 2 2 8 10 2
left_child=1 4 -2 -3 5 -1 -7
right_child=2 3 -4 -5 -6 6 -8
leaf_value=-0.45495535403066351 1.6410332161864987 0.42098456574952448 0.70694537961520187 -0.38622510028614959 -0.35751194791855345 -0.58467195641039205 -0.90641880077622528
leaf_weight=76 92 111 91 106 65 88 114
leaf_count=76 92 111 91 106 65 88 114
internal_value=0.0114687 -0.370426 1.17866 0.0266917 -0.621447 -0.682659 -0.767442
internal_weight=743 560 183 217 343 278 202
internal_count=743 560 183 217 343 278 202
is_linear=0
shrinkage=0.0367523


Tree=37
num_leaves=9
num_cat=0
split_feature=69 106 57 54 19 108 87 28
split_gain=177987 36347.5 31447.3 28249.8 23391 3981.61 5292.35 2726.06
threshold=99.710439311594214 3.1171418820171852 93.733218298650684 189.50375000000003 19.437500000000004 3.4968371236448941 0.29976566567472029 69.619474248927062
decision_type=10 2 2 10 2 2 2 2
left_child=2 -2 5 -3 -4 6 -1 -7
right_child=1 3 4 -5 -6 7 -8 -9
leaf_value=-0.66351490613656772 1.5559043346810082 1.0664341089342091 0.40227096293852804 0.015574422017589191 -0.44222432570362513 -0.82315398261069095 -0.22642188627273632 -0.53072180623583975
leaf_weight=80 70 67 93 71 84 119 71 72
leaf_count=80 70 67 93 71 84 119 71 72
internal_value=-0.0322718 0.875267 -0.396314 0.52711 0.00141591 -0.601958 -0.458942 -0.71403
internal_weight=727 208 519 138 177 342 151 191
internal_count=727 208 519 138 177 342 151 191
is_linear=0
shrinkage=0.0367523


Tree=38
num_leaves=9
num_cat=0
split_feature=35 97 87 19 109 4 15 0
split_gain=166196 42355.1 31264.1 25299.1 6116.09 6302 5213.06 1099.79
threshold=0.72660752476856549 -1.4966778427229659 0.84979333782539879 21.666666666666668 -7.2087147867418642 10.714375000000002 1000.5812500000001 15.348541666666668
decision_type=2 8 2 2 2 2 2 2
left_child=1 4 -2 -3 -1 6 -6 -8
right_child=2 3 -4 -5 5 -7 7 -9
leaf_value=-0.85726643215663401 1.3478933732575868 0.49663836288137453 0.32082900722003105 -0.30140900693641037 -0.29176229682866245 -0.1700385326009986 -0.7936184062896583 -0.58123759917251627
leaf_weight=72 114 108 62 106 62 69 78 68
leaf_count=72 114 108 62 106 62 69 78 68
internal_value=0.0026939 -0.305528 0.987372 0.101489 -0.554962 -0.475453 -0.576335 -0.696245
internal_weight=739 563 176 214 349 277 208 146
internal_count=739 563 176 214 349 277 208 146
is_linear=0
shrinkage=0.0367523


Tree=39
num_leaves=10
num_cat=0
split_feature=35 97 9 19 28 54 74 77 21
split_gain=157941 40865.6 34154.2 31820.5 10710 6636 5977.3 8367.66 2192.26
threshold=0.70252747416915695 1.0747052828156303 52.106648125000014 21.666666666666668 66.177119098712453 53.217916666666675 29.682949207525265 82.200438664596291 1.0000000180025095e-35
decision_type=2 10 10 2 2 8 2 8 2
left_child=1 4 -2 -3 8 -6 7 -7 -1
right_child=2 3 -4 -5 5 6 -8 -9 -10
leaf_value=-0.78282305898884652 0.23886068227760077 0.86315848857539457 1.3079323097609139 -0.30240730832651763 0.026695709999999498 -0.59796744909490651 -0.69451012531562673 -0.0302823311692124 -0.51602330462246115
leaf_weight=108 61 64 120 62 61 61 67 82 73
leaf_count=108 61 64 120 62 61 61 67 82 73
internal_value=0.00233878 -0.294399 0.948735 0.290339 -0.457494 -0.310665 -0.408547 -0.273266 -0.676361
internal_weight=759 578 181 126 452 271 210 143 181
internal_count=759 578 181 126 452 271 210 143 181
is_linear=0
shrinkage=0.0367523


end of trees

feature_importances:
doy_cos=58
aqi_daily=30
wind_u_mean_roll_mean_7=21
pm2_5_mean=20
temp_max=10
pressure_mean=8
clouds_mean=8
aqi_roll_mean_3=8
day_of_year=7
pm25_roll_mean_3=7
aqi_change_rate=7
nh3_mean=6
temp_range=6
pm10_mean=5
pm10_mean_lag7=5
pm25_roll_std_14=5
pm10_roll_mean_30=5
wind_u_mean_lag3=5
wind_v_mean=4
pm10_mean_lag5=4
pm10_roll_std_7=4
temp_mean_roll_mean_3=4
temp_mean_roll_std_7=4
humidity_mean_roll_std_7=4
wind_v_mean_roll_std_3=4
wind_v_mean_roll_std_7=4
co_mean=3
no_mean=3
o3_8h_max_ppb=3
temp_mean=3
wind_u_mean=3
pm10_mean_lag4=3
aqi_roll_std_14=3
pm25_roll_std_7=3
pm10_roll_std_3=3
pm10_roll_std_14=3
temp_mean_roll_std_3=3
wind_v_mean_roll_mean_7=3
no2_mean=2
temp_min=2
doy_sin=2
aqi_daily_lag3=2
pm2_5_mean_lag5=2
aqi_roll_mean_7=2
aqi_roll_std_30=2
pm25_roll_mean_7=2
pm10_roll_mean_14=2
temp_mean_roll_mean_7=2
humidity_mean_roll_std_3=2
wind_u_mean_lag1=2
o3_mean=1
wind_speed_max=1
rain_sum=1
day_of_week=1
week_of_year=1
aqi_daily_lag4=1
aqi_daily_lag5=1
aqi_daily_lag7=1
pm2_5_mean_lag2=1
pm2_5_mean_lag6=1
pm10_mean_lag6=1
aqi_roll_std_3=1
aqi_roll_std_7=1
pm25_roll_std_3=1
pm25_roll_mean_14=1
pm25_roll_mean_30=1
humidity_mean_lag1=1
humidity_mean_lag3=1
wind_u_mean_lag2=1
wind_u_mean_roll_std_3=1
wind_u_mean_roll_std_7=1
wind_v_mean_roll_mean_3=1

parameters:
[boosting: gbdt]
[objective: regression]
[metric: rmse]
[tree_learner: serial]
[device_type: cpu]
[data_sample_strategy: bagging]
[data: ]
[valid: ]
[num_iterations: 3000]
[learning_rate: 0.0367523]
[num_leaves: 87]
[num_threads: 0]
[seed: 42]
[deterministic: 0]
[force_col_wise: 0]
[force_row_wise: 1]
[histogram_pool_size: -1]
[max_depth: -1]
[min_data_in_leaf: 61]
[min_sum_hessian_in_leaf: 0.001]
[bagging_fraction: 0.887934]
[pos_bagging_fraction: 1]
[neg_bagging_fraction: 1]
[bagging_freq: 1]
[bagging_seed: 400]
[bagging_by_query: 0]
[feature_fraction: 0.766821]
[feature_fraction_bynode: 1]
[feature_fraction_seed: 30056]
[extra_trees: 0]
[extra_seed: 12879]
[early_stopping_round: 0]
[early_stopping_min_delta: 0]
[first_metric_only: 0]
[max_delta_step: 0]
[lambda_l1: 0]
[lambda_l2: 0.332115]
[linear_lambda: 0]
[min_gain_to_split: 0]
[drop_rate: 0.1]
[max_drop: 50]
[skip_drop: 0.5]
[xgboost_dart_mode: 0]
[uniform_drop: 0]
[drop_seed: 17869]
[top_rate: 0.2]
[other_rate: 0.1]
[min_data_per_group: 100]
[max_cat_threshold: 32]
[cat_l2: 10]
[cat_smooth: 10]
[max_cat_to_onehot: 4]
[top_k: 20]
[monotone_constraints: ]
[monotone_constraints_method: basic]
[monotone_penalty: 0]
[feature_contri: ]
[forcedsplits_filename: ]
[refit_decay_rate: 0.9]
[cegb_tradeoff: 1]
[cegb_penalty_split: 0]
[cegb_penalty_feature_lazy: ]
[cegb_penalty_feature_coupled: ]
[path_smooth: 0]
[interaction_constraints: ]
[verbosity: -1]
[saved_feature_importance_type: 0]
[use_quantized_grad: 0]
[num_grad_quant_bins: 4]
[quant_train_renew_leaf: 0]
[stochastic_rounding: 1]
[linear_tree: 0]
[max_bin: 255]
[max_bin_by_feature: ]
[min_data_in_bin: 3]
[bin_construct_sample_cnt: 200000]
[data_random_seed: 175]
[is_enable_sparse: 1]
[enable_bundle: 1]
[use_missing: 1]
[zero_as_missing: 0]
[feature_pre_filter: 1]
[pre_partition: 0]
[two_round: 0]
[header: 0]
[label_column: ]
[weight_column: ]
[group_column: ]
[ignore_column: ]
[categorical_feature: ]
[forcedbins_filename: ]
[precise_float_parser: 0]
[parser_config_file: ]
[objective_seed: 16083]
[num_class: 1]
[is_unbalance: 0]
[scale_pos_weight: 1]
[sigmoid: 1]
[boost_from_average: 1]
[reg_sqrt: 0]
[alpha: 0.9]
[fair_c: 1]
[poisson_max_delta_step: 0.7]
[tweedie_variance_power: 1.5]
[lambdarank_truncation_level: 30]
[lambdarank_norm: 1]
[label_gain: ]
[lambdarank_position_bias_regularization: 0]
[eval_at: ]
[multi_error_top_k: 1]
[auc_mu_weights: ]
[num_machines: 1]
[local_listen_port: 12400]
[time_out: 120]
[machine_list_filename: ]
[machines: ]
[gpu_platform_id: -1]
[gpu_device_id: -1]
[gpu_use_dp: 0]
[num_gpu: 1]

end of parameters

pandas_categorical:[]
